%YAML:1.0
my_svm: !!opencv-ml-svm
   svm_type: C_SVC
   kernel: { type:LINEAR }
   C: 1.
   term_criteria: { epsilon:2.2204460492503131e-16, iterations:100 }
   var_all: 81
   var_count: 81
   class_count: 10
   class_labels: !!opencv-matrix
      rows: 1
      cols: 10
      dt: i
      data: [ 0, 1, 2, 3, 4, 5, 6, 7, 8, 9 ]
   sv_total: 45
   support_vectors:
      - [ -6.18887655e-02, -7.87064210e-02, -2.35671118e-01,
          1.26700401e-01, 2.15899378e-01, -5.73156634e-03,
          -1.59459244e-02, -1.65978104e-01, 1.44270211e-01,
          -8.85553937e-03, 7.13619068e-02, -3.53409946e-02,
          1.53634757e-01, -1.34502843e-01, 5.46427034e-02,
          6.68873936e-02, -2.42529754e-02, 9.45832655e-02,
          1.20299950e-01, 1.03558652e-01, 4.41878177e-02, 1.61317980e-03,
          -1.48634881e-01, 2.10948572e-01, 6.24251589e-02,
          -8.45262632e-02, -4.13138568e-02, 7.88627788e-02,
          -8.46865848e-02, -2.56833613e-01, 2.06734985e-02,
          3.07147324e-01, 4.59437370e-02, -1.32082589e-03,
          -1.93054639e-02, -8.16205889e-02, 3.32458355e-02,
          -7.57934945e-03, -5.03529012e-02, 6.14031777e-02,
          -4.43478450e-02, 4.97209802e-02, 9.65654617e-04,
          -2.81503424e-03, 3.03504970e-02, 8.30679163e-02,
          9.31743346e-03, 5.91650140e-04, 1.89960804e-02,
          -4.00682911e-02, 4.71066833e-02, 2.57041742e-04,
          1.23126071e-03, 1.00310156e-02, 1.99274302e-01, 1.13257684e-01,
          2.65028868e-02, -5.57089504e-03, 2.50851840e-01,
          1.52989611e-01, -4.32272069e-03, -1.81408203e-03,
          -3.52290094e-01, 8.80405605e-02, 9.14995000e-02,
          6.37652352e-02, 3.83679196e-02, -8.14288035e-02,
          1.52974442e-01, 2.62975823e-02, 8.07909667e-02,
          -5.04133627e-02, -2.80143525e-02, -1.86013542e-02,
          3.41161601e-02, 1.65391967e-01, -1.16253115e-01,
          -2.56798055e-04, 2.69703921e-02, 8.18910003e-02,
          5.10792285e-02 ]
      - [ -2.23770812e-02, -1.00563914e-01, -9.42297652e-02,
          -2.84855310e-02, 1.39797166e-01, -3.32435174e-03,
          -8.77058879e-02, -8.06770548e-02, 1.32856697e-01,
          2.22526048e-03, -8.96672439e-03, 3.81367654e-03,
          8.57349136e-04, 7.91972037e-04, -6.01655208e-02,
          -4.04230431e-02, 5.11922613e-02, 2.58238260e-02,
          7.14194849e-02, 4.10806946e-02, 2.75068413e-02,
          -3.57035957e-02, -2.63732299e-02, 2.96445508e-02,
          -1.72328157e-03, 1.36932302e-02, -1.09580949e-01,
          8.25766772e-02, -1.81368515e-02, -5.03983051e-02,
          -1.47807330e-01, 2.01757327e-01, 3.19289565e-02,
          -2.47542071e-03, -1.70245439e-01, 3.15962844e-02,
          3.45040485e-02, -7.10112101e-04, 1.25958875e-04,
          -1.70509741e-01, 1.14190824e-01, 1.21758794e-02,
          5.93171397e-04, -7.12749436e-02, 2.63318755e-02,
          4.31561358e-02, -2.49619409e-03, -5.26919088e-04,
          -1.70790493e-01, 7.88742378e-02, 3.42095667e-03,
          4.00581601e-04, 4.86443576e-04, -2.08538081e-02,
          1.88916400e-01, 7.45157674e-02, -1.59627840e-01,
          -1.09400205e-01, 1.68148279e-01, 9.48854163e-02,
          -8.08930025e-02, -1.82539567e-01, -3.17675024e-02,
          1.00273035e-01, 7.51469359e-02, -8.43027383e-02,
          -1.52469799e-01, 1.59474894e-01, 8.35191831e-02,
          -1.19366154e-01, -2.79375073e-02, 8.97316262e-02,
          1.28448689e-02, 2.65300740e-03, -7.97429681e-02,
          -8.82916525e-02, 1.23023018e-01, -1.89609211e-02,
          -1.30561605e-01, 5.37757427e-02, 1.36986569e-01 ]
      - [ -3.25333625e-02, -6.17659278e-02, -1.65959418e-01,
          -1.50602432e-02, 1.59075975e-01, -3.66171659e-03,
          -8.63592103e-02, -1.20829672e-01, 2.06633583e-01,
          -4.09947000e-02, -8.40589404e-03, -4.78191935e-02,
          3.23560499e-02, 1.34994090e-01, -3.86630222e-02,
          -8.29414204e-02, 1.48456525e-02, 1.89185701e-02,
          4.80636880e-02, 2.48143282e-02, 3.42057161e-02,
          -7.49691501e-02, 2.05560960e-02, 2.21231878e-02,
          -4.64212485e-02, 1.21573899e-02, -1.04214877e-01,
          3.39654386e-02, -1.19616665e-01, -2.35927403e-01,
          -1.22646227e-01, 2.36278310e-01, 3.85234803e-02,
          -1.00885168e-01, -5.37988432e-02, 1.26073465e-01,
          -1.06507719e-01, -1.26065984e-01, -8.52193013e-02,
          -5.97408116e-02, 1.98527679e-01, -2.45749317e-02,
          -5.45710623e-02, -6.44491687e-02, 5.52728027e-02,
          -3.25868391e-02, -7.39272982e-02, -9.20288917e-03,
          -7.15694875e-02, 8.80030319e-02, -1.37288690e-01,
          -1.94045268e-02, -4.12128344e-02, 4.74118851e-02,
          1.46133035e-01, -8.75926837e-02, -6.36858791e-02,
          3.38536338e-04, 2.11073548e-01, 3.02644707e-02,
          -2.50719011e-01, -6.08241707e-02, -1.59166194e-02,
          5.23533160e-03, -4.48758677e-02, -2.96164863e-02,
          -5.02213463e-02, 1.80979401e-01, 3.27912569e-02,
          -1.13952518e-01, -9.14805532e-02, 3.35134082e-02,
          -7.61342272e-02, -6.15155436e-02, -9.22686234e-03,
          -3.96433696e-02, 5.69858067e-02, -1.34441018e-01,
          -9.39483754e-03, -5.75108975e-02, 9.59366187e-02 ]
      - [ -5.52194193e-03, -4.06099316e-05, 1.58839603e-03,
          8.25104043e-02, 2.33682364e-01, -1.31102349e-03,
          1.48915891e-02, -7.34396651e-02, -6.28680065e-02,
          7.37952963e-02, 1.06797583e-01, 2.22763792e-02, 3.05369161e-02,
          6.03945516e-02, 3.29072289e-02, 9.04166326e-02, 1.72232483e-02,
          -1.40784606e-01, 2.10654959e-01, 1.14966772e-01,
          2.54879147e-02, -1.08763710e-01, -9.19025168e-02,
          1.80205464e-01, 7.80493468e-02, -7.64032006e-02,
          -1.98847681e-01, 1.38786525e-01, -8.74248435e-05,
          -7.88997263e-02, -1.20950021e-01, 2.54680574e-01,
          4.15399745e-02, -1.17657408e-01, -2.03294948e-01,
          -6.26752004e-02, 8.71726424e-02, 5.52073354e-03,
          -6.38937950e-02, -9.03997049e-02, 1.40436009e-01,
          4.35953587e-02, -9.94900689e-02, -1.35381386e-01,
          -5.64049743e-02, 1.30235821e-01, 4.54539107e-03,
          -4.46032360e-02, -7.04291686e-02, -3.85628897e-03,
          1.08368220e-02, -8.53117704e-02, -7.19993636e-02,
          -1.56421624e-02, 2.81026602e-01, 8.86964500e-02,
          -2.49274805e-01, -1.84933245e-01, 1.92827642e-01,
          1.54948413e-01, -1.29395604e-01, -1.43806830e-01,
          -1.63248077e-01, 5.79204895e-02, 7.08048269e-02,
          -7.95555264e-02, -4.63282801e-02, 8.00050274e-02,
          1.49798766e-01, -8.91882703e-02, 1.87178440e-02,
          -7.50340223e-02, -7.61778802e-02, -4.28547598e-02,
          -2.18618046e-02, 1.30519822e-01, -8.22026357e-02,
          -4.25761640e-02, -6.80378452e-02, 5.58843315e-02,
          6.60981759e-02 ]
      - [ -1.21571451e-01, 2.31767684e-04, -8.64726007e-02,
          8.11028630e-02, 3.72190997e-02, -2.57420782e-02,
          -1.96206659e-01, 8.31163973e-02, 7.90845454e-02,
          6.15648367e-02, 8.57724398e-02, -1.19861104e-01,
          8.13773274e-02, 6.75599352e-02, 2.12996732e-02,
          -1.90125212e-01, 1.07729934e-01, 1.44031137e-01,
          1.84859440e-01, 9.00697634e-02, -1.41677529e-01,
          -2.58013271e-02, 1.13027446e-01, 1.49544269e-01,
          -1.92011669e-01, 1.49348769e-02, 4.15903069e-02,
          1.37569977e-03, -7.19999671e-02, -1.26327187e-01,
          -2.49278992e-02, 6.49119914e-02, 1.36398803e-03,
          -7.39634931e-02, -2.10184827e-02, 9.37426090e-03,
          -5.35265952e-02, -6.69797063e-02, -1.45496428e-01,
          2.91785761e-03, 9.60890129e-02, -1.11865327e-01,
          -1.21690929e-01, -1.41524980e-02, 1.36948869e-01,
          -3.38424146e-02, -3.85102443e-02, -8.86322632e-02,
          1.22423768e-02, 1.01778679e-01, -1.57825053e-01,
          -1.04319461e-01, -2.60609598e-03, 1.02440752e-01,
          1.50938064e-01, -1.32362172e-01, -1.22859247e-01,
          -3.86599898e-02, 1.83830768e-01, 1.05972616e-02,
          -1.15259722e-01, -8.61917138e-02, -1.86711568e-02,
          -7.05762813e-03, -9.14563797e-03, -1.97053980e-02,
          -1.11731611e-01, 1.43022642e-01, -3.49645205e-02,
          -2.42064781e-02, 7.31154205e-03, 1.42425001e-02,
          -9.28524807e-02, -3.27364504e-02, 3.46600600e-02,
          -2.04121880e-02, 2.96479389e-02, -1.29122868e-01,
          8.64724349e-03, 3.93825471e-02, 4.66525592e-02 ]
      - [ 1.25868684e-02, 2.28108052e-04, 5.86231530e-04,
          -6.87335804e-02, 1.24592833e-01, -4.13792720e-03,
          -6.42920332e-03, -8.65351558e-02, 4.44048457e-02,
          1.22511484e-01, 1.00035995e-01, -4.31468338e-02,
          -8.89443308e-02, 1.24622390e-01, 4.72740270e-02,
          -9.19939056e-02, -9.49222296e-02, 1.95550814e-01,
          2.34957293e-01, 9.85924527e-02, -1.14657126e-01,
          -6.49616048e-02, 2.02545077e-01, 1.91856489e-01,
          -2.73826271e-01, -5.97773865e-02, 5.38361110e-02,
          5.08828685e-02, 1.26559607e-04, -8.82062875e-03,
          -1.94361076e-01, 1.43294036e-01, 3.54538821e-02,
          -3.16874422e-02, -7.91406333e-02, -1.52722504e-02,
          1.99732110e-02, -4.60215658e-02, -4.60722744e-02,
          -2.50101894e-01, 1.16617650e-01, 3.21022011e-02,
          -1.56166419e-01, -1.06106244e-01, 2.36252785e-01,
          -1.19167357e-03, -8.12337697e-02, -5.61054386e-02,
          1.66736562e-02, 1.31884277e-01, -1.64132506e-01,
          -2.10467324e-01, -1.59449093e-02, 8.32668617e-02,
          4.01463322e-02, -6.60472140e-02, -1.91743392e-02,
          -1.51865438e-01, 8.72536451e-02, -6.96404325e-03,
          -4.21820916e-02, -1.92070883e-02, -4.06541154e-02,
          2.12544631e-02, -8.65531340e-02, -7.47398660e-02,
          -1.13473833e-01, 9.36758891e-02, -9.46949422e-03,
          -4.70906794e-02, -1.29921474e-02, 1.13356054e-01,
          -9.83635113e-02, -6.95633516e-02, -6.04348369e-02,
          -2.54551321e-03, 5.64516112e-02, -1.52673900e-01,
          -6.36047544e-03, 6.26438530e-03, 6.69182166e-02 ]
      - [ -1.38360756e-02, -1.62688047e-02, -1.30538538e-01,
          7.17883036e-02, 9.14778039e-02, -5.22266550e-04,
          -1.17470868e-01, 4.95076030e-02, 8.63204375e-02,
          5.36829233e-02, 3.38805020e-02, -1.07331529e-01,
          5.12604937e-02, 8.84908661e-02, 2.19984427e-02,
          -7.74071887e-02, 4.11641635e-02, 4.92987260e-02,
          1.03287540e-01, 4.14008796e-02, -4.92029823e-02,
          -1.08278796e-01, 8.53413939e-02, 8.05476159e-02,
          -7.18605667e-02, -2.02991571e-02, -3.54178138e-02,
          4.16169427e-02, -1.98746361e-02, -1.56645879e-01,
          2.73434687e-02, 1.30467400e-01, 1.97138358e-02,
          -9.60210047e-04, -2.29444616e-02, 1.47120487e-02,
          5.63920215e-02, -4.26415633e-03, -1.09899111e-01,
          -7.28688836e-02, 1.24487817e-01, 1.97605025e-02,
          -1.42121120e-04, -4.38588634e-02, 1.48946242e-02,
          7.39301220e-02, 4.41600481e-04, -5.18676564e-02,
          -1.53912961e-01, 1.32678956e-01, 1.87577307e-02,
          6.48838832e-05, -3.47531512e-02, 1.47200348e-02,
          1.10747665e-01, 3.88076454e-02, 3.81689332e-03,
          -1.02516696e-01, 9.43917930e-02, 6.52207658e-02,
          4.10050634e-05, -3.60775888e-02, -1.13150686e-01,
          5.77522442e-02, 4.05979343e-02, 4.16099504e-02,
          -1.24835998e-01, 8.78630430e-02, 6.20849431e-02,
          1.07025113e-02, -1.87279121e-03, -7.35466694e-03,
          1.09206773e-02, 9.77602831e-05, 3.62816304e-02,
          -9.94924009e-02, 8.83964598e-02, -1.12023542e-03,
          1.09642399e-02, 6.73658354e-03, 6.32431805e-02 ]
      - [ -2.43883282e-01, -1.32986233e-01, -7.88064301e-02,
          5.79880513e-02, 3.21821794e-02, -1.39327303e-01,
          -1.94330528e-01, -6.22434281e-02, 2.33390823e-01,
          -2.71845772e-03, 7.93750770e-03, -1.55627802e-02,
          4.77761328e-02, 6.48743510e-02, -1.21092424e-01,
          -1.57115176e-01, -3.33815515e-02, 1.59145191e-01,
          1.22686282e-01, 3.30891907e-02, 4.35879529e-02,
          -2.41540685e-01, 1.02568030e-01, 4.53119632e-03,
          -6.12690859e-02, -1.33184433e-01, -1.34079188e-01,
          3.29610743e-02, -1.03953749e-01, -5.00900634e-02,
          -1.61978945e-01, 1.07619382e-01, -2.76800729e-02,
          -7.57194087e-02, -1.39741406e-01, 8.87706783e-03,
          -1.00201145e-01, -1.90980569e-01, -5.54220490e-02,
          -2.01340094e-01, 1.46659434e-01, -6.91603497e-02,
          -9.48908627e-02, -1.28633663e-01, 1.79919243e-01,
          -3.98551412e-02, -1.43023506e-01, -6.25081593e-03,
          -1.46545008e-01, 1.33518860e-01, -1.93784401e-01,
          -2.91259941e-02, -1.13915741e-01, 8.01734254e-02,
          2.26212472e-01, -1.06007561e-01, -9.60657299e-02,
          -2.38487050e-01, 1.25027806e-01, 4.73467726e-03,
          -4.83928099e-02, -1.50991529e-01, -1.57739177e-01,
          5.83629087e-02, -1.32405028e-01, -9.33942124e-02,
          -2.13402450e-01, 2.26822823e-01, -2.17149705e-02,
          -2.30881013e-02, -4.14863452e-02, 1.25481337e-01,
          -1.39386669e-01, -1.75267413e-01, -2.73242779e-02,
          -5.04170284e-02, 9.39178020e-02, -2.44959280e-01,
          1.06933741e-02, -4.08240184e-02, 1.66462287e-01 ]
      - [ -1.19785115e-01, 9.31856164e-04, -8.68440955e-04,
          -4.29673716e-02, 1.60099640e-02, -5.50665744e-02,
          -3.85227762e-02, -8.63950700e-02, 1.01357490e-01,
          -1.97451399e-03, 3.17252018e-02, -7.25562777e-03,
          -2.67281476e-02, 3.17805819e-02, -8.58947560e-02,
          -4.08915095e-02, -5.48487790e-02, 9.06199217e-02,
          1.71097219e-01, 4.33128923e-02, -4.71385708e-03,
          1.06838602e-03, 1.26675412e-01, -1.51876256e-01,
          -4.04379983e-03, 1.20448461e-02, -2.20078886e-01,
          1.35040062e-03, -2.90693730e-01, -9.90845114e-02,
          -1.35979891e-01, 2.01716468e-01, -2.17913702e-01,
          -2.61246762e-03, -8.58756155e-02, 8.24785829e-02,
          4.15130965e-02, -2.65340269e-01, -1.89187035e-01,
          -1.68290123e-01, 2.71709502e-01, -1.45540327e-01,
          -3.66411768e-02, -1.81803524e-01, 5.79439439e-02,
          1.31742612e-01, -3.73894013e-02, -1.02947511e-01,
          -1.63287595e-01, 1.16916426e-01, -1.18188918e-01,
          -3.12871113e-02, -1.04022935e-01, -1.02324598e-01,
          2.10824564e-01, -2.86855102e-01, -1.92939103e-01,
          1.94012991e-03, 4.05189306e-01, -1.59729093e-01,
          -1.39646664e-01, -2.19218880e-02, 1.27230301e-01,
          1.57162219e-01, -1.06856547e-01, -1.30102992e-01,
          -1.79014087e-01, 4.01514769e-01, 9.55618639e-03,
          -7.36209378e-02, -1.30217642e-01, 1.71040911e-02,
          2.40243170e-02, -1.28596546e-02, -8.12042784e-03,
          -1.87208354e-01, 1.38977304e-01, -1.99785340e-04,
          1.20530613e-02, -8.66227895e-02, 9.09080133e-02 ]
      - [ 1.69399772e-02, -4.37882319e-02, 5.63360676e-02,
          -1.01996109e-01, -3.16082803e-03, 4.34460235e-04,
          -6.98771104e-02, 2.67079882e-02, 3.36224958e-02,
          7.34116090e-03, -5.10352738e-02, 2.47064475e-02,
          -9.16061252e-02, 8.15961808e-02, -8.73702615e-02,
          -7.68455788e-02, 6.09662645e-02, -3.34767662e-02,
          -7.62880407e-03, -2.50503682e-02, -1.64832675e-03,
          -3.33191529e-02, 6.54810369e-02, -9.99872461e-02,
          -3.90985720e-02, 6.32336438e-02, -7.44428113e-02,
          2.73969304e-02, 3.44904996e-02, 1.08774759e-01,
          -1.46351635e-01, -1.89081382e-03, 1.30245415e-03,
          -1.44861406e-03, -1.42641649e-01, 7.77074173e-02,
          1.12710521e-02, 3.91418394e-03, 3.03920936e-02,
          -1.91412449e-01, 1.30129263e-01, -1.88660696e-02,
          -4.32218731e-05, -6.28857091e-02, 5.60769206e-03,
          -1.08485324e-02, -7.86438305e-03, -8.33181606e-04,
          -1.66166797e-01, 9.55574214e-02, -2.52264217e-02,
          2.08382538e-04, -2.99635256e-04, -2.49263272e-02,
          5.13404123e-02, -5.88807103e-04, -1.60566881e-01,
          -9.57718343e-02, 1.50916551e-03, -6.02436997e-03,
          -7.06935227e-02, -1.64298534e-01, 1.83054566e-01,
          3.79119180e-02, 1.30665870e-02, -1.14725225e-01,
          -1.61215976e-01, 1.93456084e-01, -1.63135882e-02,
          -1.23964451e-01, -7.38935247e-02, 1.11615367e-01,
          2.84835100e-02, 1.35890273e-02, -9.27654207e-02,
          -1.79449081e-01, 1.81369379e-01, -1.70250628e-02,
          -1.34512633e-01, -5.18970948e-04, 9.34015140e-02 ]
      - [ 1.35180792e-02, 8.71376978e-05, 1.61865465e-02,
          -9.61722136e-02, -8.92373361e-03, 7.07739382e-04,
          -6.19223751e-02, 8.08832049e-03, 7.81953409e-02,
          -2.85466071e-02, -5.41032106e-02, -1.68076493e-02,
          -7.41595849e-02, 2.01914802e-01, -6.84584454e-02,
          -1.13671802e-01, 2.84434427e-02, -4.64950278e-02,
          -3.90050113e-02, -4.74677123e-02, -4.44215169e-04,
          -6.39462322e-02, 1.15244523e-01, -1.20532595e-01,
          -8.00972506e-02, 6.59298152e-02, -6.01729751e-02,
          -2.35087108e-02, -4.44938429e-02, -2.85476428e-02,
          -1.16504215e-01, -4.33240039e-03, 2.01966986e-03,
          -8.37495103e-02, -3.23962905e-02, 1.59564421e-01,
          -1.11257143e-01, -1.00744098e-01, -3.82799804e-02,
          -9.05955881e-02, 1.95761710e-01, -5.33965081e-02,
          -4.64097895e-02, -5.22025451e-02, 2.63500717e-02,
          -8.21040496e-02, -6.81521520e-02, -8.10929947e-03,
          -7.25560933e-02, 1.00234188e-01, -1.46214738e-01,
          -1.64455995e-02, -3.53803113e-02, 3.31541561e-02,
          -8.81825201e-03, -1.48147464e-01, -7.08930939e-02,
          3.95713048e-03, 1.16448328e-02, -7.54885823e-02,
          -2.07447737e-01, -4.98219468e-02, 2.18932152e-01,
          -5.36583103e-02, -9.79712084e-02, -6.68853447e-02,
          -6.74225390e-02, 2.05491930e-01, -7.33591616e-02,
          -1.12920351e-01, -1.30001575e-01, 6.13504387e-02,
          -4.53885421e-02, -3.93331572e-02, -3.02338134e-02,
          -1.42303333e-01, 1.24450088e-01, -1.12597041e-01,
          -2.56631412e-02, -1.02233835e-01, 4.67905402e-02 ]
      - [ 6.77652583e-02, 9.41973329e-02, 2.84019291e-01,
          -5.69626614e-02, 9.82602593e-03, 5.35754440e-03,
          3.61944139e-02, 1.14410497e-01, -2.44944543e-01,
          9.53456908e-02, 3.71901914e-02, 6.78985268e-02,
          -1.48897305e-01, 2.30408624e-01, -2.76411641e-02,
          2.37371512e-02, 4.88189049e-02, -2.74923444e-01,
          9.78546292e-02, 8.01843870e-03, -2.36422513e-02,
          -1.26829177e-01, 7.24419206e-02, -4.56553996e-02,
          1.48784528e-02, 1.34760002e-02, -1.78874731e-01,
          6.49426803e-02, 1.01304285e-01, 2.16931939e-01,
          -1.63646221e-01, -7.53222778e-02, -7.31161237e-03,
          -1.33528933e-01, -2.10334778e-01, 2.57610958e-02,
          6.02947399e-02, 1.54152690e-02, -1.30785555e-02,
          -1.77334309e-01, 2.14370668e-01, -9.47425235e-03,
          -1.15404539e-01, -1.52092874e-01, -1.01114020e-01,
          5.00883013e-02, -5.93715394e-03, -5.19280508e-02,
          -1.03622638e-01, 4.35499065e-02, -4.39617448e-02,
          -9.82745513e-02, -8.41539502e-02, -2.99737453e-02,
          8.41002688e-02, -3.37625183e-02, -3.17986667e-01,
          -2.05695271e-01, -7.89414942e-02, -5.25831198e-03,
          -1.43413857e-01, -1.62966684e-01, 2.34372154e-01,
          -3.89084592e-02, -2.82546543e-02, -1.67709872e-01,
          -9.91427228e-02, 1.89376622e-01, -1.11536840e-02,
          -1.33907333e-01, -7.52456039e-02, -2.57989019e-02,
          -5.39332666e-02, -2.69382857e-02, -6.59558252e-02,
          -4.81613129e-02, 4.48063724e-02, -4.85843457e-02,
          -1.10425115e-01, -3.38830948e-02, 1.47402100e-02 ]
      - [ -5.57888001e-02, 4.27724011e-02, 6.40543252e-02,
          -9.01449937e-03, -8.95264298e-02, -1.58038419e-02,
          -1.35472417e-01, 1.50885254e-01, -2.00070255e-02,
          5.00095040e-02, 2.43686642e-02, -6.89024106e-02,
          -2.33919322e-02, 1.22422919e-01, -1.39334751e-02,
          -1.75841898e-01, 9.22496989e-02, 5.45874164e-02,
          7.06537738e-02, 1.00973891e-02, -1.27972767e-01,
          -1.98229179e-02, 1.63465828e-01, -4.34964476e-03,
          -1.74812078e-01, 5.67212366e-02, 5.29082716e-02,
          -4.16764356e-02, -7.04112183e-03, 4.62380275e-02,
          -2.94983946e-02, -1.18578091e-01, -2.38666311e-02,
          -5.36074154e-02, -4.98733297e-03, 5.10644689e-02,
          -5.73078059e-02, -4.50905748e-02, -7.96045884e-02,
          -3.10932714e-02, 9.45769846e-02, -1.09072238e-01,
          -8.98983702e-02, -8.87055602e-03, 8.41537416e-02,
          -6.98184744e-02, -3.33271138e-02, -6.54160529e-02,
          -1.29079958e-03, 9.64393169e-02, -1.41412213e-01,
          -7.67563730e-02, -2.58049881e-03, 6.98078349e-02,
          2.99306796e-03, -1.58517227e-01, -1.04579218e-01,
          -2.53783464e-02, -7.66813522e-04, -7.50270188e-02,
          -8.23124945e-02, -6.23214208e-02, 1.76974446e-01,
          -5.28380238e-02, -5.62438108e-02, -4.89874147e-02,
          -1.02828853e-01, 1.49118468e-01, -1.08481579e-01,
          -3.20127495e-02, -3.83605547e-02, 3.77481021e-02,
          -5.30317351e-02, -1.39746927e-02, 6.98963599e-03,
          -1.04514994e-01, 8.47003162e-02, -9.46950540e-02,
          -8.24757200e-03, -1.54014872e-02, 6.61574304e-03 ]
      - [ 4.05946560e-02, 4.24970910e-02, 1.27193302e-01,
          -1.07963473e-01, -4.41304184e-02, 6.91183726e-04,
          4.86366032e-03, 3.92770842e-02, -5.19662648e-02,
          7.56437555e-02, 1.94624513e-02, -5.93901146e-03,
          -1.34153977e-01, 1.44496873e-01, -2.06275168e-03,
          -8.92249569e-02, -4.18611802e-02, 6.22217506e-02,
          7.11772963e-02, 1.29684783e-03, -9.01179612e-02,
          -3.84508409e-02, 1.97184637e-01, -2.55122664e-03,
          -1.92019343e-01, 1.09144831e-02, 5.33839539e-02,
          -1.30117964e-02, 4.56572697e-02, 1.33142203e-01,
          -1.23572432e-01, -8.24269503e-02, -4.21873992e-03,
          -1.76213160e-02, -3.53940688e-02, 3.50982025e-02,
          -6.33997004e-03, -2.25453377e-02, 4.48944716e-04,
          -1.77743882e-01, 9.13383290e-02, -8.19096994e-03,
          -9.08674151e-02, -5.98708689e-02, 1.20343663e-01,
          -4.54021990e-02, -5.20117991e-02, -3.27773876e-02,
          -5.78692358e-04, 9.78670567e-02, -1.20312303e-01,
          -1.21900938e-01, -9.88742616e-03, 4.27733697e-02,
          -8.40368792e-02, -9.91735309e-02, -2.53586601e-02,
          -8.48607421e-02, -8.45462009e-02, -8.63782987e-02,
          -2.20770091e-02, -1.01354988e-02, 1.66106567e-01,
          -3.50929499e-02, -9.93251875e-02, -7.75623471e-02,
          -8.63007233e-02, 9.80252102e-02, -8.78196210e-02,
          -4.13987115e-02, -5.10035679e-02, 9.27162543e-02,
          -4.18274514e-02, -3.02322824e-02, -5.33272550e-02,
          -9.04978141e-02, 9.52344909e-02, -8.81888643e-02,
          -1.81970429e-02, -4.04551141e-02, 1.12201916e-02 ]
      - [ 1.34703415e-02, 1.86823197e-02, -3.97237353e-02,
          2.32369769e-02, 3.52766691e-03, 2.13499391e-03,
          -1.29700899e-01, 1.37389705e-01, 3.18105482e-02,
          6.70047402e-02, 5.42640593e-03, -1.08555794e-01,
          -1.36652142e-02, 1.67888850e-01, -4.56335285e-04,
          -1.22540668e-01, 5.97444400e-02, 1.23286769e-02,
          6.31298944e-02, -1.20446400e-03, -7.86923170e-02,
          -1.27365455e-01, 1.70976371e-01, -6.87962724e-03,
          -1.13918364e-01, 1.67581700e-02, -2.16176622e-02,
          1.08782137e-02, 1.73312891e-02, -6.01092912e-02,
          2.20650136e-02, 5.40128443e-03, 1.03971607e-03,
          -4.89900820e-04, -1.75773036e-02, 5.62991388e-02,
          5.00042029e-02, -1.35464175e-03, -1.04366489e-01,
          -1.14607662e-01, 1.66787222e-01, -7.15140079e-04,
          -6.28736918e-04, -4.99285124e-02, 2.87503703e-03,
          4.66423407e-02, -3.94704286e-03, -6.09237887e-02,
          -1.89044967e-01, 1.74313754e-01, -6.35188364e-04,
          -4.72726933e-05, -4.12209891e-02, 1.24045676e-02,
          3.40206809e-02, -8.88244342e-03, -8.23322032e-03,
          -1.17187388e-01, -9.80877504e-03, 2.96529150e-03,
          2.11865525e-03, -4.13106233e-02, 3.64690833e-02,
          2.53461469e-02, 3.63347842e-03, 1.81022231e-02,
          -1.64329723e-01, 1.41730770e-01, -6.93640439e-04,
          -8.46449984e-05, -4.08908799e-02, 1.55509263e-02,
          2.61874907e-02, 9.02491063e-03, 2.60754991e-02,
          -1.95547983e-01, 1.59036309e-01, -1.18669402e-03,
          -1.00945530e-04, -3.13522965e-02, 4.94714044e-02 ]
      - [ -8.31404999e-02, -1.37115438e-02, 1.24836370e-01,
          -5.90006970e-02, -1.35145664e-01, -6.83347061e-02,
          -8.97185802e-02, 8.44179243e-02, 1.97446384e-02,
          4.81691957e-03, -4.60723825e-02, 1.67751629e-02,
          -8.32500383e-02, 1.28303245e-01, -1.01330094e-01,
          -1.28652975e-01, -2.79039057e-04, 1.61308590e-02,
          -2.08946057e-02, -5.56554645e-02, -8.44171271e-03,
          -1.26590267e-01, 1.57821536e-01, -1.46025181e-01,
          -7.57320970e-02, -9.72088240e-03, -4.05806974e-02,
          -3.83512340e-02, 5.57422545e-03, 1.54637024e-01,
          -9.86729115e-02, -1.60146505e-01, -4.66932245e-02,
          -3.83994021e-02, -5.90020753e-02, 6.20216615e-02,
          -7.54289180e-02, -9.38635692e-02, 6.63155969e-03,
          -1.47765756e-01, 1.07368246e-01, -7.08948374e-02,
          -4.99652848e-02, -6.48319125e-02, 7.21013993e-02,
          -7.91296214e-02, -8.08397904e-02, -3.66281648e-03,
          -8.94766897e-02, 9.75328833e-02, -1.33785367e-01,
          -1.53087620e-02, -6.00335822e-02, 3.45861651e-02,
          -2.26729866e-02, -1.34724125e-01, -6.85380921e-02,
          -1.19951025e-01, -1.11507043e-01, -1.05151869e-01,
          -2.20945459e-02, -7.71485865e-02, 1.65867284e-01,
          -3.16131301e-02, -1.33130446e-01, -9.33603942e-02,
          -1.37828186e-01, 1.75087199e-01, -1.18879072e-01,
          -3.04892976e-02, -7.83752799e-02, 1.00634813e-01,
          -5.26921004e-02, -7.79494494e-02, -3.81890498e-02,
          -1.42521173e-01, 1.30551696e-01, -1.27050564e-01,
          -1.34165380e-02, -7.88050219e-02, 5.05315475e-02 ]
      - [ -7.95676745e-03, 4.97440174e-02, 1.47519797e-01,
          -9.62733999e-02, -1.29201144e-01, -1.79118644e-02,
          -5.04177064e-03, 7.03898519e-02, -5.09264208e-02,
          4.78472235e-03, -3.23809534e-02, 1.93388872e-02,
          -1.06829196e-01, 9.67992917e-02, -6.78312331e-02,
          -5.79361990e-02, -6.20655110e-03, -2.39469148e-02,
          -8.64873733e-03, -4.80551422e-02, -2.95643695e-02,
          -5.94813027e-04, 1.42729551e-01, -1.91667795e-01,
          -4.07446846e-02, 5.77358566e-02, -6.00379705e-02,
          -4.89507131e-02, -6.04067594e-02, 1.22435972e-01,
          -6.60812929e-02, -1.13916710e-01, -1.13937318e-01,
          -1.91693645e-04, -2.14290135e-02, 8.34227577e-02,
          -4.64416156e-03, -9.88809690e-02, -4.23012152e-02,
          -1.04254588e-01, 1.33947551e-01, -8.80396515e-02,
          -1.49171054e-02, -6.92424178e-02, 3.58989788e-03,
          -6.60596183e-04, -2.04492137e-02, -4.05802876e-02,
          -7.56946877e-02, 7.08037168e-02, -7.57165775e-02,
          -1.23813422e-02, -4.14016172e-02, -4.62592095e-02,
          -4.26802412e-02, -1.83096811e-01, -9.19856727e-02,
          4.25292784e-03, 8.74943275e-04, -1.58371747e-01,
          -5.18309362e-02, -7.42407283e-03, 2.70718634e-01,
          6.14794437e-03, -9.91422534e-02, -9.08214599e-02,
          -9.39909220e-02, 2.07911134e-01, -9.22430307e-02,
          -4.52537462e-02, -1.01548105e-01, 3.83096077e-02,
          2.69594621e-02, 6.64770044e-03, -2.45759897e-02,
          -1.76885739e-01, 1.27218232e-01, 8.30820645e-05,
          -1.22134350e-02, -8.52110460e-02, 3.45984427e-03 ]
      - [ -8.18732940e-03, 7.78792575e-02, -7.38076344e-02,
          2.53673438e-02, -8.83656833e-03, 3.74565570e-04,
          2.37983149e-02, -3.43197882e-02, 6.69121593e-02,
          -5.92515692e-02, 3.00770416e-03, -7.10744634e-02,
          4.25615385e-02, 1.82052597e-01, 4.42720018e-02,
          -4.76158038e-02, -6.21830821e-02, -1.58461891e-02,
          -4.96078506e-02, -3.23805884e-02, 2.20709876e-03,
          -4.43805382e-02, 7.03378394e-02, -1.76399387e-02,
          -6.02696761e-02, -5.51574491e-03, 3.47362831e-02,
          -8.67003500e-02, -1.33269891e-01, -2.39330471e-01,
          7.11939409e-02, -3.65761085e-03, 9.57690703e-04,
          -1.33023679e-01, 2.00783223e-01, 1.20388627e-01,
          -2.00141653e-01, -1.70059606e-01, -1.15933284e-01,
          1.93138957e-01, 8.59285891e-02, -5.29587790e-02,
          -7.50634670e-02, 2.71233153e-02, 3.27068754e-02,
          -1.13671698e-01, -9.63805690e-02, -1.16502717e-02,
          1.77526832e-01, -7.36002577e-03, -1.91945329e-01,
          -2.69963462e-02, -5.67508712e-02, 9.79307815e-02,
          -1.05422996e-01, -2.38814205e-01, 1.70277655e-01,
          1.76432595e-01, 1.61744207e-02, -1.11525297e-01,
          -2.10366488e-01, 2.11017996e-01, 2.94834841e-02,
          -1.54181823e-01, -1.81818590e-01, 9.53827947e-02,
          1.77049041e-01, -1.07430853e-02, -8.98109749e-02,
          3.72519791e-02, -7.92955160e-02, -9.88231301e-02,
          -1.24054119e-01, -8.78076032e-02, 1.15738086e-01,
          8.81822184e-02, -1.20496832e-01, -1.52076319e-01,
          1.97252974e-01, -1.64601296e-01, -9.00610238e-02 ]
      - [ 3.23419049e-02, 1.72383696e-01, 1.63300842e-01, 1.38885126e-01,
          1.53195364e-02, 4.26925253e-03, 1.66632682e-01, 5.81851490e-02,
          -2.96405375e-01, 7.67172799e-02, 1.31922543e-01,
          1.77712180e-02, 3.18548866e-02, 6.45505860e-02, 1.39072105e-01,
          1.67981386e-01, -6.89791143e-02, -1.97915927e-01,
          1.07430898e-01, 5.50257042e-02, -1.93486046e-02,
          -5.74759431e-02, -5.50732873e-02, 1.45829156e-01,
          8.81299302e-02, -1.06857300e-01, -2.91135479e-02,
          9.87069309e-03, 3.10022440e-02, 3.10308445e-04, 1.21439487e-01,
          -6.80027381e-02, -9.41321254e-03, -1.24155030e-01,
          7.00491667e-02, -1.22572728e-01, 3.59703861e-02,
          7.24233733e-03, -6.99432120e-02, 1.93704814e-01,
          -4.25351970e-02, 2.66986694e-02, -1.09590471e-01,
          -2.55327560e-02, -1.06703617e-01, 6.81302249e-02,
          9.24038328e-03, -4.77720052e-02, 2.15980023e-01,
          -1.39447019e-01, 5.96060185e-03, -9.37874913e-02,
          -7.94068947e-02, 1.86858978e-02, -1.72341634e-02,
          -3.09712309e-02, 1.66636333e-03, -1.42386397e-02,
          -7.78763369e-02, 6.40344853e-03, -2.50924029e-03,
          1.56048149e-01, -1.23683549e-01, -1.08720705e-01,
          -5.15785441e-02, 5.77275567e-02, 2.10868418e-01,
          -1.86128050e-01, 2.02723183e-02, 1.07335493e-01,
          6.83287308e-02, -2.35739410e-01, -1.05156802e-01,
          -5.13162315e-02, 1.12870425e-01, 2.93822020e-01,
          -3.00644308e-01, -1.39527163e-02, 1.49612769e-01,
          -3.12179793e-02, -1.62745848e-01 ]
      - [ -7.52330795e-02, 8.70430022e-02, 1.41309360e-02,
          8.76884684e-02, -9.18007195e-02, -1.71514247e-02,
          -7.68581033e-02, 1.34335414e-01, -5.32418191e-02,
          4.59646434e-02, 7.44610950e-02, -9.65251625e-02,
          6.25568554e-02, 5.18658012e-02, 6.85357973e-02,
          -1.12968653e-01, 3.95774953e-02, 8.97256583e-02,
          8.20994303e-02, 3.45748849e-02, -1.33959666e-01,
          1.07702687e-02, 1.10695727e-01, 9.07137394e-02,
          -1.47863150e-01, -2.10881117e-04, 1.27001271e-01,
          -7.02560768e-02, -4.03376184e-02, -5.47287054e-02,
          1.08279966e-01, -1.23778954e-01, -2.65178960e-02,
          -5.53925596e-02, 1.30701870e-01, -1.99999511e-02,
          -7.14374706e-02, -5.14851883e-02, -1.13279693e-01,
          1.49548471e-01, -2.38925349e-02, -9.75287482e-02,
          -9.51667130e-02, 5.05560115e-02, 8.37780535e-02,
          -6.35998994e-02, -2.77981628e-02, -6.84853420e-02,
          1.57043830e-01, 1.10379644e-02, -1.25715300e-01,
          -8.14883858e-02, -2.44725775e-03, 9.76936817e-02,
          -4.57742251e-02, -1.67318210e-01, 4.23164740e-02,
          6.44243881e-02, -2.25082715e-03, -7.37150609e-02,
          -1.97801515e-02, 9.06275734e-02, 1.29164746e-02,
          -9.21010822e-02, -7.20223635e-02, 5.74896634e-02,
          4.47890200e-02, -2.65007410e-02, -9.93365422e-02,
          8.42748582e-02, 2.98183095e-02, -6.64280802e-02,
          -8.33179057e-02, -2.77548134e-02, 9.58379954e-02,
          6.03853576e-02, -8.32009912e-02, -8.40574950e-02,
          1.19499482e-01, -1.58163775e-02, -8.20354596e-02 ]
      - [ 3.18911485e-02, 1.02447331e-01, 9.62647945e-02,
          -2.08942331e-02, -5.17929047e-02, 3.79065197e-04,
          8.45397562e-02, 1.92737859e-02, -1.02910452e-01,
          8.66191015e-02, 8.16962495e-02, -3.51819582e-02,
          -6.54013157e-02, 8.96083415e-02, 9.54907387e-02,
          -2.56282128e-02, -1.20933078e-01, 1.15607604e-01,
          9.78225395e-02, 2.97465865e-02, -1.11160755e-01,
          -1.08162817e-02, 1.73770696e-01, 1.09041370e-01,
          -1.96908876e-01, -5.72957881e-02, 1.50511131e-01,
          -4.70716804e-02, 1.85385011e-02, 4.48598675e-02,
          9.32288915e-03, -1.01243749e-01, -6.75251754e-03,
          -2.04716064e-02, 1.15736999e-01, -4.32160944e-02,
          -2.06028670e-02, -3.26665118e-02, -3.35536562e-02,
          -8.02699011e-03, -3.15351523e-02, 1.09063452e-02,
          -1.13902412e-01, -4.48780926e-03, 1.44620255e-01,
          -4.47579287e-02, -5.63964583e-02, -4.01687063e-02,
          1.85804859e-01, 1.54607221e-02, -1.22557923e-01,
          -1.53101966e-01, -1.20628234e-02, 8.16203579e-02,
          -1.63017392e-01, -1.23706117e-01, 1.48443729e-01,
          1.09033694e-03, -1.07718013e-01, -1.01558760e-01,
          5.16716763e-02, 1.71723083e-01, 2.81552365e-03,
          -8.65658224e-02, -1.39225170e-01, 3.15189213e-02,
          7.27488771e-02, -9.42371041e-02, -9.18160677e-02,
          8.72408748e-02, 1.89889278e-02, -9.02440865e-03,
          -8.44272599e-02, -5.31667061e-02, 3.72595862e-02,
          8.79531577e-02, -8.41688290e-02, -9.14804488e-02,
          1.28177434e-01, -5.01495600e-02, -9.07773674e-02 ]
      - [ -3.36346275e-05, 7.29871094e-02, -1.15277946e-01,
          1.42376453e-01, 8.23770557e-03, 2.43748724e-03,
          -1.00876890e-01, 1.58212528e-01, 6.84774341e-03,
          8.33301470e-02, 6.27914667e-02, -1.74733400e-01,
          8.08164626e-02, 1.40189976e-01, 9.42165852e-02,
          -8.35564509e-02, 1.52286673e-02, 5.31369597e-02,
          9.42999348e-02, 2.55504176e-02, -1.05434753e-01,
          -1.37377486e-01, 1.61889538e-01, 9.91598219e-02,
          -1.12781420e-01, -4.58044149e-02, 5.13502955e-02,
          -1.49163734e-02, -1.38234952e-02, -1.99975714e-01,
          1.88926458e-01, 9.41207539e-03, 2.90492244e-06, 9.04911314e-04,
          1.30883813e-01, -7.63792731e-03, 5.58998808e-02,
          -6.09455211e-03, -1.75196797e-01, 5.16125038e-02,
          8.60073864e-02, 1.95042454e-02, -8.09783232e-04,
          2.29749552e-04, -2.16957205e-03, 7.53293857e-02,
          3.15847248e-03, -8.21086690e-02, -7.72172734e-02,
          1.33789748e-01, 2.65171994e-02, -2.90606840e-04,
          -5.58413304e-02, 4.39590663e-02, -9.37317777e-03,
          -1.14638358e-02, 1.63073227e-01, -5.57182096e-02,
          -1.50033291e-02, 1.05797369e-02, 7.96229839e-02,
          1.22053504e-01, -1.49009675e-01, -6.61654305e-03,
          -9.23259743e-03, 1.49197131e-01, -4.89149727e-02,
          -1.68736242e-02, 1.67628825e-02, 1.34445176e-01,
          2.44929101e-02, -9.99666080e-02, 4.76416713e-03,
          -2.45347759e-03, 1.36224449e-01, -7.16605037e-02,
          1.98262632e-02, 1.68633517e-02, 1.45872757e-01,
          -4.21564393e-02, -3.39767858e-02 ]
      - [ -1.59587368e-01, 5.81420437e-02, 9.13560018e-02,
          9.34824198e-02, -2.03751922e-01, -1.06710218e-01,
          -1.23692797e-02, 8.24260935e-02, -3.03581748e-02,
          -5.84431598e-03, 2.11211517e-02, -1.87946800e-02,
          3.70557941e-02, 5.09288646e-02, 1.35038246e-03,
          -6.00846522e-02, -1.10974953e-01, 8.57028961e-02,
          -1.85554158e-02, -4.08482924e-02, -1.00964056e-02,
          -1.35808289e-01, 1.25903353e-01, -4.50526290e-02,
          -4.64963131e-02, -1.29721463e-01, 7.20754862e-02,
          -1.09121867e-01, -5.38969189e-02, 4.24681567e-02,
          1.12412639e-01, -2.44807303e-01, -7.47385845e-02,
          -5.68945482e-02, 1.67177692e-01, -4.47601378e-02,
          -1.37355253e-01, -1.52590677e-01, -4.48268726e-02,
          1.18019179e-01, -6.95204064e-02, -7.56833404e-02,
          -7.73705095e-02, 1.35297570e-02, 1.01593323e-01,
          -1.02984890e-01, -1.11046530e-01, -4.16685920e-03,
          1.62595600e-01, -2.20809933e-02, -1.61634624e-01,
          -2.41072383e-02, -9.25119817e-02, 9.88061726e-02,
          -1.28233433e-01, -2.07762018e-01, 1.84897929e-01,
          -1.22795599e-02, -1.75578281e-01, -1.52067810e-01,
          9.39319059e-02, 1.78317338e-01, -7.48065338e-02,
          -1.17742948e-01, -2.30051339e-01, 6.33031353e-02,
          7.86714703e-02, -7.93749318e-02, -1.54689580e-01,
          1.77509040e-01, 1.24959061e-02, -4.63886820e-02,
          -1.33321136e-01, -1.45465106e-01, 1.09004743e-01,
          1.04456872e-01, -1.26492053e-01, -1.66065797e-01,
          2.23098412e-01, -1.21211030e-01, -9.10265520e-02 ]
      - [ -3.95012908e-02, 1.47071749e-01, 1.36759922e-01,
          1.56370010e-02, -1.94032595e-01, -2.83030178e-02,
          1.04590051e-01, 6.55340031e-02, -1.32547826e-01,
          -4.43048589e-03, 3.21599171e-02, -9.92350094e-03,
          -1.73375495e-02, 1.79758798e-02, 3.59520540e-02,
          3.42781991e-02, -1.07596785e-01, 1.69243347e-02,
          -1.06192264e-03, -3.37788202e-02, -4.29119319e-02,
          5.26594035e-02, 1.14672750e-01, -1.34607866e-01,
          7.65506120e-05, -1.26994103e-02, 2.71755345e-02,
          -1.19492516e-01, -1.48553923e-01, 1.37829529e-02,
          1.33489013e-01, -1.72519520e-01, -1.77685931e-01,
          2.03389907e-03, 1.96338207e-01, 3.61396419e-03,
          -2.52807084e-02, -1.58681795e-01, -1.14060923e-01,
          1.47115469e-01, -2.81359511e-03, -1.05344087e-01,
          -2.29196232e-02, -5.59310755e-03, -3.48449987e-03,
          1.64260156e-02, -1.88691281e-02, -6.11995645e-02,
          1.50535673e-01, -4.45357636e-02, -7.61254653e-02,
          -1.94162671e-02, -6.33232594e-02, -3.12105194e-02,
          -1.48329243e-01, -2.81228274e-01, 1.16424754e-01,
          1.60552189e-01, -1.07829075e-03, -2.34383672e-01,
          3.37948687e-02, 2.52745122e-01, 1.22865625e-01,
          -5.14863469e-02, -1.73801228e-01, 4.45071049e-02,
          1.14378132e-01, 9.34610516e-03, -1.15926333e-01,
          1.29589021e-01, -3.76799963e-02, -1.20433882e-01,
          -4.25263168e-03, -1.16057638e-02, 1.11289024e-01,
          1.59450863e-02, -9.55766886e-02, 2.75037717e-02,
          1.97469369e-01, -1.30486384e-01, -1.44854456e-01 ]
      - [ 3.00144870e-02, 6.53125793e-02, 1.76842794e-01, 8.17391351e-02,
          1.80798564e-02, 2.82828766e-03, 1.03240110e-01, 6.92593157e-02,
          -2.68747419e-01, 1.02225631e-01, 9.40694585e-02,
          6.83566257e-02, -9.87619068e-03, -9.46486294e-02,
          6.71485364e-02, 1.59859315e-01, -1.96947483e-03,
          -1.32297665e-01, 1.17159255e-01, 6.54396266e-02,
          -1.58598702e-02, -7.43131666e-03, -9.50441286e-02,
          1.20317861e-01, 1.11359440e-01, -7.37972707e-02,
          -4.83374745e-02, 7.47557059e-02, 1.26478150e-01,
          1.86671734e-01, 3.32892165e-02, -4.68488485e-02,
          -7.62549601e-03, 1.28932334e-02, -1.05221786e-01,
          -1.83365464e-01, 1.82203919e-01, 1.37773961e-01,
          3.91988121e-02, -8.89583491e-03, -9.80265737e-02,
          6.07684366e-02, -2.16151737e-02, -3.97898257e-02,
          -1.03461415e-01, 1.38344750e-01, 8.18362087e-02,
          -2.58371867e-02, 1.95457675e-02, -9.61779729e-02,
          1.53886810e-01, -4.75115292e-02, -1.38222165e-02,
          -6.26345873e-02, 6.95321932e-02, 1.63408160e-01,
          -1.31433114e-01, -1.47851780e-01, -6.95144385e-02,
          9.15610567e-02, 1.62047401e-01, -5.03445938e-02,
          -1.13359697e-01, 4.06558290e-02, 1.03946641e-01,
          -3.21169421e-02, 1.61822811e-02, -1.27658218e-01,
          8.47807527e-02, 4.94233556e-02, 1.11709841e-01,
          -9.52987820e-02, 1.97901241e-02, 3.09012346e-02,
          -7.67438207e-03, 1.46036685e-01, -1.25848621e-01,
          1.08274579e-01, -4.43244018e-02, 1.05413958e-01,
          -4.87790443e-02 ]
      - [ -1.27695948e-01, 8.15224946e-02, 9.69206914e-02,
          1.33518517e-01, -1.56933680e-01, -3.12811770e-02,
          -1.61588013e-01, 2.75386393e-01, -1.60750300e-01,
          1.40216261e-01, 1.31318271e-01, -1.05202995e-01,
          7.15698972e-02, -8.27324986e-02, 8.06922689e-02,
          -1.57553807e-01, 1.31540015e-01, 1.77086353e-01,
          1.96020558e-01, 9.36725512e-02, -2.43623391e-01,
          6.23765253e-02, 1.31461084e-01, 1.80603936e-01,
          -2.08208367e-01, 4.95918607e-03, 1.95317760e-01,
          -4.27220091e-02, 5.62916361e-02, 1.33017555e-01,
          1.26277521e-01, -2.19593644e-01, -4.87304330e-02,
          2.89139990e-02, 4.12524082e-02, -1.52591884e-01,
          6.49614930e-02, 7.18091950e-02, -9.19819698e-02,
          8.26266408e-02, -1.26251057e-01, -1.24548435e-01,
          -9.88927111e-02, 6.48806393e-02, 1.19364485e-01,
          -4.61428519e-03, 4.31867950e-02, -1.12179726e-01,
          1.11251220e-01, 2.70225909e-02, -4.08184305e-02,
          -1.20764837e-01, 5.05242087e-02, 8.13120753e-02,
          1.95348747e-02, -7.04454184e-02, -8.85485560e-02,
          -5.46530709e-02, -1.97146516e-02, -2.49264799e-02,
          1.67981103e-01, -4.08962965e-02, -5.25621558e-03,
          -1.67783909e-02, 4.61700559e-02, 1.13034472e-02,
          -9.06461626e-02, -3.73729542e-02, -9.21337381e-02,
          1.15860328e-01, 1.30512431e-01, -2.40862779e-02,
          -3.01092397e-02, 3.49661596e-02, 6.07290715e-02,
          2.34937500e-02, -3.33419964e-02, -4.31650365e-03,
          2.44753975e-02, 1.30825028e-01, -6.07033111e-02 ]
      - [ 4.70142961e-02, 6.74794167e-02, 1.81286514e-01,
          -4.68445271e-02, -5.86034805e-02, 1.80386458e-04,
          8.81381929e-02, 5.19688800e-02, -1.84185386e-01,
          1.57379091e-01, 1.01205185e-01, 1.23775797e-02,
          -1.17083162e-01, -3.23486067e-02, 8.56082737e-02,
          5.68164280e-03, -1.03513211e-01, 1.59336030e-01,
          1.63854703e-01, 6.36966005e-02, -1.42757833e-01,
          2.18733735e-02, 1.63988516e-01, 1.52446464e-01,
          -2.01409608e-01, -6.82461262e-02, 1.63039297e-01,
          9.82907880e-03, 1.30391449e-01, 2.48832986e-01,
          -4.52710614e-02, -1.25476524e-01, -9.33241751e-03,
          8.07165504e-02, -1.42304348e-02, -1.51360214e-01,
          1.34376764e-01, 9.49512273e-02, 5.04182801e-02,
          -1.65072724e-01, -1.08909033e-01, 5.63041940e-02,
          -8.42663497e-02, -2.74441149e-02, 1.57195285e-01,
          3.43939103e-02, 5.76550188e-03, -4.16037329e-02,
          9.32892486e-02, 2.55117267e-02, -1.50843826e-03,
          -1.72532529e-01, 3.02130096e-02, 2.49833409e-02,
          -1.22212559e-01, 3.46227698e-02, 5.17168604e-02,
          -1.40110984e-01, -1.49592713e-01, -3.93692702e-02,
          2.34244302e-01, 4.85700294e-02, -2.00739130e-02,
          1.38559351e-02, -3.07692587e-02, -3.65180746e-02,
          -4.97191437e-02, -1.10907488e-01, -4.44266498e-02,
          8.07746351e-02, 8.76768306e-02, 6.78074509e-02,
          -7.59322662e-03, 2.98659736e-03, -4.55614142e-02,
          4.08334434e-02, -1.01182954e-02, 5.93405403e-03,
          4.37922589e-03, 6.83996603e-02, -4.29087058e-02 ]
      - [ 4.52609640e-03, 2.30930913e-02, -6.38548657e-02,
          1.15481339e-01, 1.24165118e-02, 2.01028213e-03,
          -1.05069391e-01, 1.63115561e-01, -3.10071744e-02,
          1.08829021e-01, 5.54826558e-02, -1.19496003e-01,
          4.98761535e-02, 2.62868572e-02, 6.11217916e-02,
          -4.95572723e-02, 4.84704673e-02, 5.71877956e-02,
          1.13447115e-01, 4.12791744e-02, -9.72014964e-02,
          -1.00349061e-01, 1.08214706e-01, 1.00078933e-01,
          -6.91170245e-02, -3.86241414e-02, 2.74094529e-02,
          3.46758626e-02, 6.15892522e-02, -4.88290973e-02,
          1.32348880e-01, 1.06031103e-02, -5.30364865e-04,
          7.48589113e-02, 7.39117758e-03, -7.39555955e-02,
          1.62273630e-01, 8.91001746e-02, -9.49513465e-02,
          -6.05119318e-02, 3.04650292e-02, 4.72285114e-02,
          4.10399586e-02, -1.48865283e-02, -2.01781038e-02,
          1.31834134e-01, 5.65162785e-02, -6.82562664e-02,
          -1.69091597e-01, 1.25879839e-01, 1.30966023e-01,
          1.47604672e-02, -1.92451011e-02, -1.44898109e-02,
          5.01418300e-02, 1.22478552e-01, 5.36700115e-02,
          -1.48912832e-01, -2.26589236e-02, 7.17004612e-02,
          1.89558551e-01, -6.34294748e-03, -1.52046904e-01,
          7.97881335e-02, 9.27882642e-02, 8.27223808e-02,
          -1.43063203e-01, -9.38026421e-03, 6.52434900e-02,
          1.01647340e-01, 6.64273798e-02, -3.59950140e-02,
          7.33797774e-02, 4.66366000e-02, 5.95849790e-02,
          -1.14308149e-01, 8.51103812e-02, 9.99891385e-02,
          2.29998082e-02, 5.32365926e-02, 1.91963241e-02 ]
      - [ -2.24507138e-01, -3.17667425e-02, 2.47535810e-01,
          1.00319684e-01, -2.89088786e-01, -1.58988371e-01,
          -5.44471890e-02, 1.74405590e-01, -1.46524131e-01,
          8.11631531e-02, 2.67957579e-02, 7.98635706e-02,
          -9.52097308e-03, -2.00427011e-01, -6.51221797e-02,
          -1.70038622e-02, -7.04673827e-02, 1.51259884e-01,
          4.76702601e-02, -1.15460688e-02, -1.83354672e-02,
          -1.34327516e-01, 8.02652985e-02, -4.01381142e-02,
          2.23554876e-02, -1.84219420e-01, 5.43337092e-02,
          -3.05422824e-02, 1.22054428e-01, 4.25929815e-01,
          5.89391291e-02, -3.57891560e-01, -1.12407900e-01,
          1.17230870e-01, -5.62457852e-02, -2.48988196e-01,
          9.95469838e-02, 3.13171297e-02, 1.09233260e-01,
          -1.17635280e-01, -2.33497262e-01, -3.20602246e-02,
          -1.04896759e-03, -2.10393481e-02, 1.01232529e-01,
          1.94635987e-02, -1.87220816e-02, 1.14785377e-02,
          -2.77860481e-02, -2.16215625e-02, 5.10746092e-02,
          5.14365872e-03, -5.12940623e-02, -1.80026458e-03,
          -3.05270273e-02, 5.36589585e-02, 1.63151398e-02,
          -2.85744041e-01, -2.85185277e-01, -5.66586480e-02,
          4.58415836e-01, -5.52264042e-02, -1.55760705e-01,
          5.89770302e-02, -6.58504516e-02, -5.06441928e-02,
          -1.51654154e-01, -1.01549789e-01, -9.34749842e-02,
          2.07044438e-01, 1.38782203e-01, 8.09715316e-02,
          -9.83092468e-03, -8.28180537e-02, -1.36597436e-02,
          2.13698391e-02, -5.08626830e-03, -1.59548037e-02,
          3.21259908e-02, 6.96267858e-02, 1.41734898e-03 ]
      - [ -4.74590547e-02, 1.13203801e-01, 3.01165849e-01,
          -1.08553944e-02, -2.75161415e-01, -4.23656926e-02,
          1.22819893e-01, 1.42911553e-01, -2.85697758e-01,
          7.28259236e-02, 4.35393341e-02, 8.05401430e-02,
          -8.26641172e-02, -2.17306793e-01, -6.13328908e-03,
          1.14492752e-01, -7.58432522e-02, 4.62624244e-02,
          6.48888052e-02, -6.58311695e-03, -6.64292425e-02,
          1.37346700e-01, 7.53846243e-02, -1.75470546e-01,
          8.08563828e-02, -1.13946665e-02, -6.33993559e-03,
          -6.05928749e-02, -4.11894247e-02, 3.41017306e-01,
          1.02069445e-01, -2.50278980e-01, -2.64103889e-01,
          1.81219935e-01, 2.14211829e-02, -1.55938849e-01,
          2.30735853e-01, -6.88276300e-03, -1.33955376e-02,
          -4.11447249e-02, -1.19280025e-01, -8.48690048e-02,
          6.66612312e-02, -4.46099900e-02, -4.89713624e-02,
          1.76581964e-01, 1.01210922e-01, -7.49143660e-02,
          -1.51702398e-02, -5.60140423e-02, 1.44549176e-01,
          7.44773308e-03, -1.76344104e-02, -1.77362129e-01,
          -7.81635121e-02, -9.60347280e-02, -5.59130795e-02,
          1.11144630e-03, -2.32637711e-02, -1.97274074e-01,
          3.31814587e-01, 9.11429375e-02, 1.42235458e-01, 1.30401969e-01,
          -1.34929176e-02, -6.19522557e-02, -6.80119172e-02,
          2.82166079e-02, -5.11507280e-02, 1.41772807e-01,
          5.04983626e-02, -4.57444228e-02, 1.59904838e-01,
          1.00469209e-01, 9.55704041e-03, -9.45526436e-02,
          2.00588517e-02, 2.44418025e-01, 2.78237946e-02, 2.75094900e-02,
          -9.36042294e-02 ]
      - [ -9.89443809e-02, 2.19022346e-04, -7.36564919e-02,
          1.91599615e-02, -1.07584625e-01, -2.08666585e-02,
          -1.73835218e-01, 1.13536708e-01, 1.03863530e-01,
          7.91048817e-03, 8.65222141e-03, -1.14027187e-01,
          5.02794310e-02, 2.09158864e-02, -1.64697098e-03,
          -2.13607237e-01, 8.03511515e-02, 2.04782456e-01,
          3.02477200e-02, 7.41064968e-03, -1.34280697e-01,
          4.29443717e-02, 1.49660870e-01, 1.86487678e-02,
          -2.07843423e-01, 5.79659790e-02, 1.53150529e-01,
          -8.13262612e-02, -6.04908764e-02, -5.93337677e-02,
          5.09213321e-02, -9.67779905e-02, -2.35409308e-02,
          7.73177063e-03, 1.03147559e-01, 4.51314375e-02,
          -9.68171731e-02, -5.96024916e-02, -8.43709260e-02,
          5.61795384e-02, -2.66470225e-03, -1.19973965e-01,
          -4.31980863e-02, 6.85588717e-02, 1.48678988e-01,
          -1.05858408e-01, -3.50836292e-02, -4.80200648e-02,
          5.21514677e-02, 8.78748074e-02, -1.39151350e-01,
          -3.70172821e-02, 4.05989774e-02, 9.54360589e-02,
          -4.00988422e-02, -1.64013505e-01, 4.48389687e-02,
          7.74006397e-02, 3.99777964e-02, -8.31773728e-02,
          -2.00169254e-02, 1.29904095e-02, 8.13208744e-02,
          -4.03576419e-02, -4.97707613e-02, 3.07113826e-02,
          -6.64184690e-02, 7.27156326e-02, -1.18428528e-01,
          3.26514393e-02, -4.97623533e-03, 5.65700531e-02,
          -3.28034200e-02, -2.05793232e-03, 4.21375334e-02,
          -9.47340801e-02, 7.37845004e-02, -8.32722485e-02,
          4.77072150e-02, -9.72280250e-05, -5.43177666e-05 ]
      - [ 1.44390585e-02, 2.17933135e-04, -6.85140432e-04,
          -1.17362194e-01, -6.91819638e-02, -2.44703493e-03,
          -1.62549354e-02, -1.73190739e-02, 8.28555226e-02,
          4.67175432e-02, 3.91099928e-03, -5.19585349e-02,
          -9.57920924e-02, 5.83156422e-02, 1.47671970e-02,
          -1.42354727e-01, -9.09267217e-02, 2.64781952e-01,
          3.87454666e-02, -3.28848674e-03, -1.13276444e-01,
          2.64518019e-02, 2.34589800e-01, 2.56108679e-02,
          -2.83165753e-01, 6.92093652e-03, 1.90659761e-01,
          -6.01440258e-02, 1.68651022e-04, 5.07678650e-02,
          -7.12649673e-02, -6.92106783e-02, -1.32810534e-03,
          6.04264662e-02, 8.43008012e-02, 3.35139148e-02,
          -4.76589911e-02, -4.20028418e-02, 9.01777484e-03,
          -1.39692843e-01, -7.16348784e-03, -5.60331345e-03,
          -5.55623025e-02, 1.21111795e-02, 2.36267000e-01,
          -9.67859700e-02, -7.03154728e-02, -1.34443380e-02,
          6.55551255e-02, 1.11566514e-01, -1.43288016e-01,
          -1.10759549e-01, 3.98183540e-02, 8.01545829e-02,
          -1.73629627e-01, -1.19698010e-01, 1.67562515e-01,
          1.08369067e-02, -6.99122474e-02, -1.19723886e-01,
          6.04091287e-02, 8.99516121e-02, 8.65712613e-02,
          -2.50843391e-02, -1.23442419e-01, -3.09572229e-03,
          -5.94717748e-02, 1.83765460e-02, -1.18001297e-01,
          2.67851800e-02, -2.44802982e-02, 1.48650691e-01,
          -2.50564888e-02, -2.58256979e-02, -3.37425955e-02,
          -9.81110483e-02, 1.07010134e-01, -9.45497155e-02,
          4.48059216e-02, -3.59448269e-02, 6.54673995e-03 ]
      - [ -1.47478785e-02, -2.05459446e-02, -1.65808558e-01,
          4.97653298e-02, -4.36056202e-04, -8.99468523e-06,
          -1.55897245e-01, 9.90644917e-02, 1.40349954e-01,
          3.12065743e-02, -1.02197947e-02, -1.46747902e-01,
          4.96320389e-02, 8.18653926e-02, 1.14631755e-02,
          -1.42766580e-01, 4.34821285e-02, 1.32252738e-01,
          2.59315670e-02, -4.77083679e-03, -7.48603046e-02,
          -8.28537568e-02, 1.53534636e-01, 1.23102302e-02,
          -1.29611626e-01, 1.22907506e-02, 5.40005229e-02,
          -1.63297039e-02, -2.50809826e-02, -1.58831090e-01,
          9.46456790e-02, 3.84219736e-02, 4.28695278e-03, 5.72302043e-02,
          7.19777271e-02, 4.97308485e-02, 2.79863253e-02,
          -8.13282654e-03, -1.07190326e-01, -4.72124778e-02,
          8.76116902e-02, 3.32497340e-03, 4.92401086e-02, 1.18041579e-02,
          4.68470380e-02, 2.87662111e-02, -1.69958849e-03,
          -4.34124060e-02, -1.59583867e-01, 1.69640899e-01,
          1.83294974e-02, 4.24589962e-02, -8.16870388e-03,
          2.63781901e-02, 4.06495499e-04, 5.00021642e-03, 1.28647551e-01,
          -3.77338827e-02, 2.35414430e-02, 5.48082124e-03,
          6.43266067e-02, 2.58259904e-02, -6.19484633e-02,
          4.42362837e-02, 1.61507148e-02, 9.21186507e-02,
          -1.34798035e-01, 7.13306144e-02, 4.07468341e-03,
          5.78320697e-02, -1.16652064e-02, 2.79743411e-02,
          5.16452044e-02, 2.14108564e-02, 5.67246489e-02,
          -1.90605953e-01, 1.52578458e-01, 1.97327472e-02,
          4.76568677e-02, -1.92434490e-02, 4.71155159e-02 ]
      - [ -1.68738589e-01, -9.47608799e-02, -5.76472431e-02,
          -3.50515284e-02, -1.93401814e-01, -9.81049240e-02,
          -1.52314007e-01, 2.36204397e-02, 2.24574402e-01,
          -7.02573881e-02, -9.32148024e-02, -3.17172706e-02,
          5.78592019e-03, -9.66785662e-03, -1.16785489e-01,
          -1.95706204e-01, -3.97410989e-02, 2.43783876e-01,
          -1.07567772e-01, -8.28485936e-02, 7.47475633e-03,
          -7.14876428e-02, 1.58198208e-01, -1.63603857e-01,
          -1.15933254e-01, -2.42058206e-02, 8.85152519e-02,
          -1.04992196e-01, -7.40218908e-02, 3.73388119e-02,
          -3.49045033e-03, -1.59066945e-01, -5.81892133e-02,
          5.49508668e-02, 8.85962322e-02, 6.43525496e-02,
          -1.52132079e-01, -1.41250491e-01, 1.96454730e-02,
          -5.98322488e-02, -2.54700743e-02, -8.96610618e-02,
          2.44653188e-02, 3.36400755e-02, 1.80474028e-01,
          -1.48982584e-01, -1.06161602e-01, 3.68377343e-02,
          -3.92605662e-02, 9.87482965e-02, -1.48170814e-01,
          5.82191832e-02, -1.45473043e-02, 7.16326535e-02,
          -9.89196450e-02, -1.57681882e-01, 1.62298262e-01,
          1.20674004e-03, -8.93941224e-02, -1.40075877e-01,
          8.52976739e-02, 2.55026575e-02, 3.86913046e-02,
          -1.20190186e-02, -1.59935132e-01, 7.07683014e-03,
          -1.09232083e-01, 8.76208395e-02, -1.54162824e-01,
          6.61121160e-02, -4.69022468e-02, 1.58915013e-01,
          -2.88356468e-02, -8.52635056e-02, 7.61664589e-04,
          -1.56774506e-01, 1.43051818e-01, -1.35200888e-01,
          7.06120208e-02, -8.08387771e-02, 5.74681163e-02 ]
      - [ -6.41641095e-02, 5.73387661e-04, -1.91165775e-03,
          -9.80659723e-02, -1.98339120e-01, -3.05872839e-02,
          -3.54401283e-02, 1.54174203e-02, 1.14286624e-01,
          -6.66878968e-02, -7.65709803e-02, -2.39708591e-02,
          -4.25363667e-02, -3.53211090e-02, -7.87577406e-02,
          -1.03891805e-01, -4.69249450e-02, 1.77305430e-01,
          -8.84603113e-02, -7.71457851e-02, -2.53579300e-02,
          9.72264484e-02, 1.54675320e-01, -2.47642249e-01,
          -7.16597661e-02, 7.48110265e-02, 4.97291721e-02,
          -1.22499801e-01, -1.67538598e-01, 1.29505433e-02,
          2.90279537e-02, -1.09911166e-01, -1.62549004e-01,
          1.03003949e-01, 1.31062135e-01, 1.03229634e-01,
          -5.34951612e-02, -1.57901093e-01, -5.23324274e-02,
          -1.67389885e-02, 3.19261663e-02, -1.22643672e-01,
          6.72454238e-02, 1.54244993e-02, 8.35131854e-02,
          -3.97194028e-02, -2.55965050e-02, -1.97410788e-02,
          -3.15935053e-02, 7.08402991e-02, -7.77745545e-02,
          5.77386059e-02, 3.97369219e-03, -4.51068543e-02,
          -1.28061488e-01, -2.44188339e-01, 1.10170551e-01,
          1.65387422e-01, 6.23542890e-02, -2.29735449e-01,
          3.44155394e-02, 1.15097463e-01, 2.18368649e-01, 3.91725227e-02,
          -1.24507375e-01, -4.35243826e-03, -6.20693676e-02,
          1.60451293e-01, -1.27550021e-01, 3.67719308e-02,
          -9.17108059e-02, 7.65120387e-02, 8.15183371e-02,
          3.06511726e-02, 1.47366561e-02, -2.23881274e-01,
          1.53152674e-01, 3.77034880e-02, 6.73851520e-02,
          -9.95871648e-02, -6.29407028e-03 ]
      - [ 2.10461408e-01, -8.17236069e-05, 1.39095560e-01,
          -2.16871455e-01, 9.83550027e-02, 3.59420180e-02,
          3.05774450e-01, -2.42654040e-01, -7.02550709e-02,
          5.67650162e-02, -1.04506975e-02, 1.37090236e-01,
          -2.42924899e-01, 4.98483777e-02, 2.58346349e-02,
          1.87603056e-01, -2.92664140e-01, 1.73894875e-02,
          2.00810307e-03, -1.91557314e-02, 8.13662931e-02,
          -4.10487093e-02, 7.58583769e-02, 3.88666522e-03,
          -3.98258381e-02, -9.96546894e-02, 1.68698712e-03,
          6.22858740e-02, 1.15357369e-01, 1.90939382e-01,
          -2.06441924e-01, 7.77487010e-02, 4.27505262e-02,
          7.81791210e-02, -6.66710064e-02, -3.43538783e-02,
          1.10953607e-01, 4.88388538e-02, 1.74398094e-01,
          -3.21637720e-01, -5.94185526e-03, 2.19664976e-01,
          -3.21867946e-03, -1.11831449e-01, 8.03049058e-02,
          5.26361912e-02, -4.13376689e-02, 7.07021430e-02,
          1.54423597e-03, 4.30323882e-03, 4.44985256e-02,
          -9.98311341e-02, -1.60383023e-02, -5.83718419e-02,
          -1.90614805e-01, 1.28068402e-01, 1.72268927e-01,
          -1.30613878e-01, -1.83539823e-01, -2.57811341e-02,
          1.30950883e-01, 1.13560885e-01, -2.16503404e-02,
          3.82289812e-02, -9.50613841e-02, -6.31945282e-02,
          3.49537171e-02, -1.10109225e-01, 4.39405255e-02,
          -2.09514983e-02, -2.81639006e-02, 1.20875575e-01,
          2.38981061e-02, -3.57848741e-02, -1.32047400e-01,
          2.94325761e-02, 2.41090618e-02, 1.30983964e-02,
          -2.18962487e-02, -5.50712161e-02, 1.01673333e-02 ]
      - [ 8.38901252e-02, -2.55917143e-02, -1.28700897e-01,
          4.16689552e-02, 1.10474885e-01, 2.15205513e-02,
          -1.30932201e-02, 5.14852116e-03, 6.61003888e-02,
          3.03645786e-02, -2.15451624e-02, -6.35116324e-02,
          9.39318165e-03, 7.94873238e-02, 1.58517212e-02, 4.41572070e-02,
          -2.92294826e-02, -4.80314195e-02, 8.03038711e-04,
          -1.35368221e-02, 4.61386889e-02, -1.46602958e-01,
          3.51211391e-02, -4.04505897e-03, 5.44506051e-02,
          -4.46393192e-02, -9.13630426e-02, 6.37576357e-02,
          3.14540528e-02, -1.34865791e-01, 6.43039867e-02,
          1.47297382e-01, 2.95837633e-02, 6.26773685e-02,
          -1.75721459e-02, 1.48272254e-02, 1.34454131e-01,
          5.14612943e-02, -4.52758223e-02, -1.16257727e-01,
          1.10913686e-01, 1.27902374e-01, 1.05365857e-01,
          -5.61705343e-02, -9.55805928e-02, 1.44746333e-01,
          3.41034196e-02, -4.04588552e-03, -2.50833303e-01,
          1.18760794e-01, 1.66215271e-01, 9.06162187e-02,
          -5.19777797e-02, -6.59113899e-02, 4.18786034e-02,
          1.75413638e-01, 1.12558380e-01, -1.26452997e-01,
          -1.21879373e-02, 9.25946832e-02, 1.00071497e-01,
          1.84799768e-02, -1.60393119e-01, 9.62572470e-02,
          7.12963343e-02, 8.20381790e-02, -9.78844613e-02,
          1.30307013e-02, 1.27233267e-01, 3.77065949e-02,
          -9.26686451e-03, -2.38361824e-02, 9.76092145e-02,
          2.85570361e-02, 2.65509803e-02, -1.37566075e-01,
          1.12235121e-01, 1.10287800e-01, 9.60885733e-03,
          -2.36573461e-02, 5.82241490e-02 ]
      - [ -1.93337984e-02, -1.25871986e-01, 7.55631924e-02,
          -8.58955607e-02, -3.41626257e-02, -8.68243724e-02,
          1.56811789e-01, -2.02822670e-01, 8.30929801e-02,
          -1.09298430e-01, -1.41212910e-01, 1.93117380e-01,
          -9.60061699e-02, -5.59193864e-02, -1.51175350e-01,
          1.81380540e-01, -2.18263954e-01, -9.95529667e-02,
          -2.04734460e-01, -1.24932922e-01, 2.86747724e-01,
          -1.83158174e-01, -9.91820917e-02, -2.54986554e-01,
          2.75080144e-01, -1.51549444e-01, -1.98605552e-01,
          2.87131723e-02, 2.67462470e-02, 1.71751618e-01,
          -1.09607317e-01, -1.09995129e-02, -2.84803770e-02,
          5.67889623e-02, -9.54042673e-02, -7.87659548e-03,
          -1.74011674e-03, -6.40655532e-02, 1.99954256e-01,
          -1.95019454e-01, -2.82168463e-02, 1.28686920e-01,
          1.21445060e-01, -9.68277231e-02, -6.76746294e-02,
          2.10692380e-02, -6.81757927e-02, 1.47762284e-01,
          -1.59486964e-01, -5.04787900e-02, 9.07857046e-02,
          1.53376520e-01, -1.02959365e-01, -1.01957090e-01,
          -4.82505485e-02, 1.29457161e-01, 1.22362077e-01,
          -1.57984346e-01, -2.00741872e-01, -1.39051564e-02,
          1.54165506e-01, 6.97084609e-03, -1.16454363e-01,
          6.73000291e-02, -1.09066211e-01, -5.39529771e-02,
          -7.63479155e-03, -3.39519158e-02, 4.01295349e-02,
          2.01830287e-02, -5.18174954e-02, 9.36975181e-02,
          2.94674505e-02, -1.08607240e-01, -8.58693644e-02,
          -1.21794119e-02, 3.72098051e-02, -7.25726970e-03,
          -4.90252767e-03, -1.06793404e-01, 7.61737078e-02 ]
      - [ 8.50551352e-02, 2.49970501e-04, 1.09903358e-01,
          -1.28727019e-01, -3.81440334e-02, 6.09431067e-04,
          2.27957994e-01, -1.56738892e-01, -4.16012555e-02,
          -7.97654688e-02, -9.09327865e-02, 1.48793548e-01,
          -1.19564176e-01, -6.76458031e-02, -7.75154233e-02,
          2.18805283e-01, -1.69686049e-01, -1.30818292e-01,
          -1.35804340e-01, -8.96314830e-02, 1.78138763e-01,
          3.35701779e-02, -7.01092780e-02, -2.79917300e-01,
          2.42800191e-01, -1.20133869e-02, -1.82031438e-01,
          -9.65460902e-04, -7.83619955e-02, 1.03254355e-01,
          -4.78309542e-02, 3.52874100e-02, -1.29400253e-01,
          9.29094702e-02, -2.34704819e-02, 3.63482945e-02,
          9.26644579e-02, -6.99194670e-02, 7.49464482e-02,
          -1.02313720e-01, 3.64826396e-02, 5.75739592e-02,
          1.33915246e-01, -8.84339660e-02, -1.40917629e-01,
          1.20389245e-01, 2.72680782e-02, 5.28607368e-02,
          -1.11289091e-01, -6.14633784e-02, 1.32280454e-01,
          1.14871107e-01, -5.76113500e-02, -1.90744966e-01,
          -6.92188367e-02, 9.59945668e-04, 4.38442305e-02,
          5.04993834e-02, 2.64542480e-03, -1.07103884e-01,
          6.53607100e-02, 9.72111300e-02, 9.83744860e-02, 1.01080589e-01,
          -5.09213582e-02, -5.10564633e-02, 3.77935581e-02,
          5.25984503e-02, 5.02424948e-02, -1.22208484e-02,
          -8.56200680e-02, -8.16551223e-03, 1.32632196e-01,
          3.42659056e-02, -4.90126498e-02, -8.36075768e-02,
          4.35601473e-02, 1.64752841e-01, -3.98024032e-03,
          -1.01030946e-01, -6.31217053e-03 ]
      - [ -2.36365031e-02, -1.99654326e-02, -1.59531534e-01,
          1.24478325e-01, 4.46522236e-02, 1.58559647e-03,
          -1.39824823e-01, 1.06864490e-01, 8.14331174e-02,
          -3.27887596e-04, -1.24084819e-02, -1.07735857e-01,
          1.10296518e-01, 4.09932062e-02, 1.43905368e-03,
          -4.50002477e-02, 1.01193018e-01, -4.49067838e-02,
          -2.23488867e-04, -2.46057869e-03, 1.57322921e-03,
          -9.71738994e-02, -4.70269658e-03, -4.80847107e-03,
          5.94323166e-02, 7.34946690e-03, -7.21157044e-02,
          2.34291423e-02, -2.43088882e-02, -1.86321720e-01,
          1.37747511e-01, 8.21625143e-02, 5.00148023e-03, 1.58490799e-02,
          1.45235695e-02, 2.61473153e-02, 5.80526367e-02, 1.95185579e-02,
          -1.09296180e-01, 4.54594418e-02, 8.91979337e-02,
          6.85868179e-03, 8.37081447e-02, 3.49847483e-03,
          -1.08731352e-01, 9.08119604e-02, 4.41716164e-02,
          -3.31266485e-02, -1.96682125e-01, 9.09884498e-02,
          1.11038938e-01, 1.13127209e-01, -3.38236243e-02,
          -2.67711468e-02, 1.13514148e-01, 8.28091875e-02,
          1.49545204e-02, -4.34673578e-02, 6.82623461e-02,
          8.32897499e-02, 2.27072332e-02, -3.36868204e-02,
          -1.16172343e-01, 5.90234883e-02, 9.60071087e-02,
          9.08962041e-02, -9.13112387e-02, 5.68497218e-02,
          8.08107704e-02, 3.83475162e-02, 4.69423132e-03,
          -6.98572248e-02, 6.61537275e-02, 3.74837220e-02,
          7.67136663e-02, -1.19982690e-01, 7.74945468e-02,
          8.06392133e-02, 1.67893767e-02, 4.85176640e-03, 4.11934145e-02 ]
      - [ -2.82392114e-01, -1.43582925e-01, -8.57930183e-02,
          1.70200542e-01, -1.60653517e-01, -1.43567950e-01,
          -1.99214250e-01, 6.86179847e-02, 1.81750789e-01,
          -1.94978535e-01, -1.48269221e-01, 5.08765876e-02,
          1.90885022e-01, -1.25490591e-01, -2.04523236e-01,
          -2.50010844e-02, 1.12849742e-01, -1.35149896e-01,
          -2.36190110e-01, -1.18918106e-01, 2.26682127e-01,
          -1.58303067e-01, -2.07047462e-01, -2.95876950e-01,
          3.63267601e-01, -4.97309081e-02, -2.28796721e-01,
          -4.42658514e-02, -1.12155937e-01, -4.01193388e-02,
          1.30232930e-01, -1.08724415e-01, -8.53892863e-02,
          -3.18756402e-02, -2.64386199e-02, 3.35015468e-02,
          -1.39226303e-01, -1.33540824e-01, 1.25343641e-02,
          1.75221339e-01, -2.48602312e-02, -1.24809146e-01,
          1.42611876e-01, 2.77960338e-02, -1.76581368e-01,
          -4.10556532e-02, -2.66921949e-02, 8.12196061e-02,
          -1.83965921e-01, -6.29447326e-02, 4.85919118e-02,
          2.98563123e-01, -9.76910740e-02, -4.41840664e-02,
          1.80695459e-01, -1.06329145e-02, -7.34042227e-02,
          -1.87825952e-02, -2.12591281e-03, 1.60161536e-02,
          1.40065048e-02, -1.32507637e-01, -1.06154136e-01,
          2.95376815e-02, -6.91743474e-03, 1.65783055e-02,
          -5.19498885e-02, 9.74390954e-02, -8.54237191e-03,
          4.89542894e-02, -2.43138541e-02, -4.25559804e-02,
          4.07748995e-03, -7.97133818e-02, 6.53104559e-02,
          -5.03084436e-02, 1.26545224e-02, -2.44858135e-02,
          2.14874707e-02, -5.37873544e-02, 7.43768737e-02 ]
      - [ -8.61181319e-02, 3.27412301e-04, -1.14439614e-03,
          4.60666530e-02, -1.21159017e-01, -2.91627012e-02,
          -1.66878607e-02, 3.83421741e-02, 1.50266588e-02,
          -1.29916534e-01, -8.57953876e-02, 4.09162827e-02,
          7.71829933e-02, -1.11593038e-01, -1.01938099e-01,
          7.17680231e-02, 6.63510859e-02, -1.50306955e-01,
          -1.42735258e-01, -7.72271901e-02, 1.17594332e-01,
          6.89011514e-02, -1.35714203e-01, -2.93993950e-01,
          2.85230905e-01, 7.01340288e-02, -1.90488741e-01,
          -5.26375994e-02, -1.77031428e-01, -5.10295182e-02,
          1.21453658e-01, -2.77975313e-02, -1.69858113e-01,
          3.17021757e-02, 3.08893323e-02, 6.62370101e-02, 4.27776482e-03,
          -1.13117978e-01, -6.67224973e-02, 1.60354942e-01,
          4.28231284e-02, -1.22294687e-01, 1.41776457e-01,
          8.44504277e-04, -2.12954506e-01, 8.14225301e-02,
          6.25942126e-02, -3.70118301e-03, -1.16884813e-01,
          -6.74141645e-02, 1.00520946e-01, 2.02085108e-01,
          -4.65497188e-02, -1.49751663e-01, 8.61157849e-02,
          -1.05170928e-01, -9.72657204e-02, 1.60735935e-01,
          1.54901668e-01, -8.98847058e-02, -4.06624153e-02,
          6.83933310e-03, 1.20137274e-01, 7.33086318e-02, 2.59094592e-02,
          -6.48359419e-04, 1.02826422e-02, 1.45918131e-01,
          1.57643016e-02, 4.67394665e-03, -6.55924901e-02,
          -1.08687438e-01, 1.17963970e-01, 6.52601570e-02,
          5.85534163e-02, -1.11249171e-01, 2.52630189e-02,
          1.60283104e-01, 1.40173016e-02, -5.92949316e-02,
          -1.49856154e-02 ]
      - [ -8.77845809e-02, -3.50933224e-02, 1.56229094e-01,
          -7.94266984e-02, -1.19689524e-01, -6.09594434e-02,
          8.59157145e-02, -1.00066520e-01, -2.29992494e-02,
          -7.98097551e-02, -4.60932218e-02, 1.50266066e-01,
          -5.38928062e-02, -1.00832745e-01, -8.58571455e-02,
          4.37392965e-02, -7.50633404e-02, -1.68203970e-03,
          -9.68872458e-02, -4.59623747e-02, 9.13558081e-02,
          5.15413545e-02, -7.95222297e-02, -1.15934782e-01,
          7.80789554e-02, -2.92796716e-02, -7.53850536e-03,
          -4.63354997e-02, -1.69516224e-02, 2.07178667e-01,
          -1.11796990e-01, -1.43360347e-01, -4.11287695e-02,
          -3.21388952e-02, -2.83111110e-02, -1.76094957e-02,
          -1.26962915e-01, -7.83635750e-02, 1.36367381e-01,
          1.75017361e-02, -1.17309354e-01, -5.95735125e-02,
          -4.18300368e-02, 7.23378826e-03, 5.78975342e-02,
          -1.25908926e-01, -6.40082732e-02, 7.31782094e-02,
          1.60445943e-01, -1.35124743e-01, -1.13315605e-01,
          -1.29982783e-02, 4.20979748e-04, 1.39642144e-02,
          -6.19470365e-02, -1.03787258e-01, -4.81475219e-02,
          4.44569848e-02, -8.28242823e-02, -9.34022218e-02,
          -2.14988161e-02, -1.40648624e-02, 9.58004072e-02,
          -5.87082691e-02, -1.18103184e-01, -1.02302633e-01,
          8.82509723e-02, -2.81677470e-02, -1.00528196e-01,
          -2.58995853e-02, -1.56368576e-02, 6.63592964e-02,
          -7.77411237e-02, -7.77893513e-02, -6.52306005e-02,
          1.23346612e-01, -8.78278017e-02, -1.06880493e-01,
          -1.13170994e-02, -2.79497486e-02, -1.88586749e-02 ]
      - [ -2.06795149e-02, 2.04180107e-02, 1.61198020e-01,
          -1.02356806e-01, -1.08103707e-01, -1.67284403e-02,
          1.33153111e-01, -8.84984881e-02, -7.47955739e-02,
          -6.70270622e-02, -3.18992473e-02, 1.30476415e-01,
          -7.18408003e-02, -9.94330496e-02, -5.43126725e-02,
          8.28482434e-02, -6.82245120e-02, -3.23887877e-02,
          -7.37792328e-02, -3.75455990e-02, 5.93752190e-02,
          1.34274527e-01, -6.55962750e-02, -1.47554457e-01,
          8.76133442e-02, 2.89097708e-02, -2.56280322e-02,
          -5.10527603e-02, -6.71346635e-02, 1.62503079e-01,
          -7.67270327e-02, -9.77389514e-02, -9.31409746e-02,
          3.63470113e-04, 1.28631096e-03, 7.82509893e-03,
          -5.66570275e-02, -7.84448683e-02, 7.62498900e-02,
          3.70380096e-02, -6.82583675e-02, -7.03636259e-02,
          -1.13851326e-02, -3.11017060e-03, -1.41848621e-04,
          -4.98821065e-02, -1.23432558e-02, 3.16768996e-02,
          1.38865352e-01, -1.27230480e-01, -6.04933873e-02,
          -9.95189045e-03, 1.01674851e-02, -5.04934154e-02,
          -7.04725012e-02, -1.38511628e-01, -6.55970350e-02,
          1.27422035e-01, 1.10846646e-02, -1.31073326e-01,
          -4.41116877e-02, 3.77100892e-02, 1.80107176e-01,
          -2.18502581e-02, -8.39334577e-02, -9.25199538e-02,
          9.79360864e-02, 1.80011410e-02, -7.37819597e-02,
          -3.64673622e-02, -3.87693606e-02, 1.44941285e-02,
          -5.92843769e-03, -4.17837221e-03, -4.74413596e-02,
          6.40014261e-02, -6.54938370e-02, 1.32265978e-03,
          -9.75946430e-03, -3.56639437e-02, -4.95467335e-02 ]
      - [ 2.05858231e-01, 1.92713350e-01, 1.12474747e-01,
          -1.35723576e-01, -2.69174092e-02, 1.33836418e-01,
          2.33167723e-01, -1.52610233e-02, -2.13123649e-01,
          1.51813088e-03, 2.70964336e-02, 1.36077311e-02,
          -1.01289093e-01, -5.48602119e-02, 7.01251999e-02,
          1.76677942e-01, -1.85257811e-02, -1.19205624e-01,
          3.10598668e-02, 4.93624760e-03, -6.85184672e-02,
          3.49264026e-01, 6.09072065e-03, -1.90986410e-01,
          8.33536610e-02, 2.06495970e-01, -7.41369650e-02,
          -4.58440147e-02, -2.03300074e-01, -4.81810533e-02,
          6.81967661e-02, 8.99535194e-02, -2.24787116e-01,
          1.05909370e-01, 9.70143974e-02, 8.73845443e-02, 1.94770008e-01,
          -4.71355505e-02, -1.49932206e-01, 8.56590718e-02,
          1.18720792e-01, -7.71302730e-02, 9.21990126e-02,
          -3.54951508e-02, -1.88819021e-01, 2.17421547e-01,
          1.60630748e-01, -1.16028138e-01, 1.27963414e-02,
          -5.03500365e-02, 1.35623813e-01, 3.96003155e-03,
          3.77691127e-02, -2.39775404e-01, -6.98310584e-02,
          -1.95679188e-01, -9.59374458e-02, 3.45923692e-01,
          3.11999172e-01, -2.00817078e-01, -9.98902023e-02,
          1.90895379e-01, 3.81766379e-01, 1.06800385e-01, 6.09634817e-02,
          -2.34695394e-02, 9.00116712e-02, 1.60889208e-01,
          4.28891517e-02, -5.61540574e-02, -9.83878821e-02,
          -1.59996450e-01, 2.29980454e-01, 2.36873880e-01,
          2.95011587e-02, -1.54739320e-01, 3.34933959e-02,
          3.52648675e-01, -7.66164390e-04, -4.63946573e-02,
          -1.29396811e-01 ]
   decision_functions:
      -
         sv_count: 1
         rho: 0.
         alpha: [ 1. ]
         index: [ 0 ]
      -
         sv_count: 1
         rho: 0.
         alpha: [ 1. ]
         index: [ 1 ]
      -
         sv_count: 1
         rho: 0.
         alpha: [ 1. ]
         index: [ 2 ]
      -
         sv_count: 1
         rho: 0.
         alpha: [ 1. ]
         index: [ 3 ]
      -
         sv_count: 1
         rho: 0.
         alpha: [ 1. ]
         index: [ 4 ]
      -
         sv_count: 1
         rho: 0.
         alpha: [ 1. ]
         index: [ 5 ]
      -
         sv_count: 1
         rho: 0.
         alpha: [ 1. ]
         index: [ 6 ]
      -
         sv_count: 1
         rho: 0.
         alpha: [ 1. ]
         index: [ 7 ]
      -
         sv_count: 1
         rho: 0.
         alpha: [ 1. ]
         index: [ 8 ]
      -
         sv_count: 1
         rho: 0.
         alpha: [ 1. ]
         index: [ 9 ]
      -
         sv_count: 1
         rho: 0.
         alpha: [ 1. ]
         index: [ 10 ]
      -
         sv_count: 1
         rho: 0.
         alpha: [ 1. ]
         index: [ 11 ]
      -
         sv_count: 1
         rho: 0.
         alpha: [ 1. ]
         index: [ 12 ]
      -
         sv_count: 1
         rho: 0.
         alpha: [ 1. ]
         index: [ 13 ]
      -
         sv_count: 1
         rho: 0.
         alpha: [ 1. ]
         index: [ 14 ]
      -
         sv_count: 1
         rho: 0.
         alpha: [ 1. ]
         index: [ 15 ]
      -
         sv_count: 1
         rho: 0.
         alpha: [ 1. ]
         index: [ 16 ]
      -
         sv_count: 1
         rho: 0.
         alpha: [ 1. ]
         index: [ 17 ]
      -
         sv_count: 1
         rho: 0.
         alpha: [ 1. ]
         index: [ 18 ]
      -
         sv_count: 1
         rho: 0.
         alpha: [ 1. ]
         index: [ 19 ]
      -
         sv_count: 1
         rho: 0.
         alpha: [ 1. ]
         index: [ 20 ]
      -
         sv_count: 1
         rho: 0.
         alpha: [ 1. ]
         index: [ 21 ]
      -
         sv_count: 1
         rho: 0.
         alpha: [ 1. ]
         index: [ 22 ]
      -
         sv_count: 1
         rho: 0.
         alpha: [ 1. ]
         index: [ 23 ]
      -
         sv_count: 1
         rho: 0.
         alpha: [ 1. ]
         index: [ 24 ]
      -
         sv_count: 1
         rho: 0.
         alpha: [ 1. ]
         index: [ 25 ]
      -
         sv_count: 1
         rho: 0.
         alpha: [ 1. ]
         index: [ 26 ]
      -
         sv_count: 1
         rho: 0.
         alpha: [ 1. ]
         index: [ 27 ]
      -
         sv_count: 1
         rho: 0.
         alpha: [ 1. ]
         index: [ 28 ]
      -
         sv_count: 1
         rho: 0.
         alpha: [ 1. ]
         index: [ 29 ]
      -
         sv_count: 1
         rho: 0.
         alpha: [ 1. ]
         index: [ 30 ]
      -
         sv_count: 1
         rho: 0.
         alpha: [ 1. ]
         index: [ 31 ]
      -
         sv_count: 1
         rho: 0.
         alpha: [ 1. ]
         index: [ 32 ]
      -
         sv_count: 1
         rho: 0.
         alpha: [ 1. ]
         index: [ 33 ]
      -
         sv_count: 1
         rho: 0.
         alpha: [ 1. ]
         index: [ 34 ]
      -
         sv_count: 1
         rho: 0.
         alpha: [ 1. ]
         index: [ 35 ]
      -
         sv_count: 1
         rho: 0.
         alpha: [ 1. ]
         index: [ 36 ]
      -
         sv_count: 1
         rho: 0.
         alpha: [ 1. ]
         index: [ 37 ]
      -
         sv_count: 1
         rho: 0.
         alpha: [ 1. ]
         index: [ 38 ]
      -
         sv_count: 1
         rho: 0.
         alpha: [ 1. ]
         index: [ 39 ]
      -
         sv_count: 1
         rho: 0.
         alpha: [ 1. ]
         index: [ 40 ]
      -
         sv_count: 1
         rho: 0.
         alpha: [ 1. ]
         index: [ 41 ]
      -
         sv_count: 1
         rho: 0.
         alpha: [ 1. ]
         index: [ 42 ]
      -
         sv_count: 1
         rho: 0.
         alpha: [ 1. ]
         index: [ 43 ]
      -
         sv_count: 1
         rho: 0.
         alpha: [ 1. ]
         index: [ 44 ]
