%YAML:1.0
my_svm: !!opencv-ml-svm
   svm_type: C_SVC
   kernel: { type:LINEAR }
   C: 1.
   term_criteria: { epsilon:2.2204460492503131e-16, iterations:100 }
   var_all: 81
   var_count: 81
   class_count: 10
   class_labels: !!opencv-matrix
      rows: 1
      cols: 10
      dt: i
      data: [ 0, 1, 2, 3, 4, 5, 6, 7, 8, 9 ]
   sv_total: 45
   support_vectors:
      - [ -1.43917158e-01, -3.65119986e-02, -2.08722651e-01,
          5.17417938e-02, 2.37247944e-01, -7.67659349e-03,
          -1.81240379e-03, -2.12418720e-01, 1.95834637e-01,
          4.97909496e-03, 5.25966696e-02, -3.18809859e-02,
          1.01159550e-01, -9.82991606e-02, 5.67215309e-02,
          6.68296739e-02, -8.49785060e-02, 1.19487651e-01,
          1.58604294e-01, 6.66796938e-02, 3.80845331e-02, 9.71142959e-04,
          -1.43366799e-01, 1.83789641e-01, 5.74643053e-02,
          -9.41939428e-02, -7.02854767e-02, -3.77453156e-02,
          -4.08456065e-02, -2.29472578e-01, -4.16927002e-02,
          3.23868155e-01, 2.16843933e-02, -3.69482674e-04,
          -4.03947905e-02, -6.36709929e-02, 3.18223462e-02,
          -1.51799032e-02, -4.37650941e-02, 2.86813900e-02,
          -1.73721556e-02, 2.65706964e-02, 7.25731603e-04,
          -6.86412351e-03, 6.60799677e-03, 1.13545686e-01,
          -7.92728271e-03, 8.82949505e-04, 1.41047109e-02,
          -3.66142876e-02, 4.05921713e-02, -1.55732705e-04,
          1.52104651e-03, -1.47455251e-02, 2.22923413e-01,
          7.11454079e-02, 2.68125609e-02, -2.27502384e-03,
          2.73976713e-01, 1.05350256e-01, -4.49101813e-03,
          -1.39498676e-03, -3.44147086e-01, 9.66167599e-02,
          4.30429652e-02, 4.84192222e-02, 5.06696440e-02,
          -4.93501239e-02, 1.05969481e-01, 2.20040288e-02,
          6.61995560e-02, -4.21096087e-02, -3.60055864e-02,
          -2.80937757e-02, 1.63324401e-02, 1.69377223e-01,
          -1.12162896e-01, -6.70088804e-04, 2.21134145e-02,
          6.86037093e-02, 6.29094392e-02 ]
      - [ -8.96109361e-03, -1.05729923e-01, -8.11916366e-02,
          -8.71676281e-02, 1.61986083e-01, -2.06438103e-03,
          -1.05358660e-01, -1.12151124e-01, 1.53156668e-01,
          1.42335510e-02, -2.14250963e-02, 3.91492480e-03,
          -1.27531439e-02, -2.07455996e-02, -3.39152329e-02,
          -5.72269149e-02, 1.94735508e-02, 7.19292238e-02,
          9.11637992e-02, 2.33103447e-02, 2.74758339e-02,
          -1.47479773e-02, -5.99864870e-02, 5.46767265e-02,
          -5.82091557e-03, 1.10283634e-02, -1.04530253e-01,
          8.82973671e-02, -2.86355931e-02, -3.93088087e-02,
          -1.57555655e-01, 2.31572837e-01, 1.81034170e-02,
          -2.45809276e-03, -8.07720348e-02, -6.85438216e-02,
          3.95817757e-02, -1.45088984e-02, -2.39847606e-04,
          -1.68861970e-01, 1.06727622e-01, 9.81211942e-03,
          -5.95924903e-05, -3.29634808e-02, -1.71379186e-02,
          5.93644828e-02, -1.61971673e-02, -3.15585276e-05,
          -1.59647852e-01, 4.72176485e-02, 1.68453380e-02,
          3.41861276e-04, 5.50672237e-04, -2.44062617e-02,
          2.16879472e-01, 4.27719429e-02, -1.65704548e-01,
          -1.25427052e-01, 2.02942908e-01, 6.58387020e-02,
          -8.89850631e-02, -1.60522044e-01, -9.87232625e-02,
          1.23674154e-01, 5.40572256e-02, -1.02033190e-01,
          -1.63789049e-01, 1.91186577e-01, 5.96851371e-02,
          -1.28499791e-01, -1.05825597e-02, 5.89740016e-02,
          1.72347166e-02, 1.10552250e-03, -1.06028289e-01,
          -9.19060037e-02, 1.19599134e-01, -1.96979344e-02,
          -1.40062302e-01, 5.11999205e-02, 1.38763085e-01 ]
      - [ -4.90361117e-02, -3.52437459e-02, -1.51346743e-01,
          -6.48546740e-02, 1.66316926e-01, -2.18516891e-03,
          -8.92542675e-02, -1.58165395e-01, 1.96862832e-01,
          -3.17318812e-02, -1.94526259e-02, -4.26311307e-02,
          2.46462005e-04, 1.46607637e-01, -2.95549482e-02,
          -8.85563791e-02, -2.28480529e-02, 2.92222332e-02,
          8.23216811e-02, 2.05672346e-04, 3.13006528e-02,
          -6.40341416e-02, 6.05995418e-04, 2.63363719e-02,
          -5.09894192e-02, 1.15835266e-02, -1.26520023e-01,
          1.64865796e-02, -8.48475173e-02, -1.93583354e-01,
          -1.51035383e-01, 2.41043553e-01, 2.12123264e-02,
          -1.13781624e-01, -1.53700188e-02, 3.20110992e-02,
          -8.83179754e-02, -1.19672388e-01, -6.74908385e-02,
          -1.05810881e-01, 2.17419669e-01, -3.14429589e-02,
          -6.76545501e-02, -5.99865094e-02, 1.47755845e-02,
          -4.15976159e-03, -8.48444700e-02, -6.30998332e-03,
          -1.00180052e-01, 8.39734524e-02, -1.24867789e-01,
          -3.18745673e-02, -5.02135605e-02, 2.34818570e-02,
          1.41945541e-01, -7.48009980e-02, -5.21142483e-02,
          -7.96087916e-05, 2.33558849e-01, -3.90860587e-02,
          -2.60467887e-01, -6.63754195e-02, -3.92997824e-02,
          1.81083139e-02, -3.95774879e-02, 4.18753810e-02,
          -1.05926573e-01, 2.13676617e-01, 1.91104610e-03,
          -1.02251954e-01, -7.50323981e-02, -2.10430976e-02,
          -7.55357370e-02, -5.35081141e-02, 4.75532711e-02,
          -7.19886050e-02, 5.65635413e-02, -1.12030052e-01,
          -1.30915446e-02, -4.46243323e-02, 8.16867352e-02 ]
      - [ 7.01428810e-03, 3.93493043e-04, -1.07589155e-03,
          6.12671413e-02, 2.46251717e-01, -1.13675976e-03,
          1.59511939e-02, -1.28104329e-01, -4.18264158e-02,
          9.13059786e-02, 6.91855997e-02, 2.08825488e-02, 1.98214784e-05,
          8.30397531e-02, 6.36485890e-02, 6.51748776e-02,
          -3.50851566e-02, -1.02645315e-01, 2.19519839e-01,
          7.38589987e-02, 2.34972350e-02, -9.70711485e-02,
          -8.96201730e-02, 1.90174699e-01, 5.35416044e-02,
          -7.05698878e-02, -1.97651833e-01, 1.39052942e-01,
          -2.71477411e-03, -3.49763781e-04, -1.39828742e-01,
          2.79238194e-01, 1.57740600e-02, -1.09810539e-01,
          -1.62238613e-01, -1.00130767e-01, 7.39460066e-02,
          -6.64668623e-03, -7.86958169e-03, -1.06993161e-01,
          1.53985441e-01, 2.15018056e-02, -8.95512104e-02,
          -1.06878705e-01, -8.41716975e-02, 1.32456452e-01,
          -5.99776860e-03, -8.84244684e-03, -5.10806665e-02,
          -1.54455910e-02, 1.52605446e-02, -7.00713396e-02,
          -5.71983792e-02, -2.64371783e-02, 2.74674058e-01,
          4.10229638e-02, -2.20980808e-01, -1.78640068e-01,
          2.30202794e-01, 9.73669440e-02, -1.15933761e-01,
          -1.04894705e-01, -1.82094455e-01, 8.37861970e-02,
          4.56351861e-02, -5.79899475e-02, -4.14130390e-02,
          1.07025236e-01, 1.01121284e-01, -7.86597431e-02,
          1.86051838e-02, -9.67377797e-02, -5.14142215e-02,
          -3.46289799e-02, -5.43742254e-03, 1.42462865e-01,
          -9.00953114e-02, -2.81611569e-02, -5.21476977e-02,
          4.38684709e-02, 5.75903468e-02 ]
      - [ -1.33202374e-01, 2.34525069e-04, -8.30775574e-02,
          5.71617521e-02, 4.14377712e-02, -2.31996346e-02,
          -1.66280925e-01, 4.37268242e-02, 9.01449621e-02,
          8.12809840e-02, 5.99025004e-02, -1.33397326e-01,
          5.44442572e-02, 6.67427778e-02, 2.99673006e-02,
          -1.95367262e-01, 6.15652017e-02, 1.51353106e-01,
          2.03824520e-01, 6.07621893e-02, -1.64551869e-01,
          -2.45877802e-02, 9.99016985e-02, 1.26422718e-01,
          -1.99878156e-01, 8.27745255e-03, 3.50075811e-02,
          -2.38270704e-02, -6.19771406e-02, -1.15964569e-01,
          -4.53588255e-02, 8.51087272e-02, -9.13674571e-03,
          -8.30516666e-02, -2.83282027e-02, 3.25568020e-03,
          -6.09456934e-02, -7.03335702e-02, -1.42207623e-01,
          -1.86238158e-02, 1.09423362e-01, -1.23417005e-01,
          -1.18491046e-01, -1.86269376e-02, 1.28586277e-01,
          -4.27703857e-02, -4.12532575e-02, -9.29090306e-02,
          8.56668409e-03, 8.75788927e-02, -1.40029594e-01,
          -9.09917355e-02, -2.25458597e-03, 1.18486904e-01,
          1.16553910e-01, -9.96716246e-02, -1.05156802e-01,
          -5.87833524e-02, 2.06746668e-01, -5.92058003e-02,
          -1.06809556e-01, -9.86539647e-02, -5.94763979e-02,
          -1.14207035e-02, -1.49173941e-02, 1.70000866e-02,
          -1.25800475e-01, 1.62912592e-01, -6.68282658e-02,
          -4.07610685e-02, -7.20503554e-03, 1.46769341e-02,
          -1.07609458e-01, -2.45228764e-02, 5.08234054e-02,
          -1.31446784e-02, 3.20295384e-03, -1.10813178e-01,
          -3.78153846e-03, 2.91379355e-02, 6.62583932e-02 ]
      - [ 1.73551887e-02, 3.76426062e-04, -4.32279077e-04,
          -9.84618813e-02, 1.26953602e-01, -2.73744517e-04,
          3.16711073e-03, -1.33230135e-01, 6.93141446e-02,
          1.35896564e-01, 5.69651127e-02, -4.27581333e-02,
          -1.23566590e-01, 1.25918403e-01, 5.21358475e-02,
          -9.40263569e-02, -1.35365561e-01, 2.14551121e-01,
          2.34713227e-01, 4.75626439e-02, -1.19513415e-01,
          -7.86884129e-02, 1.72834352e-01, 1.45642579e-01,
          -2.69579798e-01, -4.78318706e-02, 4.18477878e-02,
          4.86312136e-02, 6.43500534e-05, -1.40102599e-02,
          -1.77995920e-01, 1.35546505e-01, 8.11837707e-03,
          -1.46791907e-02, -9.10883024e-02, -3.32463980e-02,
          2.95079295e-02, -6.88398480e-02, -3.92693505e-02,
          -2.38271132e-01, 1.03562213e-01, -1.17584281e-02,
          -1.13460958e-01, -1.15365058e-01, 2.06161425e-01,
          2.54950281e-02, -1.06087640e-01, -3.47226299e-02,
          5.17340377e-04, 8.33493620e-02, -1.49682373e-01,
          -1.58769026e-01, -3.21943150e-03, 6.76032603e-02,
          5.48546799e-02, -9.09994245e-02, -1.44866193e-02,
          -1.02647334e-01, 7.36934617e-02, -5.19348979e-02,
          -2.04613712e-02, -2.85641998e-02, -5.34684025e-02,
          4.67683561e-02, -1.19768642e-01, -5.74020855e-02,
          -7.86313862e-02, 8.57430249e-02, -6.46941736e-02,
          -2.51827724e-02, -4.81348746e-02, 1.13709889e-01,
          -7.69853592e-02, -7.23367408e-02, -4.63782884e-02,
          -4.65937285e-03, 1.98476315e-02, -1.23923309e-01,
          -6.42847735e-03, -2.05972660e-02, 7.39238113e-02 ]
      - [ -9.31581575e-03, -2.20271740e-02, -1.41586572e-01,
          5.99177703e-02, 1.10624932e-01, -5.40518260e-04,
          -1.19020917e-01, 1.46363471e-02, 9.82668325e-02,
          7.04239607e-02, 2.03638654e-02, -1.15665570e-01,
          4.22260091e-02, 1.07009672e-01, 3.60539928e-02,
          -9.20650065e-02, 2.91092992e-02, 4.72088680e-02,
          1.15877904e-01, 2.55281981e-02, -5.04667759e-02,
          -1.08061060e-01, 7.23296702e-02, 9.54264253e-02,
          -9.19600055e-02, -4.28059185e-03, -5.90423457e-02,
          3.91191840e-02, -2.64607854e-02, -1.65539086e-01,
          2.10865028e-02, 1.51187897e-01, 1.13992235e-02,
          -1.18107104e-03, -2.43452098e-02, 5.63313533e-03,
          6.25933111e-02, -1.29257161e-02, -1.07719012e-01,
          -7.17053935e-02, 1.32221788e-01, 1.15865655e-02,
          -1.63074394e-04, -1.79847814e-02, -2.19537616e-02,
          8.28154832e-02, -9.19487048e-03, -5.04945107e-02,
          -1.53706297e-01, 1.26197547e-01, 1.82208102e-02,
          -2.99848150e-04, -9.61341150e-03, -1.82991400e-02,
          1.28085271e-01, 2.56596617e-02, 1.47890532e-02,
          -9.76764858e-02, 1.05067968e-01, 4.92015891e-02,
          -4.28092462e-05, -2.30210572e-02, -1.31111786e-01,
          7.23277628e-02, 2.77639162e-02, 4.30133417e-02,
          -1.14344709e-01, 9.40594524e-02, 4.77637686e-02,
          9.70317703e-03, 1.38908187e-02, -2.98398621e-02,
          9.56530031e-03, -1.95376429e-04, 2.85746250e-02,
          -9.19237733e-02, 7.43954331e-02, -1.05502259e-03,
          8.83070379e-03, 2.64461879e-02, 4.01524529e-02 ]
      - [ -1.97882697e-01, -1.39560029e-01, -4.27404456e-02,
          -9.24473908e-03, 5.56016862e-02, -2.07266539e-01,
          -7.04455897e-02, -1.31325588e-01, 1.93615839e-01,
          3.35815437e-02, -4.58815955e-02, 1.89416781e-02,
          -4.26490158e-02, 1.01637036e-01, -1.07732110e-01,
          -1.25477642e-01, -1.52581275e-01, 2.00662211e-01,
          1.50203705e-01, -1.44473137e-02, 5.26897795e-02,
          -2.65114099e-01, 8.58101472e-02, 6.52031302e-02,
          -1.12622216e-01, -1.40130147e-01, -1.71401739e-01,
          3.93096209e-02, -9.72514749e-02, -8.54577124e-02,
          -1.48428798e-01, 1.50815681e-01, -1.10639170e-01,
          -3.50580923e-02, -1.23358548e-01, -5.44483103e-02,
          -1.75155193e-01, -1.48463845e-01, -9.30752158e-02,
          -2.03208953e-01, 1.76751494e-01, -1.46232635e-01,
          -4.08000909e-02, -1.42426640e-01, 1.96944341e-01,
          -8.41565654e-02, -1.02414861e-01, -8.40287469e-03,
          -1.56348497e-01, 1.19990587e-01, -1.75249413e-01,
          -8.95512383e-03, -1.11750111e-01, 1.05781749e-01,
          1.65399939e-01, -1.22872822e-01, -8.51218253e-02,
          -1.90283567e-01, 1.52121499e-01, -7.61896819e-02,
          -4.65691127e-02, -1.36512980e-01, -1.75370663e-01,
          -3.92788984e-02, -1.35038599e-01, -8.17607343e-02,
          -1.77841499e-01, 2.39241466e-01, -1.07483149e-01,
          -2.41485778e-02, -4.56262454e-02, 1.22630104e-01,
          -2.45246172e-01, -1.12762578e-01, -3.98087650e-05,
          -2.31364239e-02, 3.85764465e-02, -2.31751665e-01,
          1.88636910e-02, -1.35291526e-02, 1.82106867e-01 ]
      - [ -7.94849098e-02, 1.30119908e-03, -1.30268710e-03,
          -7.25894570e-02, 3.62304188e-02, -4.52785641e-02,
          -1.57757420e-02, -1.23197548e-01, 8.35153684e-02,
          2.40866747e-02, -1.51642263e-02, -1.28981462e-02,
          -6.67186379e-02, 3.90711762e-02, -2.57214997e-02,
          -6.84658065e-02, -1.12634435e-01, 1.16153874e-01,
          1.82039261e-01, -1.02943433e-02, -1.24515221e-02,
          7.18849129e-04, 4.62044850e-02, -7.58134201e-02,
          -5.38702942e-02, 1.94390258e-03, -2.16075361e-01,
          -2.43992824e-02, -2.57781744e-01, -4.01535481e-02,
          -1.34765878e-01, 1.94396064e-01, -2.14347616e-01,
          -4.14593052e-03, -6.56041130e-02, 2.58827992e-02,
          6.01535803e-03, -2.93495476e-01, -1.17139608e-01,
          -1.75489232e-01, 2.52793968e-01, -1.63380906e-01,
          -3.22159678e-02, -1.70826256e-01, 3.36718932e-02,
          1.16803631e-01, -7.71030337e-02, -7.62534291e-02,
          -1.41808644e-01, 5.95998093e-02, -8.53428021e-02,
          -2.60396227e-02, -1.03803292e-01, -7.01859072e-02,
          1.61983341e-01, -3.46236736e-01, -1.25318199e-01,
          1.13239570e-03, 3.97640169e-01, -1.87616497e-01,
          -1.66235343e-01, -3.65458578e-02, 1.01419784e-01,
          1.36000380e-01, -1.86487421e-01, -9.17242095e-02,
          -1.68055400e-01, 4.16741848e-01, -3.69434841e-02,
          -9.02135819e-02, -1.62772760e-01, 1.12594543e-02,
          -1.70688499e-02, -2.85960194e-02, -1.91981196e-02,
          -1.73420280e-01, 1.12739243e-01, -2.67823460e-04,
          9.42377094e-03, -1.08936377e-01, 1.07607730e-01 ]
      - [ 1.04841106e-01, -8.14100206e-02, 8.08549151e-02,
          -1.32059291e-01, -1.91401355e-02, 3.93607141e-03,
          -1.08556114e-01, 5.14660478e-02, 4.50292369e-03,
          1.09089501e-02, -6.41025603e-02, 2.93843392e-02,
          -9.35830995e-02, 5.63407913e-02, -8.04152638e-02,
          -1.12773292e-01, 8.77597332e-02, -1.97179876e-02,
          -3.06757074e-02, -2.85735521e-02, -1.53488596e-03,
          -1.61674488e-02, 5.11339977e-02, -8.87523890e-02,
          -5.16742319e-02, 8.62553045e-02, -5.33587299e-02,
          1.22132711e-01, 2.51497817e-03, 1.41045317e-01,
          -1.31405160e-01, -1.52237518e-02, 1.69363618e-03,
          -2.27306411e-03, -5.22730835e-02, -2.10374743e-02,
          1.60726625e-02, -3.10219778e-03, 3.44766527e-02,
          -1.99049890e-01, 1.25208020e-01, -1.08396830e-02,
          -6.38073368e-04, -2.89672129e-02, -2.31353156e-02,
          -2.81206816e-02, -1.06196115e-02, -7.33556459e-04,
          -1.77863955e-01, 7.83481151e-02, -1.46228811e-02,
          4.80474468e-04, -6.32030657e-04, -1.37796998e-02,
          4.95348051e-02, -1.17991697e-02, -1.94270656e-01,
          -1.29140392e-01, -5.52510377e-03, -1.48586379e-02,
          -8.93366635e-02, -1.66477785e-01, 1.70009509e-01,
          5.24513833e-02, 2.22815815e-02, -1.44942492e-01,
          -2.11201176e-01, 2.38757119e-01, -2.17742957e-02,
          -1.51613444e-01, -6.35766909e-02, 9.49821919e-02,
          4.65629920e-02, 2.34462228e-02, -1.23652913e-01,
          -2.30348408e-01, 2.13861123e-01, -2.00328976e-02,
          -1.63771480e-01, -9.83570004e-04, 9.49505270e-02 ]
      - [ 6.54863939e-02, -4.49706893e-03, 2.06985027e-02,
          -9.99074802e-02, -2.88170595e-02, 3.89156234e-03,
          -8.12346190e-02, 1.72335394e-02, 3.13698016e-02,
          -3.32134068e-02, -5.85332178e-02, -1.49043091e-02,
          -7.77121261e-02, 2.11464852e-01, -7.10639581e-02,
          -1.33475110e-01, 4.43207286e-02, -6.50077760e-02,
          -4.59868200e-02, -5.11842296e-02, -3.65013198e-04,
          -6.00306243e-02, 1.11020707e-01, -1.17222175e-01,
          -9.14801359e-02, 8.32974613e-02, -6.29786327e-02,
          4.43447642e-02, -4.70810048e-02, -2.41669477e-03,
          -1.07704639e-01, -2.63738260e-02, 2.93108216e-03,
          -1.05053611e-01, 1.68934707e-02, 7.86921903e-02,
          -1.06282339e-01, -9.90962759e-02, -2.87629310e-02,
          -1.20057151e-01, 2.14670420e-01, -4.95815873e-02,
          -6.31932989e-02, -5.02465256e-02, 8.58788379e-03,
          -9.13345143e-02, -7.24407360e-02, -6.52202638e-03,
          -1.03613287e-01, 1.05952248e-01, -1.46876797e-01,
          -2.93892790e-02, -4.76593040e-02, 3.31003219e-02,
          -4.03433219e-02, -1.24065615e-01, -6.89052790e-02,
          1.67913397e-03, 5.13669755e-03, -1.17354728e-01,
          -2.37679273e-01, -6.03751354e-02, 2.28771165e-01,
          -5.76756597e-02, -6.98038563e-02, 1.46244699e-03,
          -1.37105525e-01, 2.35843167e-01, -7.98769668e-02,
          -1.11617617e-01, -1.20469213e-01, 1.29625853e-02,
          -4.21893038e-02, -2.78920811e-02, 3.14408727e-02,
          -1.97146490e-01, 1.38784200e-01, -1.03200413e-01,
          -2.91577671e-02, -9.41699520e-02, 2.71552727e-02 ]
      - [ 1.95656568e-01, 4.78584468e-02, 2.69314945e-01, 1.15724904e-02,
          8.53758678e-03, 8.49613361e-03, 2.28345934e-02, 1.10982276e-01,
          -3.07694077e-01, 1.10794947e-01, 2.06324309e-02,
          6.81638345e-02, -1.31170377e-01, 2.34123319e-01,
          8.17235373e-03, -2.97708064e-03, 6.51549920e-02,
          -2.86779970e-01, 7.62038007e-02, 8.36931914e-03,
          -1.92181356e-02, -1.25915393e-01, 7.08476901e-02,
          5.85629605e-03, -5.77005278e-03, 3.15382294e-02,
          -1.62663996e-01, 2.27520317e-01, 4.94872481e-02,
          2.97158390e-01, -1.25491843e-01, -6.14416227e-02,
          -7.86633883e-03, -1.40536249e-01, -1.55953214e-01,
          -4.60087955e-02, 5.36882393e-02, 1.11516407e-02,
          4.66539338e-02, -1.74594909e-01, 2.20273837e-01,
          -6.84808288e-03, -1.15940228e-01, -1.28348246e-01,
          -1.16660841e-01, 2.28370000e-02, 2.57889391e-03,
          -1.25003234e-02, -8.38889629e-02, 2.76510287e-02,
          -3.30476537e-02, -8.97815749e-02, -7.54251406e-02,
          -1.48260770e-02, 6.36144802e-02, -3.95894200e-02,
          -3.18550766e-01, -2.26453766e-01, -5.97062297e-02,
          -1.15950881e-02, -1.43054217e-01, -1.32893488e-01,
          2.12490872e-01, -1.77084412e-02, 2.78007914e-03,
          -1.37264818e-01, -1.18895866e-01, 2.01441795e-01,
          -7.57696945e-03, -1.29549980e-01, -6.19632900e-02,
          -6.96150064e-02, -1.93282608e-02, -8.03413521e-03,
          -2.81644426e-02, -3.67221087e-02, 2.97685564e-02,
          -3.52946743e-02, -9.56458598e-02, -3.26389223e-02,
          -7.63268769e-03 ]
      - [ -1.86273456e-02, 2.15362236e-02, 5.79612106e-02,
          1.38530154e-02, -1.06781602e-01, -1.34149389e-02,
          -1.27271026e-01, 1.57987133e-01, -4.49688099e-02,
          5.98182566e-02, 1.54682472e-02, -8.43057781e-02,
          -1.71478502e-02, 1.09003693e-01, -1.00474795e-02,
          -1.89866602e-01, 9.72167701e-02, 4.69239727e-02,
          6.45413399e-02, 7.89481681e-03, -1.49271607e-01,
          -1.95441805e-02, 1.60954118e-01, -9.92571376e-03,
          -1.87870353e-01, 6.14806861e-02, 6.81266263e-02,
          3.68748745e-03, -2.39423867e-02, 4.47161794e-02,
          -1.06213763e-02, -1.23740181e-01, -1.97343081e-02,
          -6.38808981e-02, 1.76326896e-03, 3.97526845e-02,
          -6.56485483e-02, -4.54030707e-02, -8.41545165e-02,
          -3.11485901e-02, 9.46106240e-02, -1.10790603e-01,
          -9.18726176e-02, -1.03610558e-02, 9.53744724e-02,
          -9.94198844e-02, -2.72016078e-02, -7.22210705e-02,
          -1.63806381e-03, 8.90060440e-02, -1.31812647e-01,
          -7.01338425e-02, -2.62966100e-03, 1.00069351e-01,
          -4.04308476e-02, -1.18535526e-01, -9.68393311e-02,
          -4.40367609e-02, -6.82719226e-04, -1.07310921e-01,
          -7.98059776e-02, -7.53225237e-02, 1.55383289e-01,
          -6.53236210e-02, -3.66879068e-02, -1.51993465e-02,
          -1.26725137e-01, 1.54595494e-01, -1.13555908e-01,
          -4.43280488e-02, -4.42796014e-02, 3.59564237e-02,
          -6.19910024e-02, -2.49453122e-03, 2.96715591e-02,
          -1.09210454e-01, 6.80740550e-02, -8.51306617e-02,
          -1.58522334e-02, -1.76372379e-02, 1.43417949e-02 ]
      - [ 9.51091647e-02, 2.14436594e-02, 1.20860174e-01,
          -9.57046747e-02, -5.30296452e-02, 4.27312823e-03,
          3.16437520e-03, 3.44317257e-02, -6.74366653e-02,
          8.77505243e-02, 7.46610574e-03, -1.00142732e-02,
          -1.41132519e-01, 1.41040877e-01, 1.85088755e-03,
          -1.01503693e-01, -4.09624428e-02, 7.37476945e-02,
          6.44910485e-02, -6.97935419e-03, -1.01818606e-01,
          -5.30474186e-02, 1.98491484e-01, -9.53572709e-03,
          -2.13158712e-01, 2.27698274e-02, 6.87073767e-02,
          5.43445759e-02, 2.37508602e-02, 1.23847753e-01,
          -9.45204198e-02, -9.75751430e-02, -7.17142178e-03,
          -9.57629457e-03, -3.73079628e-02, 1.47816930e-02,
          1.21066638e-03, -3.71040814e-02, -7.89449259e-04,
          -1.75569996e-01, 7.91573972e-02, -2.32650377e-02,
          -7.60976225e-02, -7.29622617e-02, 1.33670449e-01,
          -4.89003919e-02, -6.61573038e-02, -2.36718487e-02,
          -7.84171466e-03, 7.68444687e-02, -1.23396255e-01,
          -1.05805650e-01, -3.03016044e-03, 5.36488593e-02,
          -9.28039476e-02, -1.01989754e-01, -2.52250750e-02,
          -6.71434104e-02, -1.09871596e-01, -9.57878828e-02,
          -1.10406475e-02, -1.82421114e-02, 1.64090186e-01,
          -2.48854421e-02, -1.04866847e-01, -6.63900226e-02,
          -8.18557888e-02, 8.58332366e-02, -1.04657501e-01,
          -2.95682084e-02, -7.05291629e-02, 1.00284025e-01,
          -3.04491781e-02, -3.19408700e-02, -4.04132791e-02,
          -1.01419024e-01, 7.83405080e-02, -8.22656527e-02,
          -1.71229243e-02, -5.35575226e-02, 1.27914231e-02 ]
      - [ 6.93569407e-02, -6.65550167e-03, -5.73689230e-02,
          4.48308885e-02, 3.15942639e-03, 3.64574068e-03,
          -1.45771414e-01, 1.37378469e-01, 1.11822132e-02,
          8.40574577e-02, -4.43151919e-03, -1.24742053e-01,
          -4.74919891e-03, 1.87196046e-01, 1.26020908e-02,
          -1.51086509e-01, 8.36378783e-02, -8.89969990e-03,
          5.38164489e-02, -5.97351650e-03, -8.36353078e-02,
          -1.33818194e-01, 1.69741869e-01, 1.44454604e-02,
          -1.45695969e-01, 4.76346463e-02, -3.33342105e-02,
          6.94496632e-02, -9.68908612e-03, -7.52533898e-02,
          4.94272634e-02, 4.52672923e-03, 1.87744154e-03,
          -1.24906655e-03, -7.33317761e-03, 4.27149087e-02,
          5.93205094e-02, -7.41400989e-03, -1.08265541e-01,
          -1.04546815e-01, 1.72829211e-01, -6.36414858e-04,
          -6.08804636e-04, -1.83248334e-02, -3.07878461e-02,
          3.83521765e-02, -6.88692275e-03, -6.27713278e-02,
          -1.97490737e-01, 1.76208824e-01, -3.30979092e-04,
          -2.82321736e-04, -1.27107613e-02, -1.42851146e-02,
          3.27403024e-02, -8.32002051e-03, 3.17737274e-03,
          -1.19187266e-01, -2.43266020e-02, 1.49969617e-03,
          2.47005583e-03, -2.76084337e-02, 3.16250920e-02,
          3.49274948e-02, 1.00618722e-02, 2.58489810e-02,
          -1.69486269e-01, 1.43727049e-01, -6.21433253e-04,
          -3.93864699e-04, -2.00562775e-02, -1.31464731e-02,
          3.20232958e-02, 1.55408662e-02, 2.60665044e-02,
          -2.08518952e-01, 1.54760644e-01, -9.24742839e-04,
          -1.53134135e-03, -5.92217548e-03, 1.41806649e-02 ]
      - [ 8.42428114e-03, -4.71366011e-02, 1.46902949e-01,
          -4.73571680e-02, -1.63108528e-01, -1.08022749e-01,
          -3.73653881e-02, 1.01073369e-01, -5.31799980e-02,
          1.44511852e-02, -6.82579502e-02, 3.64832990e-02,
          -1.06138453e-01, 1.36329889e-01, -1.05732948e-01,
          -1.23774007e-01, -1.47325573e-02, 1.30608706e-02,
          -4.67113033e-02, -6.24263287e-02, -2.05039512e-03,
          -1.46984398e-01, 1.64410844e-01, -1.14152730e-01,
          -1.09036140e-01, -3.40091297e-04, -3.71110030e-02,
          5.25043532e-02, -2.02670880e-02, 1.40294686e-01,
          -4.77958210e-02, -1.81350708e-01, -7.87199065e-02,
          -1.90302301e-02, -3.50314453e-02, 2.19780635e-02,
          -1.22575857e-01, -6.94690943e-02, -1.55797340e-02,
          -1.35480136e-01, 1.11654110e-01, -1.02337942e-01,
          -2.30910275e-02, -7.29318038e-02, 1.03203557e-01,
          -1.39143050e-01, -4.99998890e-02, -5.35471365e-03,
          -9.77346972e-02, 9.60703194e-02, -1.29790425e-01,
          -4.81090974e-03, -6.28643855e-02, 7.03741685e-02,
          -9.08633843e-02, -1.25862449e-01, -6.88372999e-02,
          -1.03069514e-01, -1.39882535e-01, -1.28056392e-01,
          -2.20115203e-02, -7.41376951e-02, 1.84372932e-01,
          -1.00569814e-01, -1.09618731e-01, -8.46308246e-02,
          -1.39450401e-01, 1.72230348e-01, -1.45818219e-01,
          -3.12876664e-02, -7.92270973e-02, 1.02014042e-01,
          -1.05828464e-01, -3.92352082e-02, -1.33612361e-02,
          -1.51094466e-01, 1.12879544e-01, -1.27246976e-01,
          -7.65885226e-03, -6.34914339e-02, 4.90383767e-02 ]
      - [ 6.60079941e-02, 2.62936875e-02, 1.46421567e-01,
          -6.87255636e-02, -1.50977373e-01, -1.47312647e-02,
          -5.73986163e-03, 9.48114917e-02, -1.00780308e-01,
          7.20591424e-03, -4.37875651e-02, 1.67169143e-02,
          -1.00918844e-01, 8.66080001e-02, -5.13880439e-02,
          -7.75177702e-02, 9.75481421e-03, -3.24939191e-02,
          -3.07405647e-02, -5.15401810e-02, -3.23603526e-02,
          -3.64254054e-04, 1.21521182e-01, -1.63159192e-01,
          -6.44304454e-02, 6.72042519e-02, -4.65990305e-02,
          1.57319214e-02, -8.58822465e-02, 1.43756449e-01,
          -3.05739138e-02, -1.41638249e-01, -1.10603921e-01,
          -1.58369483e-03, -7.28077430e-04, 5.63542061e-02,
          -1.97367575e-02, -1.19842112e-01, -2.12750062e-02,
          -9.82494205e-02, 1.24666005e-01, -9.13776606e-02,
          -1.48392897e-02, -7.11412579e-02, 1.03217578e-02,
          -2.80200839e-02, -2.87087522e-02, -3.45358290e-02,
          -7.30036795e-02, 5.22942431e-02, -6.65451065e-02,
          -1.14715332e-02, -4.72381338e-02, -2.08303276e-02,
          -8.49597082e-02, -2.04096884e-01, -7.46194869e-02,
          2.10590987e-03, -1.61067490e-02, -1.57640055e-01,
          -7.07707852e-02, -1.52714262e-02, 2.87485600e-01,
          -7.55941449e-03, -1.13255598e-01, -7.48957545e-02,
          -1.10429272e-01, 2.20104113e-01, -9.10638198e-02,
          -5.56199886e-02, -1.19017333e-01, 3.46649885e-02,
          1.77668855e-02, 7.06793973e-03, -2.00411789e-02,
          -1.96419701e-01, 1.29136205e-01, 3.52820323e-04,
          -1.13829654e-02, -9.67666358e-02, 3.55252624e-03 ]
      - [ -5.90436421e-02, 1.21216618e-01, -9.39975232e-02,
          4.60482873e-02, -1.66369807e-02, 1.13285692e-04,
          3.93030234e-02, -5.32327779e-02, 4.38965671e-02,
          -7.12261498e-02, 6.03189925e-03, -7.06250966e-02,
          2.13912986e-02, 2.54881293e-01, 1.14117432e-02,
          -3.89793441e-02, -6.64901882e-02, -7.45689347e-02,
          -2.63419878e-02, -3.81115526e-02, 1.82975654e-03,
          -7.20818639e-02, 9.97846052e-02, -5.04766628e-02,
          -6.71597198e-02, -7.40839285e-04, -1.81582700e-02,
          -1.20718531e-01, -8.05219114e-02, -2.26609126e-01,
          3.23377736e-02, -1.88475214e-02, 2.09190883e-03,
          -1.67223141e-01, 1.09995693e-01, 1.61163062e-01,
          -1.98184893e-01, -1.56227797e-01, -1.01198159e-01,
          1.19049460e-01, 1.51367068e-01, -6.35036454e-02,
          -1.01741701e-01, -3.59653905e-02, 5.04890680e-02,
          -1.04108855e-01, -1.01018898e-01, -9.44635738e-03,
          1.12338379e-01, 4.85784151e-02, -2.15727851e-01,
          -4.85440306e-02, -7.64937624e-02, 7.55745694e-02,
          -1.43800810e-01, -1.83096051e-01, 1.94674417e-01,
          2.06614628e-01, 1.70749389e-02, -1.67354256e-01,
          -2.45411322e-01, 1.64665133e-01, 1.03562407e-01,
          -1.76586941e-01, -1.48675248e-01, 2.31210381e-01,
          1.10513888e-01, 6.52367109e-03, -9.54990238e-02,
          5.78799322e-02, -9.55030993e-02, -1.28879607e-01,
          -1.42110437e-01, -8.23675618e-02, 2.46342167e-01,
          4.31196392e-02, -1.11983925e-01, -1.36171043e-01,
          2.11150318e-01, -1.51562691e-01, -1.05753042e-01 ]
      - [ 2.42681857e-02, 1.80694029e-01, 1.36990264e-01, 2.27134094e-01,
          3.97716574e-02, 2.06023012e-03, 2.00015128e-01, 2.68298499e-02,
          -3.14661294e-01, 9.28489044e-02, 1.25248909e-01,
          2.01113541e-02, 2.17598602e-02, 1.41859815e-01, 1.39433533e-01,
          1.81119829e-01, -7.81868100e-02, -2.54234582e-01,
          1.26184419e-01, 5.50028831e-02, -1.66886095e-02,
          -9.93664339e-02, -1.27126807e-02, 1.50730029e-01,
          7.85911083e-02, -1.09305821e-01, -7.53575116e-02,
          2.78650858e-02, 4.53200825e-02, 6.65431172e-02, 8.91727507e-02,
          -3.65135185e-02, -1.06212590e-02, -1.36650518e-01,
          -7.04273209e-02, -1.16094965e-02, 2.73840223e-02,
          1.62018277e-02, -9.68453195e-03, 1.50555387e-01,
          1.56074576e-02, 1.08553497e-02, -1.14754140e-01,
          -8.09016898e-02, -7.87489414e-02, 6.87132552e-02,
          1.99113302e-02, -1.12872748e-02, 2.06563979e-01,
          -1.00280330e-01, -9.13580786e-03, -9.04540196e-02,
          -7.42994100e-02, 7.68663594e-03, -1.73263252e-02,
          -2.02789027e-02, -1.02278683e-03, -1.53604122e-02,
          -5.06125428e-02, 1.26748774e-02, 2.95888213e-03,
          1.39033526e-01, -6.53005987e-02, -1.03308976e-01,
          -3.35962512e-02, 9.95130464e-02, 2.26020992e-01,
          -1.88560754e-01, 2.79772356e-02, 1.18108056e-01,
          4.18976918e-02, -2.24578932e-01, -9.53144655e-02,
          -4.62981723e-02, 1.73723951e-01, 3.39348644e-01,
          -3.19379359e-01, -2.54861638e-03, 1.71816915e-01,
          -3.09926476e-02, -1.62622169e-01 ]
      - [ -1.05817914e-01, 8.99713337e-02, -1.80642924e-03,
          1.22686245e-01, -1.02251075e-01, -1.80025026e-02,
          -5.21376133e-02, 1.32458568e-01, -5.32784611e-02,
          5.71283810e-02, 6.92003742e-02, -1.16916500e-01,
          5.71894385e-02, 7.44481757e-02, 5.43144532e-02,
          -1.17772639e-01, 3.58905979e-02, 6.78098351e-02,
          9.61596668e-02, 3.19491141e-02, -1.63450435e-01,
          -8.41535535e-03, 1.36002228e-01, 6.12292439e-02,
          -1.65260881e-01, -2.31526233e-03, 1.18563205e-01,
          -9.52598229e-02, -2.84622051e-02, -6.53721243e-02,
          9.51504409e-02, -1.24147445e-01, -2.31512431e-02,
          -6.86343089e-02, 4.44582924e-02, 6.09705150e-02,
          -8.55049044e-02, -4.75724861e-02, -1.20891102e-01,
          1.27516046e-01, 2.55907560e-03, -1.13425016e-01,
          -1.00848660e-01, 1.21266665e-02, 1.24046914e-01,
          -8.68248045e-02, -2.13761330e-02, -7.90884793e-02,
          1.42846301e-01, 3.44856121e-02, -1.33542880e-01,
          -7.77729005e-02, -2.38741515e-03, 1.21618249e-01,
          -8.48951414e-02, -1.21190041e-01, 5.11493199e-02,
          5.64396940e-02, 3.74019309e-03, -1.06317170e-01,
          -1.53979193e-02, 5.22864237e-02, 3.31762843e-02,
          -1.14732578e-01, -5.86008057e-02, 1.01109020e-01,
          3.19441333e-02, -2.36041583e-02, -1.07583180e-01,
          7.43952543e-02, 2.84994673e-03, -3.75748649e-02,
          -1.06266610e-01, -2.18207445e-02, 1.33302853e-01,
          6.68410584e-02, -9.88200605e-02, -7.76364505e-02,
          1.15701944e-01, -1.86601151e-02, -6.13976046e-02 ]
      - [ 2.28768233e-02, 1.00597031e-01, 7.66524374e-02, 1.11207610e-03,
          -4.84748408e-02, 1.73130003e-03, 1.02556705e-01,
          -3.99332633e-03, -8.78491700e-02, 9.90773663e-02,
          6.75121918e-02, -3.91345434e-02, -9.02672857e-02,
          1.23989210e-01, 7.53585175e-02, -2.36123633e-02,
          -1.30608782e-01, 1.09510966e-01, 1.07969388e-01,
          1.72913838e-02, -1.25066921e-01, -5.11976890e-02,
          2.00074926e-01, 6.87905699e-02, -2.17801183e-01,
          -5.00847921e-02, 1.33814380e-01, -4.34638150e-02,
          2.72142645e-02, 2.56783143e-02, 1.98865286e-03,
          -1.07359678e-01, -1.04458146e-02, -9.82886460e-03,
          1.15417875e-03, 3.74724306e-02, -1.30988145e-02,
          -4.32658158e-02, -3.23035866e-02, -3.72198038e-02,
          -1.54396398e-02, -1.90476160e-02, -9.39355567e-02,
          -6.43034801e-02, 1.87041357e-01, -3.51871029e-02,
          -7.25208968e-02, -2.87346058e-02, 1.51855096e-01,
          2.42612660e-02, -1.39976084e-01, -1.31849945e-01,
          -3.18932068e-03, 7.91525692e-02, -1.60268813e-01,
          -1.15954079e-01, 1.45170480e-01, 3.39340046e-02,
          -1.31443709e-01, -1.05471574e-01, 6.74522519e-02,
          1.28592864e-01, 4.93456461e-02, -7.85620287e-02,
          -1.50490880e-01, 4.92264219e-02, 9.02155191e-02,
          -1.10310823e-01, -1.10204794e-01, 1.01020850e-01,
          -2.98377704e-02, 3.82612608e-02, -8.01225603e-02,
          -6.09729998e-02, 6.21480010e-02, 8.33132938e-02,
          -9.69982296e-02, -8.39756355e-02, 1.27524152e-01,
          -6.56262562e-02, -7.03781098e-02 ]
      - [ -6.18643407e-03, 6.48119524e-02, -1.45709038e-01,
          1.75855622e-01, 2.12438405e-02, 1.09229644e-03,
          -8.76185149e-02, 1.28332332e-01, 1.01635065e-02,
          9.70468372e-02, 5.20617515e-02, -1.85036823e-01,
          7.81919286e-02, 1.87279806e-01, 8.83995369e-02,
          -9.05800983e-02, 2.73436140e-02, 6.43270835e-03,
          9.60286856e-02, 1.81233566e-02, -1.04947299e-01,
          -1.55576646e-01, 1.69776037e-01, 9.82469395e-02,
          -1.38719305e-01, -1.70746092e-02, 5.64663485e-03,
          -2.16319207e-02, -1.45817213e-02, -2.22620815e-01,
          1.81110412e-01, 1.94571912e-02, 8.62500747e-04, 4.57892515e-04,
          3.77256088e-02, 7.32399523e-02, 6.09501898e-02,
          -6.63357181e-03, -1.68672964e-01, 4.62411232e-02,
          1.07030518e-01, 8.94719269e-03, -1.99696646e-04,
          2.77497130e-03, -1.83187537e-02, 7.40687028e-02,
          8.02606635e-04, -7.91433603e-02, -9.09905210e-02,
          1.53503567e-01, 1.27405850e-02, -7.91379018e-04,
          -1.55908167e-02, -5.75875118e-03, -2.95995874e-03,
          4.23198835e-05, 1.78893447e-01, -3.52941267e-02,
          -2.59544551e-02, 1.52801862e-02, 8.35480317e-02,
          1.14739209e-01, -1.12811416e-01, -2.80437083e-03,
          -7.26256566e-03, 1.63318768e-01, -2.53821108e-02,
          -3.21684033e-02, 1.88079737e-02, 1.35959432e-01,
          3.17240916e-02, -1.02202639e-01, -1.19672751e-03,
          -1.34514947e-03, 1.44433543e-01, -5.77723160e-02,
          4.26675193e-03, 1.68550126e-02, 1.45456195e-01,
          -6.64382381e-03, -6.74321055e-02 ]
      - [ -1.28607795e-01, 4.73882183e-02, 8.23173374e-02,
          1.14495188e-01, -1.85381576e-01, -1.44877106e-01,
          9.61389765e-02, 6.21776581e-02, -7.47366697e-02,
          4.16584685e-03, -2.94381031e-03, 8.06385279e-03,
          -1.26858093e-02, 1.01267241e-01, -2.96822730e-02,
          -9.94933397e-03, -1.35814548e-01, 4.31196950e-02,
          -1.95672382e-02, -4.26789448e-02, -6.08261093e-04,
          -1.68493420e-01, 1.44495189e-01, -2.94733550e-02,
          -7.21940473e-02, -1.15207821e-01, 2.30241790e-02,
          -9.46335271e-02, -2.95453966e-02, -6.31227670e-03,
          1.13057777e-01, -2.14174047e-01, -1.04013912e-01,
          -2.15757284e-02, 2.42678821e-02, 5.64025231e-02,
          -1.79838255e-01, -8.56743157e-02, -6.60131499e-02,
          8.97147954e-02, -2.22631227e-02, -1.17868334e-01,
          -2.90005393e-02, -5.57354763e-02, 1.64193198e-01,
          -1.42452449e-01, -5.05042747e-02, -5.94594004e-03,
          1.10318691e-01, 1.99419577e-02, -1.48322091e-01,
          -6.85831625e-03, -8.04231986e-02, 1.09306745e-01,
          -1.83367386e-01, -1.47001565e-01, 1.69504225e-01,
          3.85926068e-02, -1.73473224e-01, -1.45766824e-01,
          9.04140621e-02, 1.25672281e-01, 1.21285152e-02,
          -1.99795485e-01, -1.71350092e-01, 8.34538341e-02,
          1.00750513e-01, -9.50411484e-02, -1.59525633e-01,
          1.61286116e-01, -1.78232230e-02, 5.49264811e-03,
          -1.98758408e-01, -8.19156542e-02, 1.47256151e-01,
          1.11174963e-01, -1.38637617e-01, -1.37835830e-01,
          2.08007887e-01, -8.07660297e-02, -6.29463270e-02 ]
      - [ -4.10976224e-02, 1.49746031e-01, 1.13436691e-01,
          7.36762509e-02, -2.03590825e-01, -2.76919715e-02,
          1.37682945e-01, 7.46525675e-02, -1.59204617e-01,
          -3.76327359e-03, 1.99185610e-02, -1.42285563e-02,
          -2.71311905e-02, 5.56133389e-02, 3.03700957e-02,
          3.43067311e-02, -1.03535302e-01, -2.27805320e-02,
          -5.33822598e-03, -3.97775061e-02, -4.71002646e-02,
          2.12507956e-02, 1.15684710e-01, -1.28217906e-01,
          -2.82089766e-02, -1.42141664e-02, 1.15696143e-03,
          -1.40810519e-01, -1.33886546e-01, 2.82112304e-02,
          1.30763993e-01, -1.94682240e-01, -1.70342460e-01,
          6.59210433e-04, 6.93919212e-02, 1.14000253e-01,
          -5.16656637e-02, -1.77911624e-01, -7.88235590e-02,
          1.19162925e-01, 2.05630604e-02, -1.24225825e-01,
          -2.16871817e-02, -6.90296590e-02, 4.68850024e-02,
          -4.65040375e-03, -2.92996652e-02, -5.14865331e-02,
          1.28950372e-01, -2.62052938e-02, -8.13915059e-02,
          -1.80785395e-02, -7.09241107e-02, -1.30668450e-02,
          -1.95898175e-01, -2.94204265e-01, 1.48622155e-01,
          1.77365318e-01, -1.70221310e-02, -2.19488770e-01,
          1.29506504e-02, 2.01316297e-01, 2.07539424e-01,
          -8.22249055e-02, -2.02137560e-01, 8.16758424e-02,
          1.17043957e-01, 1.24392966e-02, -1.09001964e-01,
          1.19961403e-01, -9.50993448e-02, -7.54258409e-02,
          -3.58011946e-02, -2.08813418e-02, 1.36312976e-01,
          1.22078294e-02, -9.22068581e-02, 2.75535081e-02,
          2.03574792e-01, -1.45706624e-01, -1.22657314e-01 ]
      - [ 6.18640780e-02, 4.01410870e-02, 1.69805273e-01, 1.30171314e-01,
          4.13118564e-02, 1.40894263e-03, 1.15564466e-01, 5.93649298e-02,
          -2.61072367e-01, 1.20725766e-01, 8.62959027e-02,
          6.75329864e-02, -2.59716500e-04, -8.82309452e-02,
          9.25477296e-02, 1.60554588e-01, -6.84329495e-03,
          -1.28438950e-01, 1.11246124e-01, 6.84563220e-02,
          -1.34727797e-02, -1.80083998e-02, -8.40301365e-02,
          1.47138834e-01, 1.07338652e-01, -7.87024349e-02,
          -4.10279669e-02, 1.10712104e-01, 9.32318866e-02,
          2.18147650e-01, 4.04145345e-02, -1.23453531e-02,
          -9.26987547e-03, 2.62877103e-02, -1.33534759e-01,
          -1.29247889e-01, 1.68442637e-01, 1.28877640e-01,
          6.88496679e-02, 1.99122932e-02, -1.02168404e-01,
          5.54822274e-02, -6.92900131e-03, -3.16974148e-02,
          -9.49545056e-02, 1.27878323e-01, 9.01752859e-02,
          -1.10214716e-03, 6.55557811e-02, -1.09134473e-01,
          1.55114621e-01, -2.91931629e-02, 3.47550865e-03,
          -5.10874093e-02, 9.52493474e-02, 1.22569501e-01,
          -1.46696121e-01, -1.66044369e-01, -4.95009571e-02,
          1.34662151e-01, 1.86139300e-01, -2.26419568e-02,
          -1.24994099e-01, 5.74841127e-02, 8.71065408e-02,
          -1.01189733e-01, 8.10319856e-02, -1.41616821e-01,
          9.18854401e-02, 4.22456935e-02, 1.01982251e-01,
          -6.62168935e-02, 3.74326631e-02, 2.81830616e-02,
          -5.87241091e-02, 2.13734001e-01, -1.47624195e-01,
          1.00244381e-01, -3.37222889e-02, 9.11592394e-02,
          -3.86307575e-02 ]
      - [ -1.31146625e-01, 4.78801578e-02, 8.10764655e-02,
          1.72128826e-01, -1.62937686e-01, -3.14129926e-02,
          -1.25896275e-01, 2.78077900e-01, -1.31996185e-01,
          1.63178608e-01, 1.14954859e-01, -1.40073657e-01,
          8.03029388e-02, -9.88777205e-02, 8.42438415e-02,
          -1.69916183e-01, 1.21996790e-01, 1.84751719e-01,
          1.90850586e-01, 8.97151977e-02, -2.85926372e-01,
          4.99460250e-02, 1.47143334e-01, 1.51720390e-01,
          -2.27263197e-01, -3.36313737e-03, 2.22484425e-01,
          -5.75246252e-02, 2.26408020e-02, 8.93327445e-02,
          1.36520326e-01, -1.99041173e-01, -4.21408974e-02,
          3.04511897e-02, -2.12264750e-02, -3.83511148e-02,
          2.88490094e-02, 5.72322831e-02, -1.19594276e-01,
          1.15122817e-01, -1.31168425e-01, -1.40381545e-01,
          -8.42477605e-02, 5.33154160e-02, 1.70516640e-01,
          -5.77353910e-02, 5.33300601e-02, -1.29093871e-01,
          1.47799417e-01, 1.64558310e-02, -3.89848873e-02,
          -9.17755961e-02, 6.43832311e-02, 1.43816799e-01,
          -1.88166052e-02, -4.67366911e-02, -8.54579210e-02,
          -8.69544372e-02, -8.79326090e-03, -3.49725895e-02,
          1.93098247e-01, -5.65929525e-02, -3.50851193e-02,
          -4.13372368e-02, 3.12840864e-02, -3.12986299e-02,
          -4.34564613e-02, -4.68993448e-02, -1.01554230e-01,
          7.75362775e-02, 9.05241743e-02, 5.01180254e-02,
          -5.75021878e-02, 3.58458310e-02, 1.11381141e-02,
          7.76220635e-02, -7.15427846e-02, -1.30276615e-02,
          1.20557128e-02, 1.03339396e-01, -1.20370882e-02 ]
      - [ 7.24701434e-02, 3.93124446e-02, 1.66655526e-01,
          -3.23599316e-02, -4.95856069e-02, 2.12373096e-03,
          1.01895854e-01, 3.39572914e-02, -1.44177437e-01,
          1.78536505e-01, 8.16309303e-02, 1.92164571e-03,
          -1.30751595e-01, -2.89163943e-02, 8.76861438e-02,
          -1.50563684e-03, -1.17710464e-01, 1.94287866e-01,
          1.56947315e-01, 4.99964170e-02, -1.60760671e-01,
          -1.23862559e-02, 1.81834355e-01, 1.24710746e-01,
          -2.28360504e-01, -6.32979423e-02, 1.83888093e-01,
          3.31479348e-02, 9.37537253e-02, 1.98954180e-01,
          -2.11856198e-02, -1.23022601e-01, -1.48493834e-02,
          1.10133432e-01, -7.92131275e-02, -7.04519302e-02,
          1.28676474e-01, 5.94471656e-02, 3.30548622e-02,
          -1.34768277e-01, -1.30711541e-01, 2.23020129e-02,
          -4.51065898e-02, -5.55840097e-02, 2.01380312e-01,
          3.15144025e-02, -1.83402468e-02, -2.96978969e-02,
          1.11161731e-01, -4.70836321e-03, -2.01814584e-02,
          -1.32456452e-01, 5.20445853e-02, 4.54574116e-02,
          -9.88079980e-02, -1.34975901e-02, 4.22457382e-02,
          -1.08301982e-01, -1.80071622e-01, -1.16828578e-02,
          2.65993804e-01, 4.31272946e-02, -1.30661670e-02,
          2.93901972e-02, -8.27689022e-02, -1.06850803e-01,
          3.39301825e-02, -1.45394668e-01, -7.04235658e-02,
          8.63115638e-02, 3.20205018e-02, 1.43306419e-01, 2.11175089e-03,
          -1.73017215e-02, -1.01479620e-01, 7.45673552e-02,
          -4.14975621e-02, -7.15631805e-03, 7.66712893e-03,
          2.75231209e-02, -1.21363094e-02 ]
      - [ 2.78801806e-02, -4.35633771e-03, -9.34836864e-02,
          1.51815712e-01, 3.11828051e-02, 1.04290794e-03,
          -1.11651659e-01, 1.61026120e-01, -1.50813796e-02,
          1.39687628e-01, 4.93419059e-02, -1.46914423e-01,
          6.69726655e-02, 4.25941944e-02, 8.31045955e-02,
          -6.93689138e-02, 6.62139729e-02, 4.96676341e-02,
          1.12687923e-01, 4.04397100e-02, -1.07557520e-01,
          -1.16175897e-01, 1.14558570e-01, 1.28901437e-01,
          -1.01916887e-01, -1.68984681e-02, 1.62350908e-02,
          4.78866436e-02, 3.17864306e-02, -9.48138013e-02,
          1.65080041e-01, 3.06485873e-02, -3.34963581e-04,
          9.72070321e-02, -2.53516044e-02, -1.89136565e-02,
          1.76505789e-01, 8.36496577e-02, -1.12621404e-01,
          -2.19479948e-02, 2.10437179e-02, 4.58177701e-02,
          5.86572215e-02, 2.36227904e-02, -4.77986671e-02,
          1.35393143e-01, 5.92561886e-02, -7.48485774e-02,
          -1.57326132e-01, 1.27669439e-01, 1.37732387e-01,
          2.72807404e-02, 2.84320395e-02, -4.95654903e-02,
          8.01882967e-02, 1.05968148e-01, 6.89148679e-02,
          -1.55347183e-01, -3.62164341e-02, 1.12324327e-01,
          2.26759300e-01, 2.11731493e-02, -1.74392551e-01,
          9.93137062e-02, 7.86420479e-02, 3.19730379e-02,
          -8.96921754e-02, -3.64181101e-02, 7.43343979e-02,
          1.04484774e-01, 8.74438360e-02, -2.91539636e-02,
          8.09996799e-02, 4.62864563e-02, 4.05451935e-03,
          -8.35721791e-02, 6.91150650e-02, 9.58822444e-02,
          2.54515652e-02, 8.09403881e-02, -7.24858185e-03 ]
      - [ -1.24195047e-01, -8.62712935e-02, 2.54442364e-01,
          1.19216993e-01, -2.69916207e-01, -2.28351921e-01,
          9.92577001e-02, 1.68604627e-01, -1.75993040e-01,
          1.01114064e-01, -1.26442192e-02, 1.06456064e-01,
          -4.83787246e-02, -1.78843379e-01, -6.19027168e-02,
          3.60732600e-02, -1.25661448e-01, 1.66909307e-01,
          4.14771261e-03, -1.66324042e-02, -3.38708609e-03,
          -1.69712275e-01, 9.51365158e-02, 2.05828380e-02,
          -2.45615151e-02, -1.80484831e-01, 6.03712685e-02,
          1.11921746e-02, 6.03542440e-02, 2.90879518e-01, 1.35153487e-01,
          -3.12333882e-01, -1.66613340e-01, 1.88002929e-01,
          -1.07793324e-01, -1.25101179e-01, -2.01809891e-02,
          7.24425018e-02, 3.03600598e-02, -1.67241804e-02,
          -2.36006364e-01, -1.01358280e-01, 8.93816054e-02,
          -4.00472730e-02, 1.91603154e-01, -8.61785114e-02,
          5.45507222e-02, 3.17430124e-03, 2.46387403e-02,
          -3.30761969e-02, 5.27495220e-02, 5.36391065e-02,
          -2.51326915e-02, 7.18485191e-02, -9.79343876e-02,
          1.15110287e-02, 8.56357440e-03, -2.13490933e-01,
          -2.95911252e-01, -7.44123431e-03, 4.68196720e-01,
          -2.06406899e-02, -1.18374370e-01, -8.02875161e-02,
          -7.25346804e-02, -1.75478995e-01, 1.19895209e-02,
          -1.58363134e-01, -1.24500647e-01, 1.77212760e-01,
          9.87057313e-02, 1.79738566e-01, -1.24421328e-01,
          -1.96860861e-02, -9.50688422e-02, 1.17874935e-01,
          -6.97155073e-02, -3.63443308e-02, 4.73405197e-02,
          7.39808381e-02, 4.12373096e-02 ]
      - [ 1.51730292e-02, 7.50535503e-02, 3.14736634e-01, 5.57887033e-02,
          -3.07663381e-01, -4.51453589e-02, 1.69134393e-01,
          1.95155576e-01, -3.19561481e-01, 9.27327946e-02,
          2.39885468e-02, 7.48968422e-02, -7.37636238e-02,
          -2.63371438e-01, 3.35019566e-02, 1.09829366e-01,
          -7.59284869e-02, 6.64765835e-02, 2.78845765e-02,
          -1.17315613e-02, -7.90579990e-02, 1.34557992e-01,
          4.94608358e-02, -1.38250977e-01, 4.73751836e-02,
          -2.20640879e-02, 2.70793606e-02, -6.12282157e-02,
          -1.05763853e-01, 3.60316455e-01, 1.67560205e-01,
          -2.90122807e-01, -2.79640049e-01, 2.33140692e-01,
          -3.99168283e-02, -3.84558253e-02, 1.91102386e-01,
          -7.22231418e-02, 1.23851933e-02, 2.83760298e-02,
          -1.76658362e-01, -1.13686830e-01, 1.05962783e-01,
          -6.22327812e-02, 6.10101316e-03, 1.36925682e-01,
          9.25925076e-02, -7.05350712e-02, 5.35901859e-02,
          -1.09989285e-01, 1.67155892e-01, 3.79984342e-02,
          -9.06581804e-03, -1.26109526e-01, -1.18689932e-01,
          -2.23863840e-01, -2.87159253e-02, 1.40953402e-03,
          -5.13503514e-02, -1.24327883e-01, 3.61617655e-01,
          9.85369608e-02, 1.93444431e-01, 1.11482807e-01,
          -1.22061707e-01, -1.88180387e-01, 3.67791206e-02,
          1.11553231e-02, -4.45515662e-02, 1.14563391e-01,
          -2.19598301e-02, 5.63209914e-02, 1.39056399e-01,
          8.03848058e-02, -1.20417021e-01, -4.00080457e-02,
          5.61112585e-03, 2.33739302e-01, 3.76946628e-02,
          -2.63773296e-02, -5.25055677e-02 ]
      - [ -1.14316665e-01, -5.01542709e-05, -6.79218471e-02,
          9.23620071e-03, -1.18347123e-01, -1.84492469e-02,
          -1.47162721e-01, 1.15463853e-01, 1.00335509e-01,
          1.05392430e-02, 6.59330375e-03, -1.23069271e-01,
          4.49366048e-02, 3.65767395e-03, -1.46907475e-02,
          -2.01671317e-01, 7.25638643e-02, 1.88547164e-01,
          3.22794542e-02, 4.40778909e-03, -1.50410146e-01,
          3.98380049e-02, 1.37999818e-01, -1.34431580e-02,
          -1.98188439e-01, 5.05532958e-02, 1.51351377e-01,
          -1.05817609e-01, -4.94861379e-02, -9.55230445e-02,
          4.91787381e-02, -1.02728412e-01, -1.73155982e-02,
          -5.37159503e-04, 7.71224946e-02, 6.47209138e-02,
          -9.61274877e-02, -5.39492629e-02, -1.12530477e-01,
          5.09087071e-02, -5.05775679e-03, -1.15213223e-01,
          -4.23467830e-02, 5.08352220e-02, 1.58306211e-01,
          -1.17370456e-01, -3.03427279e-02, -7.12271184e-02,
          3.87181155e-02, 8.18735212e-02, -1.25061899e-01,
          -3.17116715e-02, 3.35741825e-02, 1.14200518e-01,
          -7.39398450e-02, -1.07702911e-01, 5.00851981e-02,
          6.21399209e-02, 2.80736480e-02, -1.09200783e-01,
          -1.63580831e-02, -1.64637864e-02, 6.37078062e-02,
          -6.13361150e-02, -4.05876450e-02, 4.99611273e-02,
          -7.82039762e-02, 6.81954622e-02, -1.17819734e-01,
          1.50791816e-02, -1.74747277e-02, 7.20482096e-02,
          -5.69896363e-02, 1.20740000e-03, 4.53281254e-02,
          -9.91107970e-02, 5.84602132e-02, -7.40403607e-02,
          2.91845370e-02, -3.12128337e-03, 1.90241896e-02 ]
      - [ 9.68204718e-03, 3.19813807e-05, 4.23528138e-04,
          -1.29469767e-01, -7.29594529e-02, 6.04124274e-04,
          -9.05419327e-03, -1.95553433e-02, 9.01811123e-02,
          4.89791706e-02, -2.26872135e-03, -5.20022400e-02,
          -1.05784416e-01, 4.65350635e-02, -2.31850403e-03,
          -1.28555313e-01, -8.99915695e-02, 2.59358525e-01,
          3.89966927e-02, -1.37639632e-02, -1.19631298e-01,
          4.24174825e-03, 2.14043081e-01, -1.56013230e-02,
          -2.70244122e-01, 1.11075556e-02, 1.81603134e-01,
          -6.09345362e-02, 2.05742428e-03, -1.17344428e-02,
          -4.92260791e-02, -8.99340659e-02, -4.68538934e-03,
          6.84282035e-02, 4.16934825e-02, 4.53956276e-02,
          -2.92825028e-02, -5.40227145e-02, -2.78091580e-02,
          -1.25038713e-01, -2.49288268e-02, -2.59240456e-02,
          -3.10691409e-02, -1.99187249e-02, 2.38551542e-01,
          -7.58731291e-02, -8.63844827e-02, -2.31997259e-02,
          3.81185152e-02, 8.27371329e-02, -1.39379978e-01,
          -8.42194781e-02, 3.94321904e-02, 7.73659647e-02,
          -1.55637786e-01, -1.08150549e-01, 1.50589153e-01,
          4.38965149e-02, -1.06711514e-01, -1.16270088e-01,
          6.79951236e-02, 5.29172160e-02, 8.85402635e-02,
          -2.17658766e-02, -1.36178091e-01, -6.36291783e-03,
          -3.67613174e-02, -5.54504246e-03, -1.29960790e-01,
          3.64614464e-02, -5.49248718e-02, 1.68683827e-01,
          -2.79757679e-02, -3.63769978e-02, -3.56881171e-02,
          -1.09064959e-01, 8.34408626e-02, -8.53042528e-02,
          3.29600871e-02, -4.99868952e-02, 2.07998175e-02 ]
      - [ -1.58787947e-02, -2.82533765e-02, -1.79538548e-01,
          4.10806797e-02, -5.55667386e-04, -3.54109652e-05,
          -1.60597101e-01, 9.21382830e-02, 1.49038360e-01,
          3.72105464e-02, -1.37921870e-02, -1.59157664e-01,
          5.37173636e-02, 8.85062367e-02, 9.34957340e-03,
          -1.54546022e-01, 5.71731441e-02, 1.18973747e-01,
          2.14688163e-02, -9.90295783e-03, -7.76986554e-02,
          -8.17918703e-02, 1.43462971e-01, 1.22863781e-02,
          -1.47736475e-01, 3.50510813e-02, 3.82999144e-02,
          -3.00223324e-02, -3.21110114e-02, -2.10432634e-01,
          1.07073776e-01, 3.21271345e-02, 5.45225386e-03, 6.15138598e-02,
          6.21263608e-02, 6.46294132e-02, 3.72090749e-02,
          -1.26324771e-02, -1.32546499e-01, -2.98386905e-02,
          7.98729509e-02, 2.40366464e-03, 5.11830039e-02, 3.84501927e-02,
          2.03692187e-02, 2.93627139e-02, -8.25771037e-03,
          -5.91752604e-02, -1.66263700e-01, 1.69438571e-01,
          1.44267892e-02, 3.98301147e-02, 2.05920860e-02,
          -8.11255351e-03, 5.35037601e-03, 9.10784025e-03,
          1.45631358e-01, -2.17687283e-02, 1.58355467e-03,
          6.72882795e-03, 6.64761066e-02, 3.09034381e-02,
          -6.23297356e-02, 4.39483151e-02, 9.13850870e-03,
          8.80090743e-02, -1.21727608e-01, 5.82637861e-02,
          2.74484442e-03, 5.74866496e-02, 6.99789217e-03, 1.75461397e-02,
          4.16759029e-02, 1.96238365e-02, 3.94789577e-02,
          -1.98719352e-01, 1.46364138e-01, 1.48183443e-02,
          4.11621146e-02, 8.47568084e-03, 1.80411153e-02 ]
      - [ -1.37417883e-01, -9.25079361e-02, -2.71724239e-02,
          -6.54165074e-02, -2.01696709e-01, -1.35721207e-01,
          -6.19454980e-02, 3.73288728e-02, 1.68303475e-01,
          -6.62269741e-02, -9.72673893e-02, -7.71290762e-03,
          -2.81728487e-02, -1.32991867e-02, -1.32735953e-01,
          -1.45927846e-01, -6.67560622e-02, 2.31834829e-01,
          -1.13367967e-01, -8.10412616e-02, 1.20337168e-02,
          -8.10319856e-02, 1.43408284e-01, -1.41069382e-01,
          -1.26179278e-01, -2.41833590e-02, 7.82038197e-02,
          -1.08670421e-01, -6.15698621e-02, -5.60741164e-02,
          3.73892561e-02, -1.70778424e-01, -8.83067772e-02,
          8.31668600e-02, 7.56341368e-02, 6.09957464e-02,
          -1.87212706e-01, -9.15698409e-02, -5.38225435e-02,
          -3.05611901e-02, -3.23980972e-02, -1.17348030e-01,
          5.97630069e-02, 9.45189595e-03, 2.11495921e-01,
          -1.83787301e-01, -6.18000105e-02, 3.01358919e-03,
          -5.37573546e-02, 9.41618830e-02, -1.30460441e-01,
          6.19258359e-02, -1.83941983e-02, 9.54234377e-02,
          -1.56732351e-01, -1.20826431e-01, 1.57744512e-01,
          4.73338403e-02, -1.22444354e-01, -1.44557372e-01,
          8.14961568e-02, 1.14348959e-02, 6.05224669e-02,
          -1.07043892e-01, -1.33322537e-01, 2.16885097e-03,
          -7.73048177e-02, 5.43160923e-02, -1.68849602e-01,
          6.02108501e-02, -4.81310152e-02, 1.74604729e-01,
          -1.12117968e-01, -4.09123972e-02, 5.23778843e-03,
          -1.53193787e-01, 1.12688161e-01, -1.25721633e-01,
          6.29375130e-02, -5.14007844e-02, 6.44589514e-02 ]
      - [ -5.43278381e-02, 4.10812645e-04, 2.30734993e-04,
          -1.01263791e-01, -2.10079163e-01, -2.61159223e-02,
          -2.44892389e-02, 4.66330759e-02, 8.95215273e-02,
          -7.14975148e-02, -7.42393732e-02, -2.74040792e-02,
          -4.00778130e-02, -5.47183268e-02, -7.53653720e-02,
          -1.02466792e-01, -3.45971137e-02, 1.66375995e-01,
          -9.73661095e-02, -7.57151544e-02, -2.95975022e-02,
          9.18188244e-02, 1.12114578e-01, -2.24558979e-01,
          -8.27512741e-02, 6.76048696e-02, 5.63426502e-02,
          -1.45560578e-01, -1.52221292e-01, -2.37796791e-02,
          5.07251360e-02, -1.46168441e-01, -1.43548846e-01,
          1.00891352e-01, 1.13348864e-01, 1.09808207e-01,
          -6.60044104e-02, -1.69962838e-01, -6.29240870e-02,
          -4.63886326e-03, 6.81343349e-03, -1.18339814e-01,
          6.49645105e-02, -1.94687978e-03, 9.94603261e-02,
          -5.45694046e-02, -4.06475738e-02, -3.74593399e-02,
          -3.70549671e-02, 5.03260568e-02, -6.56084344e-02,
          5.03336675e-02, -8.47632717e-03, -1.72518026e-02,
          -1.61332771e-01, -2.46508092e-01, 1.32797956e-01,
          1.68859825e-01, 2.20273994e-02, -2.04314232e-01,
          9.33443196e-03, 7.68098235e-02, 2.32326418e-01, 2.77709542e-03,
          -1.54933691e-01, -4.78595000e-04, -6.19155727e-02,
          1.49461374e-01, -1.17381766e-01, 1.98879000e-02,
          -1.15247667e-01, 9.78337526e-02, 3.81552279e-02,
          1.54317021e-02, -6.40788302e-03, -2.38245904e-01,
          1.52510643e-01, 2.63513923e-02, 5.47524355e-02,
          -1.06707275e-01, 1.03915706e-02 ]
      - [ 2.30303481e-01, 1.44854159e-04, 1.28417224e-01,
          -2.21904993e-01, 1.07328802e-01, 3.56539227e-02,
          2.62481600e-01, -2.48058736e-01, -4.62459773e-02,
          5.75538799e-02, -1.59848314e-02, 1.49318010e-01,
          -2.51633108e-01, 6.66356608e-02, 2.39677932e-02,
          1.76216751e-01, -2.78645545e-01, 5.51073104e-02,
          8.94563273e-04, -3.00342180e-02, 9.39021558e-02,
          -6.82267249e-02, 7.85889626e-02, 6.37411373e-04,
          -5.41707203e-02, -7.75337070e-02, 2.22929288e-03,
          1.02759868e-01, 9.63243246e-02, 1.61122948e-01,
          -1.70262158e-01, 5.11368513e-02, 2.51654871e-02,
          1.09111644e-01, -7.91863725e-02, -5.00127785e-02,
          1.34537756e-01, 1.61244683e-02, 1.67716235e-01,
          -2.93283015e-01, -2.98693217e-02, 1.75740018e-01,
          3.05639431e-02, -1.27078578e-01, 7.91144148e-02,
          1.00888923e-01, -7.93993548e-02, 9.73143131e-02,
          -1.26026645e-02, -2.32823100e-02, 1.50283510e-02,
          -7.34044090e-02, -8.52580357e-04, -9.25685242e-02,
          -1.06806248e-01, 3.17149609e-02, 1.43696606e-01,
          -4.75266911e-02, -2.21381679e-01, 2.17051022e-02,
          1.38183638e-01, 1.14562705e-01, 2.00516097e-02, 8.09763744e-02,
          -1.38793454e-01, -1.04019411e-01, 8.90121534e-02,
          -1.37022689e-01, 1.62874553e-02, 2.92398930e-02,
          -5.39024323e-02, 1.30973905e-01, 6.29912242e-02,
          -5.97384572e-02, -1.41632915e-01, 1.41102578e-02,
          2.18654294e-02, 4.49414132e-03, -2.82097585e-03,
          -7.30976388e-02, -2.92180921e-03 ]
      - [ 1.06835172e-01, -3.34781148e-02, -1.38415769e-01,
          3.86032686e-02, 1.29452974e-01, 2.02413313e-02,
          -2.88160909e-02, -1.75858550e-02, 6.65798038e-02,
          3.25773135e-02, -2.36183852e-02, -5.35963476e-02,
          1.43519165e-02, 1.01024635e-01, 2.72479970e-02, 3.82932834e-02,
          -1.19202929e-02, -6.60842955e-02, -1.00076599e-02,
          -1.65995676e-02, 7.31443539e-02, -1.40875265e-01,
          1.85538363e-02, 2.93620024e-02, 4.25462574e-02,
          -1.39777102e-02, -1.20940574e-01, 8.07045698e-02,
          1.62939597e-02, -1.44738093e-01, 7.30155110e-02,
          1.51071981e-01, 2.55081598e-02, 7.35998824e-02,
          -1.10532576e-02, 5.55202784e-03, 1.49846464e-01,
          4.43193875e-02, -3.35986875e-02, -9.13845673e-02,
          1.00359857e-01, 1.29519880e-01, 1.07304521e-01,
          -1.02533428e-02, -1.49868309e-01, 1.63888618e-01,
          2.35583410e-02, 8.07438977e-03, -2.39901632e-01,
          1.11089684e-01, 1.54617593e-01, 8.21376592e-02,
          -1.24716694e-02, -1.35182232e-01, 8.76407325e-02,
          1.29219964e-01, 1.17781997e-01, -9.41542760e-02,
          -2.89850775e-02, 1.28043145e-01, 9.68832076e-02,
          5.47790676e-02, -1.44018918e-01, 1.19594984e-01,
          5.54688983e-02, 4.95278984e-02, -5.84970340e-02,
          -5.82314981e-03, 1.32790446e-01, 5.16512617e-02,
          2.75175888e-02, -5.83857149e-02, 1.12119332e-01,
          2.19636280e-02, -2.97774421e-03, -1.26891449e-01,
          1.09444104e-01, 9.89885405e-02, 1.67684406e-02, 1.34911649e-02,
          4.97106754e-04 ]
      - [ 5.55331036e-02, -1.24513566e-01, 1.06379747e-01,
          -1.07567169e-01, -2.25734487e-02, -1.43994495e-01,
          2.26348519e-01, -1.92779824e-01, 1.55055765e-02,
          -1.11402035e-01, -1.44910440e-01, 2.48686418e-01,
          -1.32549495e-01, -2.56154519e-02, -1.47885144e-01,
          2.27961943e-01, -2.42684588e-01, -8.46070275e-02,
          -2.20672473e-01, -1.18451133e-01, 3.32843512e-01,
          -1.93023786e-01, -9.73193869e-02, -1.61737591e-01,
          2.47233689e-01, -1.38999030e-01, -2.13264287e-01,
          7.63677433e-02, 2.12327801e-02, 1.25549793e-01,
          -5.31598032e-02, -1.38022555e-02, -8.25081319e-02,
          1.13166399e-01, -6.04646169e-02, -5.40773384e-02,
          -4.98369783e-02, -9.78529174e-03, 1.64385766e-01,
          -1.48338914e-01, -3.29968445e-02, 8.44569355e-02,
          1.69653267e-01, -9.42818522e-02, -4.83448468e-02,
          -5.03368559e-04, -1.93765927e-02, 1.54001892e-01,
          -1.53924122e-01, -4.55070697e-02, 8.75256881e-02,
          1.50178581e-01, -9.54571217e-02, -1.11860089e-01,
          -5.54841645e-02, 6.39609545e-02, 1.07064761e-01,
          -6.70482293e-02, -2.24045679e-01, 3.51457745e-02,
          1.44220844e-01, 5.00625446e-02, -5.25821857e-02,
          -1.50803970e-02, -9.41590443e-02, -1.02252886e-01,
          6.04906715e-02, -7.03899935e-02, 2.05652714e-02,
          4.93675284e-02, -2.80516334e-02, 8.35425034e-02,
          -3.10656708e-02, -5.76555729e-02, -8.83655995e-02,
          2.27079284e-03, 2.87380386e-02, -1.34974532e-02,
          2.33470853e-02, -6.26722425e-02, 4.67854738e-02 ]
      - [ 1.26254767e-01, 5.15024061e-04, 1.09393567e-01,
          -1.21927045e-01, -3.19724716e-02, 2.03060592e-03,
          2.10591748e-01, -1.36235356e-01, -6.65705502e-02,
          -9.25437286e-02, -8.91021118e-02, 1.68791473e-01,
          -1.14594109e-01, -6.37414530e-02, -5.60896322e-02,
          2.15726554e-01, -1.53195038e-01, -1.27053395e-01,
          -1.54835537e-01, -8.71506333e-02, 2.10408419e-01,
          3.30775268e-02, -1.03204891e-01, -2.15863973e-01,
          2.30978414e-01, -9.74761788e-03, -1.83638483e-01,
          1.61199663e-02, -8.14476013e-02, 1.28357768e-01,
          -2.53887251e-02, 1.05128549e-02, -1.23974301e-01,
          1.07553944e-01, -4.07056464e-03, 1.21144466e-02,
          8.46772343e-02, -9.30367559e-02, 1.14294015e-01,
          -8.67151693e-02, 1.53328320e-02, 6.00040443e-02,
          1.36749521e-01, -8.37503597e-02, -1.49218649e-01,
          1.30906731e-01, 5.77633176e-03, 7.48485327e-02,
          -1.01404473e-01, -7.83508569e-02, 1.31593198e-01,
          1.04187183e-01, -6.29168451e-02, -2.01762274e-01,
          -5.17859980e-02, -8.76004919e-02, 5.99450953e-02,
          7.87080601e-02, -2.18204372e-02, -4.05742191e-02,
          3.61582227e-02, 1.07682072e-01, 1.43303230e-01, 1.01503097e-01,
          -9.86156687e-02, -8.07930157e-02, 6.01982400e-02,
          4.84633818e-02, 6.52058050e-02, -3.20097199e-03,
          -9.37906057e-02, -1.23231970e-02, 1.31930083e-01,
          1.43784629e-02, -7.96179473e-02, -9.26708132e-02,
          6.73323497e-02, 1.46848038e-01, 1.10004991e-02,
          -1.07825108e-01, -1.95827428e-02 ]
      - [ -2.08452512e-02, -2.51781121e-02, -1.60149127e-01,
          1.26267344e-01, 5.00480011e-02, -4.50036663e-04,
          -1.36718526e-01, 9.55841467e-02, 7.02262074e-02,
          -7.99226749e-04, -1.07084885e-02, -1.05684586e-01,
          1.21110603e-01, 4.65660766e-02, 9.93072521e-03,
          -4.85462956e-02, 1.13247015e-01, -7.37402886e-02,
          -7.89981708e-03, 7.17705698e-04, 1.36941783e-02,
          -7.57635012e-02, -2.05434822e-02, 2.17472576e-02,
          5.56718260e-02, 2.35136561e-02, -9.17046964e-02,
          1.54814897e-02, -3.00159622e-02, -1.79233849e-01,
          1.29436702e-01, 9.09069702e-02, 8.10033176e-03, 7.36637088e-03,
          2.64322348e-02, 2.60962117e-02, 5.34153320e-02, 2.61767227e-02,
          -9.87505913e-02, 6.00532480e-02, 8.83859470e-02,
          2.00990643e-02, 6.70949966e-02, 4.80336137e-02,
          -1.47120729e-01, 7.87048787e-02, 5.24905361e-02,
          -3.66162360e-02, -1.74442843e-01, 9.35467556e-02,
          1.09400831e-01, 9.38066840e-02, -8.98212288e-03,
          -6.08185381e-02, 1.12582073e-01, 8.30307677e-02,
          2.53449623e-02, -4.97915857e-02, 7.53344744e-02,
          8.65373909e-02, 1.20846238e-02, -9.14297160e-03,
          -1.16832897e-01, 5.42085953e-02, 1.02474190e-01,
          8.27685520e-02, -8.29161555e-02, 5.57176583e-02,
          9.24744159e-02, 2.59256754e-02, 4.42799814e-02,
          -1.01233363e-01, 5.64872175e-02, 4.26726826e-02,
          5.98738641e-02, -1.01378858e-01, 7.25144595e-02,
          7.22884312e-02, 1.38163706e-02, 4.21749726e-02, 1.65416708e-03 ]
      - [ -2.47990683e-01, -1.52881399e-01, -4.58039008e-02,
          1.72658041e-01, -1.74987063e-01, -2.25505084e-01,
          -8.26951265e-02, 1.04063034e-01, 8.24851766e-02,
          -2.15596423e-01, -1.55755028e-01, 1.00011244e-01,
          1.82825193e-01, -1.22866698e-01, -2.14236930e-01,
          3.76801975e-02, 8.48480314e-02, -1.79381654e-01,
          -2.71823555e-01, -1.04027249e-01, 2.79264659e-01,
          -1.43052176e-01, -2.27198079e-01, -1.99202746e-01,
          3.77514303e-01, -6.40315935e-02, -2.64571309e-01,
          -4.73913662e-02, -1.06166996e-01, -6.71849474e-02,
          1.68495312e-01, -8.71091411e-02, -1.35713324e-01,
          -1.09853493e-02, 3.45381163e-02, 2.33019958e-03,
          -2.45762259e-01, -3.41295749e-02, -2.86121760e-02,
          2.20627412e-01, 5.33274433e-04, -1.37636021e-01,
          1.66085929e-01, 5.88014834e-02, -1.67865068e-01,
          -1.39085397e-01, 8.52139071e-02, 5.52800857e-02,
          -1.71449870e-01, -2.38477197e-02, 8.67007300e-02,
          2.84900039e-01, -1.15882494e-01, -1.01179397e-02,
          7.85530731e-02, 3.49028260e-02, -6.59345910e-02,
          -1.69872399e-02, 2.91100703e-02, 1.33070489e-02,
          -1.28061492e-02, -9.58468243e-02, -9.19984505e-02,
          -1.29630625e-01, 7.50305057e-02, 1.73788574e-02,
          -4.79918718e-02, 1.01746544e-01, 2.86358246e-03,
          2.04048734e-02, 3.95822488e-02, -7.73166642e-02,
          -1.24548003e-01, 1.12907635e-02, 8.60317200e-02,
          -1.65815428e-02, 5.22963051e-03, -2.27191411e-02,
          3.25006954e-02, 2.34743841e-02, 6.13800026e-02 ]
      - [ -7.73817226e-02, 4.29333188e-04, -3.59558937e-04,
          7.42565319e-02, -1.35710657e-01, -3.11993752e-02,
          -1.50065534e-02, 8.30764771e-02, -2.96904426e-02,
          -1.55509412e-01, -8.27861577e-02, 4.52228189e-02,
          1.10174857e-01, -1.32419005e-01, -8.40190202e-02,
          7.15061575e-02, 9.31432992e-02, -1.91083506e-01,
          -1.70741647e-01, -6.74726740e-02, 1.42845124e-01,
          1.00262821e-01, -1.86929628e-01, -2.37467796e-01,
          3.04243594e-01, 6.19960874e-02, -2.03598842e-01,
          -7.86545947e-02, -1.79683000e-01, -1.02133863e-02,
          1.31771117e-01, -3.64078283e-02, -1.59632608e-01,
          1.57218799e-02, 6.97750598e-02, 6.01831600e-02,
          -3.32194418e-02, -1.17207982e-01, -3.18272971e-02,
          1.79815933e-01, 4.48290966e-02, -9.89231095e-02,
          1.21401489e-01, 2.72431187e-02, -2.37913728e-01,
          4.90564443e-02, 8.07798579e-02, -9.10550077e-03,
          -9.94566604e-02, -6.41468614e-02, 1.30308896e-01,
          1.83146700e-01, -6.82400912e-02, -1.34607956e-01,
          4.33115363e-02, -1.25859678e-01, -6.89452738e-02,
          1.30926296e-01, 1.83614120e-01, -6.48723617e-02,
          -8.98781791e-02, 1.07517950e-02, 1.38448864e-01,
          3.54606360e-02, 2.19145883e-02, 8.86896346e-03,
          -1.73976999e-02, 1.81646034e-01, 5.62807098e-02,
          -3.09265330e-02, -5.23809791e-02, -1.36317894e-01,
          8.57106447e-02, 7.17858747e-02, 4.54231761e-02,
          -1.14917994e-01, 5.33845350e-02, 1.56924650e-01,
          1.47158094e-02, -4.97846119e-02, -1.87490229e-02 ]
      - [ -6.58565611e-02, -2.66951490e-02, 1.64126381e-01,
          -8.01967978e-02, -1.19509071e-01, -8.07572901e-02,
          1.24404505e-01, -7.03086033e-02, -4.94832918e-02,
          -7.67926648e-02, -4.40510437e-02, 1.55242831e-01,
          -7.07165822e-02, -9.67992693e-02, -8.84050876e-02,
          6.83342516e-02, -9.71550792e-02, 1.85284130e-02,
          -8.90463665e-02, -3.82976234e-02, 8.51924270e-02,
          3.39023881e-02, -5.87039366e-02, -9.63151455e-02,
          7.32517838e-02, -4.95960750e-02, 8.09087697e-03,
          -3.45399603e-02, -4.40413179e-03, 1.77947029e-01,
          -8.52716416e-02, -1.33925602e-01, -5.80431670e-02,
          -1.22673223e-02, -1.73665471e-02, -2.85942592e-02,
          -1.48812234e-01, -4.18240130e-02, 1.01070151e-01,
          1.17728971e-02, -9.94985849e-02, -7.22694471e-02,
          -1.58245247e-02, -3.29870582e-02, 1.05444632e-01,
          -1.38893425e-01, -2.84958333e-02, 6.12207465e-02,
          1.34969473e-01, -1.14105612e-01, -9.21493024e-02,
          -3.13587626e-03, -3.16294134e-02, 6.49512112e-02,
          -9.86735970e-02, -8.10727626e-02, -5.23473918e-02,
          5.00384048e-02, -7.44796172e-02, -9.28103253e-02,
          -1.82452109e-02, -2.42277738e-02, 9.86228213e-02,
          -1.07856795e-01, -8.85423124e-02, -8.70920867e-02,
          7.62266070e-02, -2.61778738e-02, -1.03270210e-01,
          -2.18883716e-02, -3.56793292e-02, 8.63189176e-02,
          -1.08595245e-01, -4.40618023e-02, -3.65287922e-02,
          1.08370036e-01, -7.99046755e-02, -8.97215828e-02,
          -3.87130328e-03, -3.91098447e-02, 2.02536676e-02 ]
      - [ -1.58851556e-02, 2.62679327e-02, 1.65585026e-01,
          -9.47427303e-02, -1.17498890e-01, -1.46378623e-02,
          1.34243026e-01, -5.87149747e-02, -8.70593861e-02,
          -7.44551122e-02, -2.89932955e-02, 1.31279111e-01,
          -7.20172524e-02, -1.12301499e-01, -5.09523228e-02,
          8.48630816e-02, -7.21231997e-02, -1.61804259e-02,
          -7.44797364e-02, -3.34064662e-02, 5.49776517e-02,
          1.26954839e-01, -6.92297891e-02, -1.37467563e-01,
          8.96627754e-02, 5.67506626e-03, -3.64542240e-03,
          -5.41006029e-02, -5.59173897e-02, 1.80568010e-01,
          -7.01802224e-02, -1.11716487e-01, -8.56624618e-02,
          -1.34267284e-05, 6.42006192e-03, 2.12440500e-03,
          -7.13680312e-02, -8.38342384e-02, 8.68021399e-02,
          2.48922613e-02, -6.97802454e-02, -6.86919466e-02,
          -1.06746666e-02, -3.65277790e-02, 3.70999239e-02,
          -5.77135831e-02, -1.52236111e-02, 3.34909000e-02,
          1.32406384e-01, -1.27877250e-01, -5.01503646e-02,
          -8.43111146e-03, -2.37383638e-02, -2.21491931e-03,
          -9.55585986e-02, -1.46868154e-01, -5.96092939e-02,
          1.14917375e-01, 1.09144468e-02, -1.20973565e-01,
          -5.60180992e-02, 1.46682058e-02, 1.87948793e-01,
          -3.89409550e-02, -9.54549387e-02, -8.13744217e-02,
          7.73984194e-02, 3.02656870e-02, -6.84681833e-02,
          -4.18054201e-02, -7.11888000e-02, 3.87878381e-02,
          -1.69732962e-02, -9.41584259e-03, -3.99817936e-02,
          4.92981523e-02, -4.92110848e-02, 1.14678720e-03,
          -7.17640761e-03, -6.77531436e-02, -1.07885404e-02 ]
      - [ 1.80009648e-01, 2.05128029e-01, 6.05022460e-02,
          -8.54594857e-02, -3.16405073e-02, 2.40301818e-01,
          8.11468512e-02, 2.34537292e-02, -1.68299362e-01,
          -1.61050428e-02, 4.61877547e-02, -4.51786742e-02,
          -2.87845191e-02, -9.48476121e-02, 1.21922716e-01,
          8.95249471e-02, 6.88218251e-02, -1.34084627e-01,
          2.92324238e-02, 7.02149514e-03, -9.37447697e-02,
          3.87280822e-01, -6.20642602e-02, -1.98332265e-01,
          9.06849504e-02, 2.06834704e-01, -4.47313376e-02,
          -9.05316323e-02, -2.09617049e-01, 6.97973743e-02,
          3.26088704e-02, 4.51814495e-02, -1.30914554e-01,
          4.54332195e-02, 9.03373063e-02, 1.14612252e-01, 2.63419002e-01,
          -1.83668122e-01, -2.40251794e-02, 5.69290295e-02,
          8.69788751e-02, -9.58977826e-03, 1.55440988e-02,
          -2.52826121e-02, -2.41079614e-01, 2.81813949e-01,
          4.41484489e-02, -9.16796923e-02, 3.45503837e-02,
          -9.36129093e-02, 1.39046833e-01, -2.24400405e-02,
          2.13619322e-02, -2.49790296e-01, -2.02438403e-02,
          -2.92836696e-01, -4.67605256e-02, 2.78807878e-01,
          3.20274353e-01, -1.44680247e-01, -1.58700988e-01,
          1.49107471e-01, 3.93756926e-01, 2.42584825e-01,
          -5.73919713e-02, -5.87371690e-03, 3.00971419e-02,
          2.19363853e-01, 1.06265821e-01, -8.77623335e-02,
          -1.55355796e-01, -1.63340673e-01, 3.34088624e-01,
          1.25335068e-01, -2.61065681e-02, -2.02637210e-01,
          9.74388868e-02, 3.37323248e-01, -1.46431318e-02,
          -1.28752798e-01, -1.18694693e-01 ]
   decision_functions:
      -
         sv_count: 1
         rho: 0.
         alpha: [ 1. ]
         index: [ 0 ]
      -
         sv_count: 1
         rho: 0.
         alpha: [ 1. ]
         index: [ 1 ]
      -
         sv_count: 1
         rho: 0.
         alpha: [ 1. ]
         index: [ 2 ]
      -
         sv_count: 1
         rho: 0.
         alpha: [ 1. ]
         index: [ 3 ]
      -
         sv_count: 1
         rho: 0.
         alpha: [ 1. ]
         index: [ 4 ]
      -
         sv_count: 1
         rho: 0.
         alpha: [ 1. ]
         index: [ 5 ]
      -
         sv_count: 1
         rho: 0.
         alpha: [ 1. ]
         index: [ 6 ]
      -
         sv_count: 1
         rho: 0.
         alpha: [ 1. ]
         index: [ 7 ]
      -
         sv_count: 1
         rho: 0.
         alpha: [ 1. ]
         index: [ 8 ]
      -
         sv_count: 1
         rho: 0.
         alpha: [ 1. ]
         index: [ 9 ]
      -
         sv_count: 1
         rho: 0.
         alpha: [ 1. ]
         index: [ 10 ]
      -
         sv_count: 1
         rho: 0.
         alpha: [ 1. ]
         index: [ 11 ]
      -
         sv_count: 1
         rho: 0.
         alpha: [ 1. ]
         index: [ 12 ]
      -
         sv_count: 1
         rho: 0.
         alpha: [ 1. ]
         index: [ 13 ]
      -
         sv_count: 1
         rho: 0.
         alpha: [ 1. ]
         index: [ 14 ]
      -
         sv_count: 1
         rho: 0.
         alpha: [ 1. ]
         index: [ 15 ]
      -
         sv_count: 1
         rho: 0.
         alpha: [ 1. ]
         index: [ 16 ]
      -
         sv_count: 1
         rho: 0.
         alpha: [ 1. ]
         index: [ 17 ]
      -
         sv_count: 1
         rho: 0.
         alpha: [ 1. ]
         index: [ 18 ]
      -
         sv_count: 1
         rho: 0.
         alpha: [ 1. ]
         index: [ 19 ]
      -
         sv_count: 1
         rho: 0.
         alpha: [ 1. ]
         index: [ 20 ]
      -
         sv_count: 1
         rho: 0.
         alpha: [ 1. ]
         index: [ 21 ]
      -
         sv_count: 1
         rho: 0.
         alpha: [ 1. ]
         index: [ 22 ]
      -
         sv_count: 1
         rho: 0.
         alpha: [ 1. ]
         index: [ 23 ]
      -
         sv_count: 1
         rho: 0.
         alpha: [ 1. ]
         index: [ 24 ]
      -
         sv_count: 1
         rho: 0.
         alpha: [ 1. ]
         index: [ 25 ]
      -
         sv_count: 1
         rho: 0.
         alpha: [ 1. ]
         index: [ 26 ]
      -
         sv_count: 1
         rho: 0.
         alpha: [ 1. ]
         index: [ 27 ]
      -
         sv_count: 1
         rho: 0.
         alpha: [ 1. ]
         index: [ 28 ]
      -
         sv_count: 1
         rho: 0.
         alpha: [ 1. ]
         index: [ 29 ]
      -
         sv_count: 1
         rho: 0.
         alpha: [ 1. ]
         index: [ 30 ]
      -
         sv_count: 1
         rho: 0.
         alpha: [ 1. ]
         index: [ 31 ]
      -
         sv_count: 1
         rho: 0.
         alpha: [ 1. ]
         index: [ 32 ]
      -
         sv_count: 1
         rho: 0.
         alpha: [ 1. ]
         index: [ 33 ]
      -
         sv_count: 1
         rho: 0.
         alpha: [ 1. ]
         index: [ 34 ]
      -
         sv_count: 1
         rho: 0.
         alpha: [ 1. ]
         index: [ 35 ]
      -
         sv_count: 1
         rho: 0.
         alpha: [ 1. ]
         index: [ 36 ]
      -
         sv_count: 1
         rho: 0.
         alpha: [ 1. ]
         index: [ 37 ]
      -
         sv_count: 1
         rho: 0.
         alpha: [ 1. ]
         index: [ 38 ]
      -
         sv_count: 1
         rho: 0.
         alpha: [ 1. ]
         index: [ 39 ]
      -
         sv_count: 1
         rho: 0.
         alpha: [ 1. ]
         index: [ 40 ]
      -
         sv_count: 1
         rho: 0.
         alpha: [ 1. ]
         index: [ 41 ]
      -
         sv_count: 1
         rho: 0.
         alpha: [ 1. ]
         index: [ 42 ]
      -
         sv_count: 1
         rho: 0.
         alpha: [ 1. ]
         index: [ 43 ]
      -
         sv_count: 1
         rho: 0.
         alpha: [ 1. ]
         index: [ 44 ]
