%YAML:1.0
my_svm: !!opencv-ml-svm
   svm_type: C_SVC
   kernel: { type:LINEAR }
   C: 1.
   term_criteria: { epsilon:2.2204460492503131e-16, iterations:100 }
   var_all: 81
   var_count: 81
   class_count: 10
   class_labels: !!opencv-matrix
      rows: 1
      cols: 10
      dt: i
      data: [ 0, 1, 2, 3, 4, 5, 6, 7, 8, 9 ]
   sv_total: 45
   support_vectors:
      - [ -5.30384444e-02, -7.46430382e-02, -1.60974234e-01,
          -1.85133982e-02, 2.31751293e-01, -9.39334370e-03,
          -2.08357982e-02, -2.44816035e-01, 2.14117005e-01,
          5.93585894e-02, 2.53849607e-02, -8.44467152e-03,
          6.96416497e-02, -9.00220498e-02, 2.55497098e-02,
          8.64523202e-02, -8.75958651e-02, 7.49027207e-02,
          1.52595252e-01, 4.95375991e-02, 3.55205499e-02, 1.28467497e-03,
          -1.11280128e-01, 1.32025644e-01, 8.66034180e-02,
          -8.39312524e-02, -8.64393637e-02, 2.99420767e-02,
          -1.15753956e-01, -2.35968769e-01, -1.50542170e-01,
          3.09768885e-01, 5.08596469e-03, -5.19357063e-03,
          -2.64122132e-02, -3.93858738e-02, 7.88832158e-02,
          -1.57996044e-02, -2.96590757e-02, 2.81042652e-03,
          -4.36837832e-03, 1.43025517e-02, 1.11556984e-03,
          -1.83581654e-03, -3.79277542e-02, 8.47719014e-02,
          -1.83859421e-03, 5.40818553e-04, 3.82679999e-02,
          -1.57237779e-02, 1.96062718e-02, 3.47141555e-04,
          9.96318413e-04, -2.94845980e-02, 2.16703296e-01,
          8.07591379e-02, 6.43343851e-03, -1.87352411e-02,
          2.23288864e-01, 9.99779925e-02, -1.48292929e-02,
          -3.24125029e-03, -3.47785085e-01, 1.44969106e-01,
          6.84111044e-02, 5.97855188e-02, 5.23710437e-02,
          -6.14715107e-02, 1.09548368e-01, 2.85828896e-02,
          5.95138371e-02, -7.38835037e-02, -1.35424826e-02,
          -1.40841929e-02, 3.83970477e-02, 1.68128535e-01,
          -1.01520188e-01, 5.37419599e-03, 2.83745788e-02,
          6.09779954e-02, 2.55619418e-02 ]
      - [ -3.80260982e-02, -1.05057456e-01, -9.85430852e-02,
          -6.72610775e-02, 1.39901951e-01, -4.84660687e-03,
          -1.15929723e-01, -1.05706975e-01, 1.36299804e-01,
          3.52184586e-02, -1.19859884e-02, -1.11308377e-02,
          -2.67099477e-02, -3.72723863e-03, -6.84672594e-02,
          -2.29587555e-02, 1.05538219e-02, 3.57300825e-02,
          8.33956599e-02, 2.23352294e-02, 3.06230150e-02,
          -4.67813574e-02, -2.03103945e-02, 1.55693572e-03,
          2.87558157e-02, 2.80396454e-03, -1.15306489e-01,
          8.41221213e-02, -2.73106433e-02, -1.49491131e-02,
          -1.81055054e-01, 2.23461449e-01, 9.07824561e-03,
          -3.03410809e-03, -5.67462668e-02, -8.96886364e-02,
          7.87554681e-02, -3.50279530e-04, -1.42984290e-03,
          -1.89245954e-01, 1.32831737e-01, 5.60823455e-03,
          -1.09343731e-04, -2.49808636e-02, -5.26174754e-02,
          4.19771969e-02, -1.13535032e-03, -9.51730763e-04,
          -1.55220762e-01, 6.74386322e-02, 6.25085505e-03,
          -3.79431411e-04, -1.52653025e-04, -1.83525421e-02,
          2.16643855e-01, 6.41243830e-02, -1.51292905e-01,
          -1.38239294e-01, 1.92449436e-01, 7.79294372e-02,
          -8.65063220e-02, -8.88502896e-02, -1.66118100e-01,
          1.50015503e-01, 6.65036440e-02, -7.64584467e-02,
          -1.61230281e-01, 1.72247216e-01, 7.18136281e-02,
          -1.17220849e-01, 1.70287862e-02, 1.90028753e-02,
          2.14798357e-02, 1.02202117e-03, -8.99873152e-02,
          -8.56365561e-02, 1.00381151e-01, -1.62105728e-02,
          -1.35865748e-01, 4.78370152e-02, 1.59879416e-01 ]
      - [ -7.03953058e-02, -1.56857148e-02, -1.31250098e-01,
          -9.58385170e-02, 1.83397263e-01, -4.34718840e-03,
          -8.90697986e-02, -1.12993971e-01, 1.50614545e-01,
          1.62658151e-02, -1.95014607e-02, -3.11687272e-02,
          -4.26442064e-02, 1.72495961e-01, -3.84649783e-02,
          -4.80473004e-02, -2.15345938e-02, -1.61408316e-02,
          1.04336269e-01, -1.72349755e-02, 2.34923307e-02,
          -8.78307596e-02, 2.50103120e-02, -1.74832984e-03,
          -2.03163475e-02, -1.22532239e-02, -1.31151676e-01,
          -6.06551431e-02, -4.50355224e-02, -1.60794750e-01,
          -1.67587653e-01, 2.55358964e-01, 9.04535409e-03,
          -9.66098234e-02, -3.86921503e-02, 8.55935588e-02,
          -8.58362615e-02, -8.38423222e-02, -6.05765693e-02,
          -1.05738208e-01, 2.39356056e-01, -2.55297832e-02,
          -7.29232207e-02, -4.81116734e-02, 4.21329075e-03,
          -2.64064949e-02, -6.50895014e-02, -1.52632752e-02,
          -5.85221797e-02, 5.20210825e-02, -9.57414880e-02,
          -4.28559333e-02, -3.39454450e-02, 3.34542580e-02,
          1.69635296e-01, -4.74495813e-02, -1.85017556e-01,
          9.17894358e-04, 2.11014688e-01, -1.54112801e-02,
          -1.83401078e-01, -5.02893031e-02, -5.07541187e-02,
          2.83340346e-02, -2.51442902e-02, -9.37884524e-02,
          -4.28390466e-02, 1.92619175e-01, 1.10963890e-02,
          -1.06412612e-01, -6.50705770e-02, 3.93109582e-02,
          -8.90708715e-02, -5.82143702e-02, -1.52712306e-02,
          -2.49384604e-02, 1.35217952e-02, -8.85287225e-02,
          -3.01572867e-02, -4.87521924e-02, 1.07893303e-01 ]
      - [ 2.68558692e-02, 2.34960302e-04, 6.35274919e-03,
          -2.13996917e-02, 2.04011753e-01, -3.99120006e-04,
          9.46673844e-03, 5.53653799e-02, -7.38272071e-02,
          1.10764824e-01, 4.51561734e-02, 3.34803350e-02,
          -3.30025814e-02, 1.22235149e-01, 2.85082124e-02,
          7.45040625e-02, 6.07708059e-02, -1.32218584e-01,
          1.80265874e-01, 4.79977764e-02, 2.89343987e-02,
          -9.23108086e-02, -3.16773504e-02, 1.13082446e-01,
          6.70353696e-02, -6.28602877e-03, -1.85208961e-01,
          1.34274110e-01, -1.19270505e-02, -1.25891224e-01,
          -1.26562357e-01, 2.59704173e-01, 4.53770990e-05,
          -6.64198846e-02, -2.78024767e-02, -1.19542517e-01,
          1.00759961e-01, -1.02732768e-02, -9.07400176e-02,
          -1.21698126e-01, 1.86689168e-01, 4.41386830e-03,
          -6.31662160e-02, -2.22473331e-02, -1.10842764e-01,
          8.80819112e-02, -1.44215235e-02, -6.00512959e-02,
          -4.93488908e-02, 4.49356670e-03, 6.48434227e-03,
          -5.87681346e-02, -1.33893620e-02, -1.93186309e-02,
          2.42726907e-01, 5.84602170e-02, -1.66779965e-01,
          -1.50163174e-01, 1.93910077e-01, 7.75327757e-02,
          -9.16916206e-02, -2.89113689e-02, -1.93984464e-01,
          8.31286237e-02, 4.94477823e-02, -7.09972605e-02,
          -3.89468446e-02, 1.13810338e-01, 8.28336701e-02,
          -6.86532781e-02, 2.26772353e-02, -8.62844810e-02,
          -5.32467403e-02, -2.26115845e-02, -2.55791619e-02,
          1.26204640e-01, -8.98257643e-02, -7.53227109e-03,
          -4.86181229e-02, 3.43944542e-02, 7.60579854e-02 ]
      - [ -1.62699923e-01, -3.10276495e-03, -9.57653522e-02,
          8.88010263e-02, 2.27904804e-02, -1.04016662e-02,
          -2.07897171e-01, 4.44051474e-02, 1.32812560e-01,
          1.25751510e-01, 5.19782975e-02, -1.37340963e-01,
          8.08615759e-02, 5.28724827e-02, -4.61909268e-03,
          -2.10069671e-01, 5.77716939e-02, 1.60076126e-01,
          2.70828068e-01, 5.17610759e-02, -1.78226754e-01,
          -2.50167493e-02, 1.45322844e-01, 7.03863427e-02,
          -2.31282353e-01, 2.70061847e-03, 5.39445989e-02,
          6.50404952e-03, -6.50974959e-02, -1.02487035e-01,
          -3.14829014e-02, 5.52669466e-02, -3.70392739e-03,
          -8.22972953e-02, -4.72712517e-02, -2.07339637e-02,
          -2.25552525e-02, -7.16800839e-02, -1.08164817e-01,
          -1.32417064e-02, 7.33961463e-02, -1.25683248e-01,
          -1.27985343e-01, -3.47554646e-02, 5.53561673e-02,
          -4.54709642e-02, -4.01480421e-02, -5.22709340e-02,
          3.43522578e-02, 5.35093769e-02, -1.65060684e-01,
          -1.00689657e-01, -3.44139617e-03, 9.67408791e-02,
          2.09503770e-01, -9.08287540e-02, -2.73435205e-01,
          -5.40351383e-02, 2.41133794e-01, -8.14637076e-03,
          -1.34941876e-01, -9.10495222e-02, -4.81050462e-02,
          3.36797535e-02, 8.07170942e-03, -1.03381306e-01,
          -1.24923319e-01, 1.73562959e-01, -7.89180677e-03,
          -4.02644202e-02, -1.03497095e-02, 2.82260100e-03,
          -1.33559167e-01, -2.56853979e-02, 4.14105691e-02,
          8.30524508e-03, -3.08332425e-02, -9.61491913e-02,
          2.84563191e-02, 3.25416252e-02, 7.49292821e-02 ]
      - [ 3.36051434e-02, -5.39330998e-04, -3.51103209e-03,
          -9.16466862e-02, 1.28351703e-01, 8.02023260e-06,
          -8.99193157e-03, -1.57989576e-01, 5.11005074e-02,
          2.05013499e-01, 4.59601358e-02, -7.70256743e-02,
          -1.17278129e-01, 1.21941403e-01, 1.84111409e-02,
          -1.08758725e-01, -1.72106147e-01, 2.11951599e-01,
          2.95986146e-01, 3.75287421e-02, -1.58364788e-01,
          -6.30862638e-02, 2.41337761e-01, 7.33195692e-02,
          -2.80196398e-01, -5.46424203e-02, 6.58516139e-02,
          6.12194464e-02, -3.28683149e-04, -2.91335601e-02,
          -1.89913154e-01, 1.34722680e-01, 3.33572482e-03,
          -1.89605206e-02, -9.52949971e-02, -7.76581690e-02,
          7.98671171e-02, -7.54412487e-02, -7.00047091e-02,
          -2.48739943e-01, 7.08952770e-02, -1.26930522e-02,
          -1.46982938e-01, -1.22181438e-01, 1.63881138e-01,
          -1.97509620e-02, -1.09766923e-01, -5.00941649e-02,
          2.53115352e-02, 9.72977579e-02, -1.70021906e-01,
          -2.00634181e-01, -6.71559619e-03, 1.01004668e-01,
          4.92719263e-02, -5.72732054e-02, -6.06644563e-02,
          -1.21972084e-01, 6.20373860e-02, -1.94467288e-02,
          -4.69366126e-02, -1.73413567e-02, -7.41833821e-02,
          6.43657744e-02, -8.43934193e-02, -1.12149604e-01,
          -7.02476427e-02, 6.54986873e-02, -1.37995323e-02,
          -3.63129713e-02, -4.75234836e-02, 1.02215283e-01,
          -1.40632033e-01, -7.51604736e-02, -6.79408312e-02,
          2.26797033e-02, -6.80883648e-04, -1.07736327e-01,
          6.05052523e-03, -3.75957079e-02, 1.20937891e-01 ]
      - [ -5.99324191e-03, -1.20358784e-02, -1.50493398e-01,
          5.94404675e-02, 1.29564971e-01, -8.96401703e-04,
          -1.41244292e-01, 3.01160477e-02, 9.42422226e-02,
          9.68697146e-02, 2.45854780e-02, -1.17542751e-01,
          3.01546585e-02, 1.08149864e-01, 1.87580790e-02,
          -8.08052644e-02, 3.47637050e-02, 2.11224724e-02,
          1.37480363e-01, 2.35961322e-02, -4.93696071e-02,
          -1.25431791e-01, 8.55875015e-02, 7.26162270e-02,
          -6.22900613e-02, -6.01097057e-03, -8.18996653e-02,
          6.84009120e-02, -1.16714984e-02, -1.50415182e-01,
          -9.25495010e-03, 1.76652089e-01, 5.07513015e-03,
          -2.15571490e-03, -3.17137758e-03, -5.71999252e-02,
          9.21806991e-02, -3.70581402e-03, -9.84223336e-02,
          -8.87125507e-02, 1.34674698e-01, 6.54948875e-03,
          -6.53092633e-04, -7.41366344e-03, -5.75801842e-02,
          8.70938301e-02, -6.23587519e-03, -4.90886420e-02,
          -1.45635366e-01, 1.20001853e-01, 9.89481527e-03,
          -2.27292781e-04, -7.69400457e-03, -2.57263407e-02,
          1.46586016e-01, 4.12367396e-02, -1.17893312e-02,
          -9.28760320e-02, 1.00333177e-01, 5.83928786e-02,
          -1.30947199e-04, -1.10948822e-02, -1.65553197e-01,
          9.77322683e-02, 4.26958576e-02, 4.11284715e-02,
          -1.09110035e-01, 7.65326396e-02, 5.78413047e-02,
          1.45841418e-02, 2.42849644e-02, -5.50401956e-02,
          1.31103303e-02, -1.31242885e-03, 4.45893370e-02,
          -9.01183113e-02, 5.09418286e-02, 1.55705516e-03,
          1.40611175e-02, 3.05959377e-02, 4.33739722e-02 ]
      - [ -2.37120971e-01, -1.10678405e-01, -9.09362137e-02,
          -2.39555002e-03, 9.64074880e-02, -1.93888754e-01,
          -1.80624172e-01, -1.66319281e-01, 2.35347405e-01,
          1.02948509e-01, -6.01433218e-02, -3.70930322e-02,
          -4.16801050e-02, 1.35755107e-01, -1.85381025e-01,
          -1.61365509e-01, -1.29433185e-01, 1.64470464e-01,
          2.19660804e-01, -5.29901236e-02, 1.44980429e-02,
          -2.59065837e-01, 1.20004758e-01, -6.91042542e-02,
          -8.84238407e-02, -1.30994633e-01, -1.59918904e-01,
          1.33106802e-02, -7.72837847e-02, -7.91787729e-02,
          -1.51843622e-01, 1.22312494e-01, -1.10678129e-01,
          -6.65181354e-02, -1.33966312e-01, -5.08068167e-02,
          -3.31298709e-02, -1.80327833e-01, -1.11927748e-01,
          -2.23387390e-01, 1.54235721e-01, -1.60995260e-01,
          -1.09969519e-01, -1.48568004e-01, 9.75301191e-02,
          -3.43151242e-02, -1.49176180e-01, -3.71678285e-02,
          -1.23289436e-01, 9.15994346e-02, -1.92511246e-01,
          -6.24401346e-02, -1.00476429e-01, 7.68512413e-02,
          2.22088069e-01, -7.34936967e-02, -1.71376809e-01,
          -2.02496052e-01, 7.92466030e-02, -1.20191406e-02,
          -7.66494870e-02, -1.43539831e-01, -2.03700259e-01,
          1.11381792e-01, -1.15824290e-01, -2.08522499e-01,
          -1.36509955e-01, 1.77690223e-01, -1.31880222e-02,
          -4.71016504e-02, -8.83451551e-02, 1.25267938e-01,
          -2.03063369e-01, -1.64777085e-01, -7.90423155e-02,
          3.15219834e-02, -3.82016064e-03, -1.86627731e-01,
          1.22683018e-03, -5.92705980e-02, 2.02478796e-01 ]
      - [ -1.80834442e-01, -7.81606010e-04, -2.06347797e-02,
          -9.51260142e-03, -3.63632329e-02, -2.96316221e-02,
          -2.18099989e-02, -1.22018598e-01, 1.39650971e-01,
          1.22682117e-01, -6.25859275e-02, -3.66451927e-02,
          -2.37938087e-03, -1.64320413e-02, -3.45609561e-02,
          -7.06096739e-02, -9.12204832e-02, 5.82102016e-02,
          2.44218618e-01, -6.24029525e-02, -1.77251287e-02,
          -2.26861355e-03, 1.52621754e-02, -8.96864533e-02,
          -5.23608476e-02, 1.12911426e-02, -2.38963827e-01,
          -6.83195740e-02, -2.57619321e-01, -8.83112997e-02,
          -9.87779275e-02, 1.56671524e-01, -2.01997265e-01,
          -3.14706974e-02, -2.92776059e-02, 9.71112493e-03,
          6.90828785e-02, -2.32298627e-01, -2.19330639e-01,
          -1.56949669e-01, 2.63050139e-01, -1.45635471e-01,
          -7.75950700e-02, -1.62189901e-01, -1.18235007e-01,
          1.43088639e-01, -3.25145312e-02, -1.24730080e-01,
          -7.21677020e-02, 4.01496142e-02, -7.47792125e-02,
          -4.42885272e-02, -1.13324337e-01, -7.73901194e-02,
          1.84038013e-01, -3.38259727e-01, -2.77856976e-01,
          -4.51367901e-04, 5.03571391e-01, -1.50671989e-01,
          -2.93057531e-01, -7.10762441e-02, 1.19530089e-01,
          2.09956855e-01, -9.99363214e-02, -2.20076531e-01,
          -1.72656849e-01, 4.95748460e-01, 3.62577215e-02,
          -1.49012983e-01, -2.00410128e-01, -1.94571428e-02,
          1.52139356e-02, -8.44155718e-03, -7.53829703e-02,
          -9.80492085e-02, 4.86834608e-02, 1.35350721e-02,
          5.03084296e-03, -1.40663698e-01, 1.12880178e-01 ]
      - [ 4.53576259e-03, -5.44883758e-02, 3.36875655e-02,
          -6.21772073e-02, -5.08241206e-02, 3.03304032e-03,
          -1.17490560e-01, 1.03388518e-01, -3.86387333e-02,
          -1.37435868e-02, -3.78207937e-02, -5.27313165e-03,
          -9.64683667e-02, 7.95212463e-02, -1.04679622e-01,
          -1.07709922e-01, 9.41255838e-02, -2.76303869e-02,
          -4.37655859e-02, -1.98032465e-02, 3.05216690e-03,
          -5.64471297e-02, 7.97541589e-02, -1.21242307e-01,
          -4.67750952e-02, 8.15565437e-02, -5.55954948e-02,
          7.14359581e-02, 7.56574869e-02, 2.02327058e-01,
          -7.34856278e-02, -2.48710737e-02, 5.98014891e-03,
          1.25838525e-03, -4.23953794e-02, -6.92060962e-02,
          1.94724239e-02, 1.43155148e-02, 2.59610452e-02,
          -2.26122364e-01, 1.60948709e-01, -6.71016192e-03,
          -1.16912811e-03, -2.77913343e-02, -2.67838370e-02,
          -2.94530112e-02, 3.73165938e-04, -1.62818725e-03,
          -2.18993455e-01, 9.43045542e-02, -1.08956173e-02,
          -7.71737366e-04, -1.10910472e-03, 5.81242470e-03,
          5.38377576e-02, 4.44055797e-04, -1.84676796e-01,
          -1.45796746e-01, 1.91243757e-02, -1.16876909e-03,
          -8.83406475e-02, -1.01911873e-01, 1.28035098e-01,
          4.20229547e-02, 1.47654740e-02, -1.46033704e-01,
          -2.39238381e-01, 2.60733455e-01, -1.73136201e-02,
          -1.65086031e-01, -3.53705958e-02, 9.13206711e-02,
          3.79930064e-02, 1.43370293e-02, -1.42072082e-01,
          -2.57876098e-01, 2.13193983e-01, -2.41550338e-02,
          -1.86911732e-01, -3.50574584e-04, 1.64989859e-01 ]
      - [ -2.62836106e-02, 4.29195240e-02, -8.02930037e-04,
          -7.74711892e-02, -4.17310372e-03, 3.12680076e-03,
          -6.91814721e-02, 8.17857385e-02, -2.18987223e-02,
          -3.04970089e-02, -3.83972302e-02, -2.33135466e-02,
          -9.49356928e-02, 2.35199183e-01, -5.66983968e-02,
          -1.13165140e-01, 4.73707356e-02, -7.36213848e-02,
          -1.84840225e-02, -5.49768880e-02, -5.06419921e-03,
          -8.51680264e-02, 1.10364042e-01, -1.04177907e-01,
          -8.67071152e-02, 5.34201786e-02, -5.85762113e-02,
          -8.13739970e-02, 4.67106067e-02, 2.91080792e-02,
          -4.37254831e-02, 4.21826681e-03, 4.71975515e-03,
          -8.85516405e-02, -1.65737607e-02, 1.12605169e-01,
          -1.43502817e-01, -6.80818483e-02, -3.50253880e-02,
          -1.03513792e-01, 2.32772991e-01, -3.55701447e-02,
          -7.07504302e-02, -4.46814373e-02, 3.34841684e-02,
          -9.11215171e-02, -6.09495975e-02, -1.50470966e-02,
          -8.57940242e-02, 6.20608963e-02, -1.06973656e-01,
          -4.13395315e-02, -3.33043747e-02, 5.49514666e-02,
          -5.67856198e-03, -1.08172238e-01, -1.82302192e-01,
          1.54253626e-02, 2.88635194e-02, -9.23902467e-02,
          -1.64245069e-01, -4.56771664e-02, 2.21375301e-01,
          -8.53982344e-02, -7.72096664e-02, -1.36296496e-01,
          -8.17138106e-02, 2.32317641e-01, -7.44174942e-02,
          -1.24169387e-01, -1.08564436e-01, 9.50346440e-02,
          -7.48449042e-02, -4.48536985e-02, -4.44456451e-02,
          -1.54431313e-01, 9.17768329e-02, -8.90119299e-02,
          -5.09300865e-02, -9.40628275e-02, 8.35512578e-02 ]
      - [ 9.26382318e-02, 8.22076127e-02, 1.84784591e-01,
          -7.12715415e-03, 7.31351320e-03, 9.79556516e-03,
          3.50029916e-02, 3.39636415e-01, -3.29624802e-01,
          7.69053996e-02, 3.00512165e-02, 5.22001125e-02,
          -1.18739322e-01, 2.55530804e-01, 8.52181762e-03,
          6.76045369e-04, 1.74049363e-01, -2.51742601e-01,
          6.37212843e-02, 7.19231321e-03, -1.87272695e-03,
          -1.19785033e-01, 8.14867765e-02, 1.39374068e-04,
          -9.06727836e-03, 8.40373933e-02, -1.42653391e-01,
          1.39331609e-01, 1.11722864e-01, 9.74926949e-02, 2.89288093e-03,
          -6.87816041e-03, -5.52267348e-03, -7.94750154e-02,
          -6.67038374e-03, -1.10077716e-01, 4.26510908e-02,
          4.16300911e-03, -8.38159323e-02, -1.59144267e-01,
          2.44195491e-01, -1.00341337e-02, -8.22257176e-02,
          -2.65145544e-02, -1.00521542e-01, 1.99316181e-02,
          -1.64760295e-02, -7.76005983e-02, -1.05274595e-01,
          2.30161604e-02, -1.31988553e-02, -7.57426098e-02,
          -1.82632003e-02, 7.58027798e-03, 7.34724104e-02,
          -1.36507135e-02, -2.20930800e-01, -1.72004387e-01,
          3.64545966e-03, -1.02818748e-02, -1.01309046e-01,
          -3.35180312e-02, 1.32869706e-01, -5.24750501e-02,
          -1.16582857e-02, -1.56646833e-01, -1.07410826e-01,
          2.13398501e-01, -1.39858769e-02, -1.19402155e-01,
          -3.62246372e-02, -2.95745861e-02, -5.34210354e-02,
          -1.35414284e-02, -7.49349371e-02, -2.26492491e-02,
          -3.78985750e-03, -1.55561967e-02, -9.34813693e-02,
          -2.28056163e-02, 6.94841444e-02 ]
      - [ -7.00272992e-02, 4.70318533e-02, 4.40161712e-02,
          6.93973377e-02, -1.37543947e-01, -5.34010876e-04,
          -1.20312296e-01, 1.89436525e-01, -5.50461784e-02,
          4.20608036e-02, 1.68273803e-02, -8.29752013e-02,
          6.37248391e-03, 9.32125971e-02, -1.97603740e-02,
          -1.92188293e-01, 9.47766379e-02, 5.39738722e-02,
          7.43235350e-02, 8.21919995e-04, -1.38207898e-01,
          -1.69682875e-02, 1.66765034e-01, -4.13582362e-02,
          -2.05960050e-01, 5.68736605e-02, 9.15502235e-02,
          -1.54762845e-02, 3.40785459e-02, 8.89463574e-02,
          7.85964206e-02, -1.67859823e-01, -5.72822802e-03,
          -4.96326983e-02, -1.31186964e-02, 1.25079416e-02,
          -6.63548857e-02, -3.58225144e-02, -5.02344966e-02,
          -1.03809889e-02, 5.01765907e-02, -9.04035419e-02,
          -8.32250416e-02, -2.11955272e-02, 6.05936013e-02,
          -8.49932581e-02, -2.46694591e-02, -3.40461954e-02,
          -2.99603189e-03, 4.48178500e-02, -1.19267970e-01,
          -6.51269928e-02, -2.87259719e-03, 8.17217231e-02,
          -7.31415767e-03, -1.11592457e-01, -1.80467173e-01,
          -2.25211922e-02, 8.74685496e-03, -7.09245205e-02,
          -7.72349387e-02, -5.65563440e-02, 1.97448179e-01,
          -7.35196024e-02, -3.97354998e-02, -1.05905928e-01,
          -1.14920266e-01, 1.52248621e-01, -7.70470500e-02,
          -4.47278172e-02, -4.57644612e-02, 5.03520891e-02,
          -7.71889985e-02, -7.30371755e-03, 1.46859454e-03,
          -1.05087630e-01, 4.68134657e-02, -6.55026436e-02,
          -2.97408144e-04, -1.90808680e-02, 3.15040536e-02 ]
      - [ 5.63344620e-02, 5.01402393e-02, 1.06701389e-01,
          -4.33163941e-02, -7.84995258e-02, 6.35606050e-03,
          8.60966556e-03, 6.92767650e-02, -1.13640152e-01,
          8.47660303e-02, 1.08366441e-02, -4.12166528e-02,
          -1.18536621e-01, 1.35157540e-01, -6.05844008e-03,
          -1.24712631e-01, -4.56256345e-02, 7.84829929e-02,
          7.71487206e-02, -1.06304782e-02, -1.20497376e-01,
          -3.93026955e-02, 2.22270802e-01, -4.45987172e-02,
          -2.29259863e-01, 2.34590750e-02, 9.85635519e-02,
          1.70518514e-02, 7.80651271e-02, 1.41797826e-01,
          -1.39139723e-02, -1.27368599e-01, -1.40657625e-03,
          -8.03977065e-03, -4.01983857e-02, -2.06815358e-02,
          -4.67826379e-03, -3.52784395e-02, -2.25954521e-02,
          -1.53440207e-01, 4.61451821e-02, -1.74034592e-02,
          -9.03007761e-02, -7.31954053e-02, 1.25485703e-01,
          -6.93501905e-02, -6.56302273e-02, -3.08845621e-02,
          -1.04537969e-02, 6.99081719e-02, -1.16839036e-01,
          -1.22467190e-01, -4.76499274e-03, 8.14707205e-02,
          -1.16502851e-01, -8.94967169e-02, -4.13085185e-02,
          -6.16415590e-02, -1.13178484e-01, -7.94462264e-02,
          -1.85686052e-02, -8.37335922e-03, 1.89955100e-01,
          -5.88051789e-02, -9.76702347e-02, -1.08748086e-01,
          -7.82069340e-02, 8.14668760e-02, -8.24766457e-02,
          -4.14488837e-02, -6.91921860e-02, 1.12227939e-01,
          -7.65207782e-02, -3.62672321e-02, -6.73532411e-02,
          -9.98605192e-02, 6.82265982e-02, -6.92699477e-02,
          -1.54988989e-02, -6.41338453e-02, 5.63957170e-02 ]
      - [ 2.85890363e-02, 3.56520452e-02, -8.15752074e-02,
          8.82736221e-02, 6.61879545e-03, 5.27322805e-03,
          -1.65493727e-01, 2.05481425e-01, -2.62854118e-02,
          8.27275813e-02, 1.39498180e-02, -1.43796399e-01,
          -9.18257609e-03, 1.99078336e-01, 6.42248988e-03,
          -1.61847383e-01, 1.04044504e-01, -2.42674928e-02,
          7.07385316e-02, -3.80056538e-03, -8.70719254e-02,
          -1.60477713e-01, 1.84884876e-01, 2.24983483e-03,
          -1.38391644e-01, 4.96602245e-02, -4.51886803e-02,
          6.65893555e-02, 6.41864091e-02, -3.02690808e-02,
          9.10147950e-02, 1.32621266e-02, 2.98492191e-03, 8.03242612e-04,
          1.39990887e-02, -4.58888449e-02, 6.34297356e-02,
          6.07272983e-03, -1.04982115e-01, -1.14797622e-01,
          1.74344048e-01, -1.43221836e-03, -1.59271713e-03,
          -8.17970838e-03, -4.73683029e-02, 5.29363379e-02,
          -6.67918380e-03, -6.28301054e-02, -2.11437330e-01,
          1.63427711e-01, -7.96998036e-04, -5.26239222e-04,
          -1.04702115e-02, -1.26022110e-02, 3.85513753e-02,
          -2.67270464e-03, -1.93936322e-02, -1.05383791e-01,
          -2.47978121e-02, 6.03420008e-03, 9.95889027e-03,
          -1.19040878e-02, 2.68178638e-02, 2.53698584e-02,
          7.61518301e-03, 1.15104131e-02, -1.74591780e-01,
          1.39353842e-01, -1.20232510e-03, -9.59533150e-04,
          -9.73591022e-03, -1.95856504e-02, 2.59285700e-02,
          7.94680510e-03, 3.05181947e-02, -2.29466274e-01,
          1.34137288e-01, -1.68831449e-03, -1.48279895e-03,
          -2.70550395e-03, 3.77356261e-02 ]
      - [ -7.92549998e-02, 8.09995551e-03, 9.67252553e-02,
          1.54493237e-02, -1.57766059e-01, -9.55153406e-02,
          -7.80570507e-02, 1.32073179e-01, -6.72960430e-02,
          1.56925316e-03, -5.52077331e-02, -1.22643095e-02,
          -8.53075013e-02, 1.54193252e-01, -1.22536801e-01,
          -1.64704531e-01, 9.74761881e-03, 2.05205157e-02,
          -2.01008581e-02, -7.32022896e-02, -2.43301317e-02,
          -1.40129611e-01, 1.64959714e-01, -1.56407580e-01,
          -1.25713646e-01, 5.59755834e-03, -7.65093928e-03,
          -1.99246518e-02, 6.31738827e-02, 1.70820102e-01,
          5.46236411e-02, -2.14390516e-01, -6.39673173e-02,
          -3.09872422e-02, -4.79882397e-02, 8.34722538e-03,
          -8.90744701e-02, -8.24503303e-02, -3.32314335e-02,
          -1.22370079e-01, 8.66838992e-02, -9.92894098e-02,
          -5.99983409e-02, -7.80356154e-02, 8.66002887e-02,
          -9.50330794e-02, -7.83593431e-02, -2.04264577e-02,
          -1.00725688e-01, 6.33486658e-02, -1.20989300e-01,
          -3.38079929e-02, -5.47982603e-02, 6.78758994e-02,
          -7.67463744e-02, -1.12422131e-01, -9.77453589e-02,
          -9.16882902e-02, -1.59322292e-01, -9.68178958e-02,
          -2.77121384e-02, -7.40680248e-02, 2.05095440e-01,
          -7.12907016e-02, -1.23967715e-01, -1.65896297e-01,
          -1.20565251e-01, 1.50881171e-01, -1.06095612e-01,
          -5.11025302e-02, -1.01185046e-01, 1.33980006e-01,
          -9.66863707e-02, -7.56591484e-02, -7.71072432e-02,
          -1.35063097e-01, 8.97153541e-02, -1.04968823e-01,
          -2.49898173e-02, -8.69122967e-02, 8.55083466e-02 ]
      - [ -2.65828241e-02, 6.22059964e-02, 1.26712546e-01,
          1.17698200e-02, -2.08367154e-01, -3.76758957e-03,
          8.88641272e-03, 1.57122403e-01, -1.24489151e-01,
          -1.54291675e-03, -4.58331481e-02, -7.31587177e-03,
          -5.92584945e-02, 6.89408630e-02, -3.49675193e-02,
          -1.00126930e-01, 3.75443473e-02, -3.98749635e-02,
          -3.19082290e-02, -6.59889206e-02, -3.67076620e-02,
          -1.96664245e-03, 9.91885886e-02, -1.45784408e-01,
          -9.30883288e-02, 7.47249871e-02, -2.14335173e-02,
          -5.19009233e-02, -4.20761993e-03, 1.62947580e-01,
          8.72939900e-02, -1.97913855e-01, -8.35707784e-02,
          -8.00694898e-03, 1.06245615e-02, 3.67982537e-02,
          -3.89395878e-02, -7.79766962e-02, -6.12778179e-02,
          -6.39777482e-02, 1.06941342e-01, -6.91599324e-02,
          -3.14008705e-02, -6.21440597e-02, -1.46591216e-02,
          -1.48140127e-02, -1.12265581e-02, -4.94264103e-02,
          -6.03847243e-02, 2.89326943e-02, -4.57810648e-02,
          -1.76799837e-02, -4.53295819e-02, -5.69303194e-03,
          -1.09227195e-01, -2.00447887e-01, -1.14484504e-01,
          1.55133754e-02, 1.07176360e-02, -1.42889872e-01,
          -1.02645434e-01, -2.51925495e-02, 3.38198692e-01,
          -3.89737897e-02, -9.65322554e-02, -1.36479735e-01,
          -1.11651525e-01, 2.46130362e-01, -7.75097087e-02,
          -8.24457258e-02, -1.28530473e-01, 5.42372093e-02,
          1.73152424e-02, 8.48093070e-03, -6.17552288e-02,
          -1.79303765e-01, 1.04137123e-01, 8.13510269e-04,
          -2.17881706e-02, -1.06298111e-01, 2.29128841e-02 ]
      - [ -5.04568852e-02, 1.48206100e-01, -4.84377742e-02,
          -4.31197993e-02, 6.40398785e-02, 1.00855296e-03,
          4.81139757e-02, -7.24543585e-03, 1.72544252e-02,
          -3.19772623e-02, -1.15813827e-02, -3.17603499e-02,
          -2.44998429e-02, 2.83619136e-01, 5.11588603e-02,
          -3.93836796e-02, -5.20622469e-02, -8.49491432e-02,
          3.01524960e-02, -6.45958334e-02, -1.27666332e-02,
          -6.40485734e-02, 7.37599805e-02, -5.38256345e-03,
          -8.01519379e-02, -2.43387558e-02, -2.06051320e-02,
          -2.36441389e-01, -2.73546837e-02, -2.33964935e-01,
          2.93292329e-02, 4.18462493e-02, -4.37308219e-04,
          -1.50391415e-01, 3.14434990e-02, 2.85745353e-01,
          -2.68086433e-01, -1.34285107e-01, -9.50790793e-02,
          1.42338455e-01, 1.65723667e-01, -5.03240861e-02,
          -1.17119096e-01, -3.61489691e-02, 9.36423019e-02,
          -1.11775056e-01, -1.02824464e-01, -2.29803324e-02,
          1.62115648e-01, -2.76552401e-02, -1.64323002e-01,
          -6.83089048e-02, -5.43504506e-02, 8.41101930e-02,
          -8.47883299e-02, -1.82185933e-01, -4.78410795e-02,
          2.29692787e-01, 2.17139553e-02, -1.53441653e-01,
          -1.52195737e-01, 6.57889172e-02, 1.92601055e-01,
          -2.02081129e-01, -1.50234953e-01, -2.46384554e-02,
          1.97263524e-01, 2.54755449e-02, -1.00706667e-01,
          2.23489236e-02, -1.32780820e-01, 3.18616368e-02,
          -1.78734288e-01, -9.53271240e-02, 1.23993836e-01,
          1.01261176e-01, -1.43966839e-01, -1.15639925e-01,
          1.75788805e-01, -1.57392755e-01, -9.03913081e-02 ]
      - [ 1.03291750e-01, 1.73151702e-01, 1.71719417e-01, 7.81597793e-02,
          7.94346854e-02, 7.36597413e-03, 2.05041185e-01, 2.57867783e-01,
          -3.36197495e-01, 1.10133998e-01, 8.82283077e-02,
          6.91063777e-02, -6.14216272e-03, 1.91594243e-01,
          1.55867472e-01, 1.50804669e-01, 7.48471618e-02,
          -2.59379089e-01, 1.36345536e-01, 3.60893309e-02,
          -6.46646367e-03, -6.31159693e-02, -1.46572106e-02,
          1.69015869e-01, 5.44141345e-02, -1.41494796e-02,
          -9.13596153e-02, 6.53687268e-02, 2.68231276e-02,
          -1.66423216e-01, 1.05764329e-01, 2.64991205e-02,
          -1.48627646e-02, -9.57865268e-02, 5.11505976e-02,
          -3.38612907e-02, 2.33455915e-02, -1.50112119e-02,
          -1.35325402e-01, 1.26616836e-01, 6.47805184e-02,
          -2.52721598e-03, -9.56603959e-02, 7.33251683e-03,
          -8.16348866e-02, 6.46013170e-02, -2.00139638e-02,
          -8.95486847e-02, 1.80426612e-01, -1.04102992e-01,
          -4.42708377e-04, -8.85430872e-02, -2.00642049e-02,
          8.74094432e-04, 1.19533632e-02, -1.67698059e-02,
          -4.20848932e-03, -4.66507714e-04, -2.23207455e-02,
          -1.05376923e-02, 3.16189299e-03, 1.02271803e-01,
          -2.11010687e-02, -1.20612197e-01, -3.43574509e-02,
          1.80343986e-02, 2.06093609e-01, -1.10625736e-01,
          7.56427879e-03, 8.86355862e-02, 6.39908900e-03,
          -1.62172228e-01, -1.16119072e-01, -3.59888785e-02,
          1.09197810e-01, 3.32338899e-01, -3.01393777e-01,
          1.52341491e-02, 1.49700880e-01, -2.64951289e-02,
          -1.47564113e-01 ]
      - [ -8.56348798e-02, 9.99053493e-02, 2.37166472e-02,
          1.32397890e-01, -1.18976235e-01, -3.12392041e-03,
          -4.38869186e-02, 1.36348799e-01, -3.25362384e-02,
          6.05157278e-02, 5.08461073e-02, -9.26944241e-02,
          8.69479105e-02, 4.34825458e-02, 6.31519705e-02,
          -1.36005923e-01, 3.32769156e-02, 8.58915970e-02,
          1.22986890e-01, 1.72802079e-02, -1.64149761e-01,
          2.66710855e-02, 1.29310444e-01, 5.15417680e-02,
          -2.02325717e-01, -6.93161390e-04, 1.52882054e-01,
          -7.69667476e-02, -2.24909782e-02, -6.27056137e-02,
          1.52475014e-01, -1.75817490e-01, -1.16271554e-02,
          -5.90825900e-02, 1.95937771e-02, 7.16577321e-02,
          -9.36486199e-02, -5.36913313e-02, -8.01427513e-02,
          1.74196735e-01, -7.39489496e-02, -1.00197703e-01,
          -9.63685438e-02, -1.88664370e-03, 9.29357857e-02,
          -7.51289949e-02, -2.91585252e-02, -3.84754241e-02,
          1.76958844e-01, -2.52975412e-02, -1.30505711e-01,
          -7.55302906e-02, -2.44554854e-03, 9.07840729e-02,
          -5.29192202e-02, -1.30873680e-01, -5.88730723e-02,
          9.38059688e-02, -5.53006772e-03, -8.19833353e-02,
          -1.75289400e-02, 1.78381857e-02, 1.25408322e-01,
          -1.20610669e-01, -5.86383678e-02, -3.51749011e-03,
          6.27460107e-02, -3.68035138e-02, -7.58394077e-02,
          8.37306902e-02, -2.43743639e-02, -1.63663439e-02,
          -1.21581137e-01, -2.03562267e-02, 1.18792780e-01,
          8.96038339e-02, -1.20935127e-01, -5.67004830e-02,
          1.53677791e-01, -2.20262464e-02, -9.91166681e-02 ]
      - [ 6.04182892e-02, 1.02122188e-01, 9.37045068e-02, 2.02627014e-03,
          -4.74261381e-02, 4.73402534e-03, 1.06864020e-01,
          -6.50146836e-03, -9.75176916e-02, 1.07902341e-01,
          4.35863063e-02, -4.25898992e-02, -5.53224087e-02,
          8.82535428e-02, 7.95740113e-02, -5.30704036e-02,
          -1.29723862e-01, 1.12217650e-01, 1.24027006e-01,
          4.25106147e-03, -1.39768451e-01, 1.86434505e-03,
          1.87283561e-01, 4.93586846e-02, -2.22487748e-01,
          -4.06528935e-02, 1.58191144e-01, -3.95902582e-02,
          2.64168046e-02, -5.63156744e-03, 4.48575318e-02,
          -1.24527752e-01, -6.54222770e-03, -1.01968758e-02,
          -1.07638370e-02, 3.36139724e-02, -2.14145053e-02,
          -5.20081967e-02, -4.71824445e-02, 1.20278709e-02,
          -8.03982466e-02, -1.42794400e-02, -1.01887226e-01,
          -6.04118332e-02, 1.65054649e-01, -5.46594225e-02,
          -7.50614181e-02, -3.38326432e-02, 1.69000983e-01,
          1.72186946e-03, -1.24079496e-01, -1.38853207e-01,
          -4.51113191e-03, 8.79939720e-02, -1.77172050e-01,
          -1.02304026e-01, 1.05508722e-01, 5.02309352e-02,
          -1.44709274e-01, -8.95241350e-02, 5.18274345e-02,
          7.46508986e-02, 1.10591508e-01, -1.01694055e-01,
          -1.23444460e-01, -3.22787836e-03, 1.08553916e-01,
          -1.22597657e-01, -7.96387345e-02, 8.91651437e-02,
          -4.95910048e-02, 5.23892455e-02, -1.18543118e-01,
          -5.31522073e-02, 4.06483971e-02, 9.92867872e-02,
          -9.84066054e-02, -5.89446202e-02, 1.36752263e-01,
          -7.27591664e-02, -7.20611736e-02 ]
      - [ 3.59348319e-02, 1.07463069e-01, -1.51107967e-01,
          1.90311059e-01, 6.23548292e-02, 4.34022676e-03,
          -1.12981148e-01, 1.84541538e-01, 2.86515011e-03,
          1.31972000e-01, 5.92360087e-02, -1.99015588e-01,
          8.74278471e-02, 2.00296611e-01, 1.18174843e-01,
          -1.17983401e-01, 4.99259569e-02, -5.73191838e-03,
          1.46193832e-01, 1.52230831e-02, -1.27013728e-01,
          -1.69433922e-01, 1.79867968e-01, 1.29493162e-01,
          -1.48097917e-01, -1.43271238e-02, -6.35602558e-03,
          2.02918425e-02, 1.24769434e-02, -2.53805220e-01,
          2.05989137e-01, 4.47687432e-02, -1.98411010e-03,
          -1.68433195e-04, 6.40712529e-02, 6.82583591e-03,
          6.99266195e-02, -6.27523381e-03, -1.76349044e-01,
          7.22768232e-02, 8.02994743e-02, 4.95280419e-03,
          -1.04733976e-03, 1.73159130e-02, -3.94679010e-02,
          1.05966561e-01, -9.88790207e-03, -8.76614675e-02,
          -7.25908577e-02, 1.34194806e-01, 1.02160471e-02,
          5.54673425e-05, -1.37355095e-02, -2.39775460e-02,
          -1.25263329e-03, -4.26369812e-03, 1.64788917e-01,
          1.99315324e-03, -5.51887751e-02, 9.79935005e-03,
          1.06184661e-01, 8.92275795e-02, -9.52286348e-02,
          -7.69247161e-03, -4.55024978e-03, 1.68487877e-01,
          8.99534556e-04, -7.34058022e-02, 1.63249727e-02,
          1.70599088e-01, 2.29976960e-02, -1.22980095e-01,
          -2.70002522e-03, -3.63232009e-03, 1.91394240e-01,
          -5.77292144e-02, -3.13048065e-02, 2.27602329e-02,
          1.92589894e-01, -3.48260975e-03, -1.18195660e-01 ]
      - [ -1.17482513e-01, 8.55725557e-02, 8.99690390e-02,
          1.06363952e-01, -1.52360186e-01, -1.38272360e-01,
          5.03634065e-02, 4.46999036e-02, -4.18964811e-02,
          2.09185388e-02, -2.60333810e-02, -1.00436267e-02,
          1.15548726e-02, 1.08265586e-01, -2.95488741e-02,
          -8.46430883e-02, -1.14481404e-01, 6.64434806e-02,
          3.13659385e-02, -7.58395642e-02, -3.83255109e-02,
          -1.19934604e-01, 1.23068906e-01, -5.45637272e-02,
          -1.12859182e-01, -1.03194475e-01, 6.49594888e-02,
          -1.25256777e-01, -1.43012246e-02, -3.56085189e-02,
          1.76779270e-01, -2.67224193e-01, -9.79792252e-02,
          -4.52321954e-02, -9.66506451e-03, 1.05960980e-01,
          -1.51612297e-01, -1.35287151e-01, -8.20216164e-02,
          1.36054114e-01, -9.74248722e-02, -1.30305335e-01,
          -8.26699883e-02, -7.17501119e-02, 1.58093527e-01,
          -9.33587328e-02, -1.10556431e-01, -2.64699217e-02,
          1.56744167e-01, -3.94475050e-02, -1.55081436e-01,
          -4.64292504e-02, -7.54486993e-02, 8.74104872e-02,
          -1.81094021e-01, -1.58490926e-01, 1.14200689e-01,
          6.97642118e-02, -2.49794781e-01, -1.34380057e-01,
          8.13745707e-02, 3.47520933e-02, 1.13691472e-01,
          -1.57343790e-01, -1.94207102e-01, -3.41312326e-02,
          1.56448916e-01, -1.43142968e-01, -1.25425264e-01,
          1.53029338e-01, -9.39406008e-02, 6.38106912e-02,
          -1.87522024e-01, -1.25778884e-01, 8.51700306e-02,
          1.61467105e-01, -1.64309978e-01, -1.14526823e-01,
          2.19422281e-01, -1.21582717e-01, -1.04578659e-01 ]
      - [ -4.08988781e-02, 1.48288086e-01, 1.28668651e-01,
          9.02181119e-02, -2.17063099e-01, -8.66113417e-03,
          1.52661979e-01, 8.57037231e-02, -1.19768769e-01,
          1.44127170e-02, -1.58175100e-02, -3.44017823e-03,
          3.65587324e-02, -3.33156576e-03, 7.88050666e-02,
          -4.48956387e-03, -6.27188981e-02, -2.00816933e-02,
          9.88366362e-03, -6.42996505e-02, -5.26279584e-02,
          6.50256649e-02, 3.67414691e-02, -4.91812564e-02,
          -6.81272596e-02, 1.94556837e-03, 3.80351208e-02,
          -1.54851437e-01, -9.62852091e-02, -2.50984225e-02,
          2.04524219e-01, -2.34221339e-01, -1.18655033e-01,
          -1.21898353e-02, 6.49826676e-02, 1.32031247e-01,
          -7.52843991e-02, -1.21181771e-01, -1.12861156e-01,
          1.85647309e-01, -5.02238534e-02, -8.42214152e-02,
          -4.04893756e-02, -4.95970286e-02, 1.25431009e-02,
          1.55353518e-02, -1.54240802e-02, -6.39862940e-02,
          1.81896940e-01, -7.44218230e-02, -4.80166115e-02,
          -2.26611961e-02, -5.91429956e-02, -1.45607470e-02,
          -2.10237265e-01, -2.67940909e-01, 6.85978681e-02,
          1.95426375e-01, -8.62175506e-03, -1.89222395e-01,
          -3.10625806e-02, 8.85284021e-02, 2.97731876e-01,
          -1.02355793e-01, -1.46475181e-01, -7.05696084e-03,
          1.37766764e-01, 1.58747006e-02, -8.26527253e-02,
          8.78607631e-02, -1.29076824e-01, -3.70881334e-02,
          -2.24333610e-02, -5.86823141e-03, 8.78818929e-02,
          6.98513314e-02, -1.16578393e-01, 3.00339609e-02,
          1.94938451e-01, -1.41387492e-01, -1.67165652e-01 ]
      - [ 1.23242415e-01, 2.04605460e-02, 1.76545173e-01, 9.72058922e-02,
          1.25454599e-02, 5.10519929e-03, 1.26086205e-01, 2.12747380e-01,
          -2.83614635e-01, 1.13957629e-01, 8.00687298e-02,
          8.08571205e-02, 1.46603407e-02, -7.30129182e-02,
          8.41867700e-02, 1.52520314e-01, 1.01697594e-01,
          -1.40242592e-01, 8.53157043e-02, 8.06138664e-02,
          5.01833390e-03, 5.58220083e-04, -7.07408860e-02,
          1.39948979e-01, 1.07759081e-01, 8.10519513e-03,
          -5.68458252e-02, 2.41517991e-01, 4.33996171e-02,
          5.35112135e-02, 6.14307672e-02, -1.21926703e-02,
          -1.15785738e-02, 4.33768965e-02, 1.59095041e-02,
          -2.55654305e-01, 2.33094960e-01, 9.53254104e-02,
          -3.25824544e-02, -1.21947229e-02, -8.05205256e-02,
          3.82103063e-02, 1.68739725e-02, 3.47890668e-02,
          -1.40392065e-01, 1.41220361e-01, 6.61548525e-02,
          -5.34932688e-02, 1.51771773e-02, -6.14359491e-02,
          1.31035447e-01, -1.64420195e-02, 2.73552779e-02,
          -6.65520057e-02, 7.73890242e-02, 1.32214978e-01,
          3.48756053e-02, -1.84034050e-01, -3.52759287e-02,
          1.14233024e-01, 1.24231525e-01, 2.94750705e-02,
          -1.70936376e-01, 6.47833273e-02, 9.25522298e-02,
          3.41742821e-02, 7.67261768e-03, -1.09153591e-01,
          8.65946412e-02, 5.32653183e-02, 1.11305624e-01,
          -1.55628920e-01, 4.97214682e-02, 4.73392643e-02,
          -1.15063684e-02, 1.85754210e-01, -1.26771986e-01,
          1.04690619e-01, -2.04149336e-02, 1.04585499e-01,
          -4.61530313e-02 ]
      - [ -8.25821906e-02, 1.85220391e-02, 7.72360936e-02,
          2.33190432e-01, -2.31581479e-01, -5.49440039e-03,
          -1.06757499e-01, 2.07779303e-01, -6.31050840e-02,
          1.17271952e-01, 8.52180123e-02, -1.09299257e-01,
          1.49814636e-01, -1.82801723e-01, 4.87501360e-02,
          -1.66655585e-01, 9.45194438e-02, 2.00909212e-01,
          1.55459747e-01, 8.18004012e-02, -2.31425971e-01,
          9.51995999e-02, 1.26818344e-01, 8.08463320e-02,
          -2.29137391e-01, 2.01764721e-02, 2.43845925e-01,
          9.22307223e-02, -9.40475799e-03, 1.11145712e-01,
          1.99748307e-01, -2.96237588e-01, -1.67992804e-02,
          4.37009409e-02, 1.56224030e-03, -1.43022344e-01,
          9.51466486e-02, 3.76373604e-02, -3.55981439e-02,
          1.33405581e-01, -2.53622830e-01, -1.04215793e-01,
          -4.03749421e-02, 2.87004765e-02, 5.57525679e-02,
          -1.36465412e-02, 4.64825444e-02, -3.68336178e-02,
          1.20259613e-01, -1.32899107e-02, -4.96980101e-02,
          -5.21014072e-02, 4.37293462e-02, 6.08763248e-02,
          -4.33677295e-03, -3.46819311e-02, -4.53176685e-02,
          -6.14707172e-02, -2.70854961e-02, 1.25199249e-02,
          1.06672019e-01, -3.09489667e-02, 1.75340883e-02,
          -2.18732632e-03, 4.42210361e-02, 1.62643213e-02,
          -7.91166425e-02, -7.65715241e-02, -2.43375525e-02,
          1.04252480e-01, 7.96455741e-02, -5.19364141e-02,
          -2.39579380e-02, 5.29580787e-02, 6.75204694e-02,
          4.41927537e-02, -5.32881841e-02, 1.69498604e-02,
          7.39494413e-02, 1.04553781e-01, -6.77172393e-02 ]
      - [ 1.14666887e-01, 1.84720904e-02, 1.55448467e-01, 3.49563770e-02,
          -1.08357720e-01, 5.25828730e-03, 9.96635333e-02,
          -2.82054278e-03, -1.36876345e-01, 1.61128804e-01,
          6.40837401e-02, -3.02693844e-02, -5.19013852e-02,
          -1.00841917e-01, 6.26986399e-02, -3.78624313e-02,
          -1.25747234e-01, 2.06392527e-01, 1.34961560e-01,
          5.39112724e-02, -1.68020934e-01, 5.04674204e-02,
          1.82595924e-01, 6.67637810e-02, -2.22530857e-01,
          -3.33813392e-02, 2.16492310e-01, 1.27250984e-01,
          5.41111343e-02, 1.68543637e-01, 3.49766240e-02,
          -1.89666539e-01, -7.98501354e-03, 9.99814346e-02,
          -3.72909680e-02, -1.71870887e-01, 1.74111873e-01,
          3.47551517e-02, 1.14449775e-02, -9.16072279e-02,
          -2.26617560e-01, 1.96463671e-02, -4.15188223e-02,
          -4.96205762e-02, 1.39417961e-01, 1.44818593e-02,
          -1.81652009e-02, -2.57347561e-02, 9.30115134e-02,
          2.29561962e-02, -3.42706852e-02, -1.25147507e-01,
          3.50829326e-02, 4.86528054e-02, -1.61464989e-01,
          6.81455527e-03, 1.70000359e-01, -1.08661570e-01,
          -2.00193152e-01, 1.46838347e-03, 1.80152699e-01,
          4.54560034e-02, -4.10479167e-03, 2.25302931e-02,
          -4.40433845e-02, 1.44008892e-02, -1.01953922e-02,
          -1.74920052e-01, -2.55721360e-02, 9.65217054e-02,
          3.66970897e-02, 4.26456593e-02, -1.64130442e-02,
          4.04528063e-03, -4.14620154e-02, 5.01231328e-02,
          -1.69341341e-02, 1.19389109e-02, 4.17639390e-02,
          2.57393159e-02, -2.36895848e-02 ]
      - [ 5.24434894e-02, -2.12426740e-03, -8.20246339e-02,
          1.58642098e-01, 1.04359342e-02, 2.55936082e-03,
          -1.06146187e-01, 1.35461822e-01, -7.12656556e-03,
          1.11114152e-01, 4.84008715e-02, -1.25054643e-01,
          7.53722712e-02, -7.88309705e-03, 5.70912808e-02,
          -6.32127151e-02, 6.32748455e-02, 4.10586670e-02,
          8.82377625e-02, 4.51864973e-02, -8.37986916e-02,
          -8.67979079e-02, 8.90780836e-02, 9.52124372e-02,
          -6.30233139e-02, 2.71711801e-03, 6.41769217e-03,
          1.40129432e-01, 2.34360509e-02, -5.66670671e-02,
          1.31320059e-01, 9.68878902e-03, -1.18261715e-03,
          7.98059776e-02, 2.89835222e-02, -1.46992445e-01,
          1.92345813e-01, 6.68909773e-02, -7.52383471e-02,
          -2.40999907e-02, -3.08065638e-02, 3.02771684e-02,
          6.14964589e-02, 3.15608643e-02, -7.79142603e-02,
          1.34976447e-01, 4.75946143e-02, -5.03053591e-02,
          -1.37927294e-01, 1.10402450e-01, 9.46159810e-02,
          3.63425948e-02, 1.90888774e-02, -6.18009828e-02,
          4.41677384e-02, 9.37826410e-02, 1.42949387e-01,
          -1.20649658e-01, -5.08994609e-02, 8.85358602e-02,
          1.56613722e-01, 2.86714882e-02, -1.70273677e-01,
          1.01910688e-01, 7.65978098e-02, 1.33256286e-01,
          -1.04194939e-01, -6.58905804e-02, 6.51635826e-02,
          1.09790333e-01, 8.69683698e-02, -1.04639858e-01,
          9.30634364e-02, 4.80714776e-02, 7.06014037e-02,
          -9.49869305e-02, 5.41857928e-02, 7.76894167e-02,
          4.39274907e-02, 8.11632723e-02, -3.62558886e-02 ]
      - [ -9.57890600e-02, -8.24307129e-02, 1.92270175e-01,
          2.07991168e-01, -3.01039666e-01, -1.95214763e-01,
          4.89744078e-03, 7.25570843e-02, -8.22954103e-02,
          7.29929879e-02, -2.06793845e-02, 2.92923748e-02,
          4.96553183e-02, -2.35539034e-01, -1.11285917e-01,
          -6.48746416e-02, -8.93896595e-02, 2.09150881e-01,
          2.79405643e-03, -1.81035791e-02, -3.62925567e-02,
          -8.06656703e-02, 7.17975572e-02, -6.91398606e-02,
          -4.87561487e-02, -1.11426361e-01, 1.19202092e-01,
          1.47293746e-01, 1.73074547e-02, 2.69585550e-01, 2.07766399e-01,
          -4.31754410e-01, -1.36755258e-01, 1.41966239e-01,
          -5.64883687e-02, -2.41673321e-01, 1.53561786e-01,
          -6.27239654e-03, 1.48581462e-02, -3.65012977e-03,
          -3.62888247e-01, -1.13946125e-01, 4.40471508e-02,
          -5.12179174e-02, 9.37455371e-02, 2.17652638e-02,
          -1.45663321e-02, -5.72489994e-03, -1.65353762e-03,
          -1.75334904e-02, 6.99881790e-03, 2.81959493e-02,
          -3.15467753e-02, 7.67541351e-03, -1.38079867e-01,
          2.66129021e-02, 2.25424528e-01, -2.15870246e-01,
          -3.79828185e-01, 2.11594831e-02, 3.21914285e-01,
          -4.11242992e-02, -1.03638068e-01, 5.53899631e-02,
          -6.70883134e-02, -1.42005896e-02, -5.00655137e-02,
          -2.35454887e-01, -3.83023173e-02, 1.84004828e-01,
          4.96351272e-02, 4.59428132e-02, -1.87980030e-02,
          -4.61443625e-02, -4.99306358e-02, 8.80704373e-02,
          -3.37367170e-02, -2.63139233e-03, 6.75398260e-02,
          4.44951169e-02, -2.31651552e-02 ]
      - [ 3.25050578e-03, 2.92222705e-02, 2.34351486e-01, 1.75129309e-01,
          -3.74484241e-01, -1.31165041e-02, 1.53406650e-01,
          1.26562491e-01, -1.85283974e-01, 5.75955957e-02,
          -8.10761750e-03, 3.27571258e-02, 7.92620480e-02,
          -3.39408338e-01, 4.81153950e-02, 4.03117537e-02,
          -2.48992126e-02, 7.26337135e-02, -2.19867043e-02,
          -1.22795319e-02, -5.73942326e-02, 1.65147826e-01,
          -3.64850275e-02, -6.13654442e-02, 8.14524712e-04,
          3.14115696e-02, 7.66971260e-02, 6.59048110e-02,
          -1.00286089e-01, 2.41643608e-01, 2.46993870e-01,
          -3.71909887e-01, -1.62864804e-01, 1.60756916e-01,
          5.23573384e-02, -1.55531704e-01, 2.12821916e-01,
          -8.33260734e-03, -4.31595035e-02, 8.75906721e-02,
          -2.64797121e-01, -5.65588698e-02, 8.25111195e-02,
          -2.56172661e-02, -9.32764485e-02, 1.53345108e-01,
          1.00149326e-01, -6.09764159e-02, 5.90790547e-02,
          -6.98266625e-02, 1.27872199e-01, 4.94375862e-02,
          -1.72741078e-02, -1.19343922e-01, -1.89389274e-01,
          -1.53863013e-01, 1.50933102e-01, -2.06855685e-03,
          -3.75056341e-02, -7.94056877e-02, 1.36900306e-01,
          4.42326404e-02, 1.82588071e-01, 9.76249203e-02,
          -2.43308786e-02, 1.93694178e-02, -4.31787632e-02,
          -8.21611378e-03, 5.07928152e-03, 9.45955664e-02,
          -2.09794939e-02, -8.86818245e-02, 1.80111796e-01,
          1.04456343e-01, -2.53702365e-02, -2.33606678e-02,
          9.43554938e-03, 1.77871436e-01, 6.08948693e-02,
          -8.87542032e-03, -1.23467691e-01 ]
      - [ -1.38509333e-01, -2.40655942e-03, -7.35153854e-02,
          8.13105702e-02, -1.56654298e-01, -7.06208823e-03,
          -1.55930355e-01, -1.53215434e-02, 1.57046899e-01,
          -4.39007580e-03, -1.28288113e-03, -1.26080871e-01,
          8.54937062e-02, -6.59593046e-02, -2.74425894e-02,
          -2.12585136e-01, -1.03921611e-02, 2.25921333e-01,
          3.99334021e-02, -3.84524628e-03, -1.51317149e-01,
          6.04210235e-02, 1.30231842e-01, -4.57435288e-02,
          -2.21348360e-01, 7.24780234e-03, 1.95315108e-01,
          -1.09149359e-01, -3.62073667e-02, 3.37589160e-02,
          8.48435983e-02, -1.80739641e-01, -2.67361477e-03,
          -2.26989086e-03, -1.00728758e-02, 8.65427032e-02,
          -1.01425551e-01, -4.22918797e-02, -6.57969722e-05,
          9.36996341e-02, -1.05972596e-01, -9.31576118e-02,
          -3.75317037e-02, -5.87563170e-03, 1.33305445e-01,
          -1.06986269e-01, -1.63433608e-02, 1.36960102e-02,
          6.62555695e-02, 3.42617184e-02, -1.22927152e-01,
          -2.18388438e-02, 8.89704004e-03, 8.51960182e-02,
          -5.66219874e-02, -1.14156306e-01, -5.32155037e-02,
          8.87968391e-02, 7.24600209e-03, -7.14928657e-02,
          -1.83100458e-02, -4.02793773e-02, 1.30147621e-01,
          -4.64772210e-02, -3.61567698e-02, -1.33915162e-02,
          -5.58754168e-02, 2.70448495e-02, -7.58034438e-02,
          2.95269210e-02, -2.65787896e-02, 7.51209781e-02,
          -4.99024391e-02, 8.85928283e-04, 5.11360206e-02,
          -1.01030260e-01, 5.41771799e-02, -6.20230436e-02,
          6.14416786e-02, -5.99222630e-03, -1.11389058e-02 ]
      - [ -8.05375224e-04, -5.54324826e-04, -7.71683548e-03,
          -4.19595577e-02, -8.94774646e-02, 3.45222914e-04,
          -1.39686828e-02, -1.50914520e-01, 9.64424908e-02,
          4.02928703e-02, -8.27902276e-03, -7.91023150e-02,
          -4.89095449e-02, -2.40329802e-02, -1.21911224e-02,
          -1.34884834e-01, -1.64789423e-01, 2.51813680e-01,
          4.08388004e-02, -1.62365381e-02, -1.28647998e-01,
          3.71963903e-02, 1.85475096e-01, -4.81684059e-02,
          -2.41111338e-01, -3.05310506e-02, 2.01000869e-01,
          -7.41651878e-02, 9.94316954e-03, 8.80966857e-02,
          -1.69202704e-02, -1.32730231e-01, 2.15201639e-03,
          4.41220999e-02, -3.89018506e-02, 5.08215725e-02,
          -3.33725996e-02, -4.07940522e-02, 3.13149057e-02,
          -5.96967079e-02, -1.12456024e-01, -1.20954653e-02,
          -4.27252799e-02, -6.12906218e-02, 2.02037290e-01,
          -8.79959762e-02, -5.98033890e-02, 1.82512067e-02,
          5.86563945e-02, 6.00707941e-02, -1.17181428e-01,
          -8.17057267e-02, 6.99424185e-03, 8.27875882e-02,
          -1.74387589e-01, -8.74072388e-02, 1.02216959e-01,
          4.78008948e-02, -1.24423765e-01, -7.88108110e-02,
          4.72749323e-02, 1.32370749e-02, 1.16510496e-01,
          -2.85350531e-02, -9.75414068e-02, -1.31790200e-02,
          -1.29601611e-02, -5.39245941e-02, -7.96172395e-02,
          3.46285664e-02, -5.05256839e-02, 1.40621692e-01,
          -4.70035039e-02, -3.01003382e-02, -2.28313133e-02,
          -9.26020667e-02, 7.60631412e-02, -6.43378496e-02,
          4.53846902e-02, -5.39861247e-02, 1.46400044e-02 ]
      - [ -3.70196812e-02, -1.97511520e-02, -2.50434905e-01,
          1.18119895e-01, 2.63474276e-03, -1.04745093e-03,
          -2.38606378e-01, -7.46497000e-03, 2.27841198e-01,
          4.44314368e-02, -6.05159113e-03, -2.24595949e-01,
          8.24387744e-02, 5.10570034e-02, 1.42666895e-03,
          -2.06745669e-01, -5.42584294e-03, 1.68666050e-01,
          3.96087542e-02, -1.05444705e-02, -1.09453574e-01,
          -1.09497242e-01, 1.70957819e-01, 2.75601586e-03,
          -1.69136062e-01, -3.35401669e-03, 5.55228367e-02,
          -2.56226901e-02, -6.79566385e-03, -1.15859471e-01,
          1.13668390e-01, 2.23503765e-02, 8.18154495e-03, 6.40323758e-02,
          2.31246129e-02, 2.88042836e-02, 4.70013879e-02, 4.43676719e-03,
          -6.73071519e-02, -2.00916789e-02, 2.85298862e-02,
          6.13042060e-03, 6.31604865e-02, 1.05993673e-02, 1.93430241e-02,
          5.16440831e-02, 4.55249520e-03, -1.85289029e-02,
          -1.85928956e-01, 1.89975619e-01, 9.44879279e-03,
          5.93793802e-02, 1.13924243e-03, -2.20662281e-02,
          -9.13172401e-03, 7.41719594e-03, 1.50447771e-01,
          2.09817733e-03, -3.44850570e-02, 1.58397928e-02,
          9.30079222e-02, 1.14065977e-02, -7.11724311e-02,
          7.39267245e-02, 1.89453624e-02, 1.38857335e-01,
          -1.37290418e-01, 8.36518966e-03, 9.55632795e-03,
          9.34412554e-02, 1.63149070e-02, -1.50690018e-03,
          7.53885657e-02, 2.08608638e-02, 9.82927456e-02,
          -2.74406224e-01, 1.73908919e-01, 1.01821022e-02,
          7.22241774e-02, 1.46335475e-02, -7.00911460e-03 ]
      - [ -1.61320031e-01, -6.18237406e-02, -5.75433895e-02,
          2.21089516e-02, -1.69849232e-01, -1.07416049e-01,
          -1.10844634e-01, -1.53165326e-01, 2.11786494e-01,
          -6.40667677e-02, -8.29202160e-02, -5.73083088e-02,
          1.29663479e-02, -5.83824031e-02, -1.34348989e-01,
          -1.71374500e-01, -1.38568118e-01, 2.36322924e-01,
          -7.52763376e-02, -8.20538849e-02, -2.36303937e-02,
          -4.29903828e-02, 1.01454064e-01, -1.62312210e-01,
          -1.22618407e-01, -6.59817383e-02, 1.13923311e-01,
          -1.39681399e-01, -2.99251042e-02, 9.38586667e-02,
          5.41730337e-02, -2.16445446e-01, -6.16159178e-02,
          3.57556120e-02, -4.40653749e-02, 1.02686487e-01,
          -1.28802747e-01, -8.90563205e-02, 3.71365026e-02,
          9.04749334e-03, -1.18706107e-01, -9.43908095e-02,
          8.02108273e-03, -5.82729392e-02, 1.75671101e-01,
          -1.15574360e-01, -6.71837479e-02, 4.51058820e-02,
          -1.45239877e-02, 4.60311137e-02, -1.14190020e-01,
          2.96422299e-02, -4.12244909e-02, 6.39114305e-02,
          -1.42346799e-01, -1.04919970e-01, 8.73623267e-02,
          5.18495776e-02, -1.68329701e-01, -9.16162506e-02,
          5.78029081e-02, -4.81760800e-02, 9.91821513e-02,
          -2.91025732e-02, -1.18594594e-01, -3.82221229e-02,
          -3.32726166e-02, -2.58267689e-02, -9.80731249e-02,
          4.90027815e-02, -7.39841387e-02, 1.64199159e-01,
          -5.46295643e-02, -6.68904632e-02, -1.59486048e-02,
          -1.20711714e-01, 9.62713286e-02, -9.55632553e-02,
          5.39393798e-02, -7.06462190e-02, 2.93166433e-02 ]
      - [ -1.14612237e-01, -6.32454699e-04, -1.68697014e-02,
          2.02742480e-02, -2.52050966e-01, -1.32461991e-02,
          -2.10038200e-02, -1.20278589e-01, 1.49721578e-01,
          -7.09668845e-02, -8.10159594e-02, -5.55542745e-02,
          3.69522199e-02, -1.48541063e-01, -4.88572083e-02,
          -1.18566290e-01, -1.12265222e-01, 1.79377109e-01,
          -9.48854759e-02, -8.42077583e-02, -4.15610336e-02,
          1.05387360e-01, 4.35844660e-02, -1.71872303e-01,
          -1.01513527e-01, 1.24707799e-02, 1.03015646e-01,
          -1.86423376e-01, -1.05412126e-01, 1.04306571e-01,
          1.00238964e-01, -2.26975650e-01, -9.34881195e-02,
          6.20267503e-02, 1.85143277e-02, 1.42327562e-01,
          -8.42238590e-02, -9.56066400e-02, 3.17204907e-03,
          6.77224696e-02, -9.35810059e-02, -7.24544004e-02,
          3.69399153e-02, -4.93707731e-02, 7.31137991e-02,
          -3.53736617e-02, 1.58847356e-03, 1.15455715e-02,
          2.35186666e-02, 1.33903958e-02, -4.20664661e-02,
          4.72750813e-02, -3.69809978e-02, -1.35226753e-02,
          -1.94741786e-01, -2.23871455e-01, 6.37761280e-02,
          1.72933206e-01, 9.34852753e-03, -1.59092069e-01,
          -2.98338234e-02, 4.58543596e-04, 2.78958887e-01,
          1.26814924e-03, -1.03241079e-01, -1.99368726e-02,
          -3.49573940e-02, 9.80870351e-02, -7.87379816e-02,
          1.02315834e-02, -1.18849084e-01, 9.04881284e-02,
          6.84322119e-02, 2.21670121e-02, -5.37569541e-03,
          -1.90870792e-01, 1.26090422e-01, 1.49456812e-02,
          5.83850071e-02, -1.04723044e-01, -3.54829840e-02 ]
      - [ 2.76344895e-01, 3.72272846e-03, 1.32121116e-01,
          -2.46934891e-01, 1.35737807e-01, 1.48609811e-02,
          2.85026044e-01, -2.70529866e-01, -1.22621141e-01,
          8.92479047e-02, -1.39533067e-02, 9.50970948e-02,
          -2.69203901e-01, 8.43854770e-02, 3.07326503e-02,
          1.57328248e-01, -3.08120847e-01, 4.93388399e-02,
          1.39191397e-03, -2.46971790e-02, 4.68299463e-02,
          -4.69929650e-02, 1.08928896e-01, -4.36484348e-03,
          -3.71501334e-02, -7.54947513e-02, 9.31816362e-03,
          7.09760562e-02, 9.25088152e-02, 1.08125195e-01,
          -2.04037905e-01, 9.77238193e-02, 9.66140907e-03,
          9.26376730e-02, -5.74475229e-02, -7.22120255e-02,
          1.36912107e-01, 3.43028340e-03, 6.26471490e-02,
          -3.07205886e-01, -1.18403174e-02, 1.62796810e-01,
          -9.97755770e-03, -1.10565849e-01, 1.35824695e-01,
          3.90243828e-02, -8.65907893e-02, 8.95118155e-03,
          -1.58599950e-02, 5.11670709e-02, 1.27496487e-02,
          -1.19287208e-01, -3.89121426e-03, -5.69462124e-03,
          -2.34510615e-01, 5.45881130e-02, 3.10849369e-01,
          -8.27657804e-02, -2.62932628e-01, -1.38650993e-02,
          1.31120265e-01, 1.07256040e-01, -2.85786837e-02,
          3.63022834e-02, -1.22168168e-01, 5.63573267e-04,
          8.62547830e-02, -1.61923751e-01, -6.82477094e-03,
          9.87733342e-03, -4.75294851e-02, 1.29979745e-01,
          6.30656257e-03, -6.18682541e-02, -1.48195878e-01,
          1.78768728e-02, 4.31279689e-02, -3.97568801e-03,
          -3.26945521e-02, -9.57496390e-02, 5.15793115e-02 ]
      - [ 1.06253646e-01, -1.38720907e-02, -1.33449748e-01,
          1.69135649e-02, 1.56782150e-01, 6.10851217e-03,
          -4.23775725e-02, 8.98137968e-03, 3.24201137e-02,
          4.08822708e-02, -3.71186645e-03, -6.03134483e-02,
          -1.65664405e-02, 1.07100129e-01, 2.82588936e-02,
          3.97482701e-02, 5.79356123e-03, -8.42351839e-02,
          -6.83130231e-03, -4.87870863e-03, 5.93105145e-02,
          -1.49706960e-01, 1.20937414e-02, 4.74150963e-02,
          7.93351084e-02, -9.91246104e-03, -1.47099152e-01,
          8.66510868e-02, 3.01458631e-02, -1.28625542e-01,
          9.76472534e-03, 1.96772024e-01, 9.36895516e-03, 5.49134463e-02,
          2.89640687e-02, -6.17215671e-02, 1.38768479e-01,
          4.53909710e-02, -5.53020015e-02, -1.09007195e-01,
          1.28061652e-01, 9.69876796e-02, 8.89989659e-02, 1.45181883e-02,
          -1.15658343e-01, 1.48075894e-01, 1.98754743e-02,
          -2.87595987e-02, -2.18338355e-01, 1.22458488e-01,
          1.29099354e-01, 7.04000667e-02, -7.84406811e-03,
          -1.02238551e-01, 4.83730584e-02, 1.18771501e-01,
          1.76281199e-01, -8.59148279e-02, -3.55191119e-02,
          8.35919306e-02, 9.45800915e-02, 4.91380580e-02,
          -1.86999753e-01, 1.06684342e-01, 5.12705185e-02,
          1.27441376e-01, -5.77872768e-02, -1.98115390e-02,
          8.26776028e-02, 4.77223694e-02, 3.96534204e-02,
          -7.53825605e-02, 1.11267477e-01, 1.62857771e-02,
          3.03854421e-02, -1.26011923e-01, 8.95858184e-02,
          6.95913732e-02, -1.23007875e-03, 1.79517865e-02,
          5.22818277e-03 ]
      - [ 3.36416699e-02, -1.11347735e-01, 7.11072013e-02,
          -1.57419577e-01, 6.19521216e-02, -1.86398983e-01,
          1.72078669e-01, -2.52912194e-01, 1.66187733e-02,
          -1.10738620e-01, -1.54111832e-01, 2.00427696e-01,
          -1.85014188e-01, 5.09907976e-02, -1.87510118e-01,
          1.96184948e-01, -2.37314135e-01, -1.05707444e-01,
          -2.40665168e-01, -1.46186695e-01, 3.26169103e-01,
          -2.29664743e-01, -1.26882792e-01, -1.95673615e-01,
          3.10135007e-01, -1.42902896e-01, -2.62799472e-01,
          2.69727618e-03, 3.20169479e-02, 9.52350572e-02,
          -1.05272382e-01, 3.26329917e-02, -1.10298865e-01,
          7.33751208e-02, -5.88737465e-02, -1.74329691e-02,
          4.39207302e-03, -6.52072206e-02, 7.05901906e-02,
          -2.12564677e-01, 3.46881784e-02, 4.93833534e-02,
          1.07228242e-01, -9.61085707e-02, 6.33329060e-03,
          4.31127325e-02, -8.73440951e-02, 5.19642234e-02,
          -1.89983130e-01, 3.29802558e-03, 8.48203227e-02,
          1.09758325e-01, -9.99945402e-02, -8.76676664e-02,
          -1.31138816e-01, 8.08973908e-02, 2.96149760e-01,
          -1.19370937e-01, -3.37000012e-01, 1.52987021e-03,
          1.54513121e-01, 7.38754729e-03, -1.30984962e-01,
          5.87554388e-02, -1.36267602e-01, -3.96557972e-02,
          7.38885328e-02, -1.15285903e-01, -1.47264625e-04,
          2.05420479e-02, -7.51467794e-02, 1.27227589e-01,
          1.87414400e-02, -1.29028887e-01, -1.55616358e-01,
          1.87674649e-02, 4.97512408e-02, -2.91727073e-02,
          -4.83410843e-02, -1.19288474e-01, 8.29078406e-02 ]
      - [ 1.12216726e-01, 4.01421497e-03, 1.26348749e-01,
          -1.37291387e-01, -5.90734333e-02, -5.52463625e-03,
          2.90443838e-01, -1.51056796e-01, -9.72001180e-02,
          -9.87394825e-02, -1.20429821e-01, 1.76246136e-01,
          -1.20601460e-01, -8.93110186e-02, -1.74935292e-02,
          2.59345859e-01, -1.49073109e-01, -1.94530010e-01,
          -2.26706877e-01, -1.19981751e-01, 2.49675825e-01,
          3.51998359e-02, -2.03012317e-01, -1.66548446e-01,
          3.03369075e-01, 3.96266999e-03, -2.47268707e-01,
          -5.75765558e-02, -8.52941349e-02, 8.86761993e-02,
          -2.31103469e-02, 2.88131516e-02, -1.36502862e-01,
          9.89254564e-02, 4.89510968e-02, 3.73193920e-02, 8.17207024e-02,
          -5.78188784e-02, 4.95509477e-03, -9.08183977e-02,
          7.69050941e-02, 8.25089738e-02, 1.33709207e-01,
          -6.28589392e-02, -1.64504454e-01, 1.67431042e-01,
          3.61997448e-02, -1.07732592e-02, -1.01239279e-01,
          -5.04858531e-02, 1.90217569e-01, 1.16968997e-01,
          -7.45754316e-02, -1.96669042e-01, -1.78803518e-01,
          -1.04118004e-01, 2.06902578e-01, 7.91564733e-02,
          -7.77028908e-04, -9.39009488e-02, -7.47225666e-03,
          8.39658380e-02, 1.54749781e-01, 9.80085656e-02,
          -8.21004212e-02, -2.60453741e-03, 6.24024197e-02,
          9.31072235e-02, 3.70866545e-02, -4.54966128e-02,
          -1.25613049e-01, -1.78246293e-02, 2.07127169e-01,
          3.18453275e-02, -1.13879971e-01, -8.11177567e-02,
          7.95604065e-02, 1.50925621e-01, -3.83175649e-02,
          -1.46710768e-01, -3.08794640e-02 ]
      - [ -2.43359059e-02, -1.28835626e-02, -1.62802786e-01,
          1.13520771e-01, 7.38584697e-02, -9.85028571e-04,
          -1.49783388e-01, 1.16533943e-01, 7.60795921e-02,
          -2.47178273e-03, 2.58508814e-03, -8.78580734e-02,
          9.50381756e-02, 5.38187437e-02, 1.07836537e-02,
          -3.08741964e-02, 1.29087344e-01, -8.90201181e-02,
          -6.16641017e-03, 5.96315879e-03, 2.97643095e-02,
          -1.03864267e-01, -3.40330675e-02, 4.06630188e-02,
          8.00814256e-02, 2.23312322e-02, -1.24447554e-01,
          4.24523503e-02, -1.25963222e-02, -1.49161860e-01,
          9.03455690e-02, 1.22007698e-01, 3.78815015e-03, 7.67223770e-03,
          4.69449908e-02, -2.15001907e-02, 5.86053059e-02,
          3.58568095e-02, -7.06521124e-02, 3.45298871e-02,
          1.09845996e-01, 1.38811711e-02, 7.70453513e-02, 5.65273687e-02,
          -1.49700314e-01, 1.05741575e-01, 5.12482487e-02,
          -2.72078179e-02, -1.72735766e-01, 7.98239186e-02,
          1.00774743e-01, 1.05894916e-01, -4.86546662e-03,
          -8.15836787e-02, 1.34318218e-01, 7.54184574e-02,
          1.91948190e-02, -3.70908566e-02, 7.69578665e-02,
          7.41778687e-02, 2.46880930e-02, -2.96503236e-03,
          -1.41891718e-01, 7.28803128e-02, 9.13626179e-02,
          1.04331829e-01, -8.22173879e-02, 4.90856767e-02,
          7.05867782e-02, 3.51680703e-02, 5.17129041e-02,
          -1.14297494e-01, 8.87445286e-02, 3.83269601e-02,
          8.47302601e-02, -1.10600181e-01, 5.60975112e-02,
          5.87005056e-02, 1.21838041e-02, 5.33657745e-02,
          -1.65240057e-02 ]
      - [ -3.54512304e-01, -1.35163277e-01, -1.05322652e-01,
          1.68252140e-01, -1.21152945e-01, -2.38561794e-01,
          -2.05429763e-01, 9.05031562e-02, 1.94096893e-01,
          -2.56312430e-01, -1.59851298e-01, 9.82502550e-02,
          1.67799726e-01, -6.07677810e-02, -2.62472212e-01,
          4.63283574e-03, 1.62255436e-01, -1.93580881e-01,
          -2.82658339e-01, -1.35300353e-01, 3.13668698e-01,
          -2.00888485e-01, -3.03182751e-01, -2.21984625e-01,
          4.14627016e-01, -5.90923019e-02, -3.19766045e-01,
          -9.79837105e-02, -9.44704339e-02, -4.29932997e-02,
          1.67947397e-01, -1.01182505e-01, -1.42401695e-01,
          -4.64201793e-02, 1.31920911e-02, 8.25593099e-02,
          -1.89955384e-01, -8.09353441e-02, -6.93644304e-03,
          1.89815745e-01, 5.73255308e-02, -1.74365923e-01,
          1.39271051e-01, 4.54521067e-02, -1.86142057e-01,
          -5.32333180e-03, 2.15130616e-02, 4.78491448e-02,
          -1.98969379e-01, -6.90584928e-02, 8.07552785e-02,
          2.97970325e-01, -1.11074008e-01, -9.41282585e-02,
          1.81199417e-01, 1.65671241e-02, -9.75262374e-02,
          -2.12881714e-02, -1.83888320e-02, 2.15397328e-02,
          -6.62467675e-03, -1.44206807e-01, -1.12040840e-01,
          1.67984851e-02, 1.51481777e-02, -4.70514633e-02,
          -3.67268212e-02, 9.62632969e-02, 9.55244806e-03,
          9.88350343e-03, -1.99178904e-02, -3.68213058e-02,
          1.28713213e-02, -6.23273216e-02, 2.96680257e-02,
          -3.58414813e-03, -3.42813530e-03, -2.83578765e-02,
          -9.79320426e-03, -2.69209780e-03, 2.31988635e-02 ]
      - [ -1.34753704e-01, 1.39986907e-04, -7.62484455e-03,
          9.14896280e-02, -1.55412704e-01, -1.62783265e-02,
          -2.48625106e-03, 9.97260362e-02, 2.27530599e-02,
          -1.48985013e-01, -8.28648359e-02, 6.11626804e-02,
          1.22454561e-01, -1.37704417e-01, -3.84052880e-02,
          7.60009512e-02, 1.31533280e-01, -1.91706300e-01,
          -1.78254277e-01, -7.38669038e-02, 1.57386497e-01,
          6.53279126e-02, -2.46298388e-01, -1.26616746e-01,
          2.66935229e-01, 6.38625771e-02, -2.00699851e-01,
          -1.02115825e-01, -1.41104445e-01, -1.77451689e-02,
          1.46175042e-01, -5.61460778e-02, -1.14430957e-01,
          2.72897119e-03, 8.44872147e-02, 8.72830451e-02,
          -4.63505946e-02, -4.79369536e-02, -4.65536676e-02,
          1.76313251e-01, 6.96189851e-02, -6.65695071e-02,
          1.12502649e-01, 3.98815945e-02, -2.37859547e-01,
          9.94085744e-02, 9.79818180e-02, -1.56224063e-02,
          -6.63358942e-02, -8.06311816e-02, 1.38361260e-01,
          1.87407270e-01, -5.51362857e-02, -1.49080664e-01,
          4.90543582e-02, -1.25289455e-01, -8.85453448e-02,
          1.28466606e-01, 2.11029738e-01, -6.22079112e-02,
          -1.11378223e-01, -2.07259525e-02, 1.43914580e-01,
          4.73574400e-02, 3.41863707e-02, -2.48864014e-03,
          -2.06700880e-02, 2.03081787e-01, 3.44704054e-02,
          -4.34984304e-02, -5.98889031e-02, -1.18548878e-01,
          1.56759411e-01, 7.46801719e-02, 3.03058513e-02,
          -7.77693614e-02, 2.74491981e-02, 1.21123470e-01,
          -3.62269580e-03, -3.75604331e-02, -6.56438470e-02 ]
      - [ -9.18076113e-02, -3.06517761e-02, 1.60496980e-01,
          -7.95041546e-02, -1.30558074e-01, -8.03569704e-02,
          1.10564023e-01, -1.09717347e-01, -2.54793074e-02,
          -8.46300721e-02, -5.77609576e-02, 1.39626563e-01,
          -5.73507957e-02, -8.57296214e-02, -1.02734588e-01,
          3.88479494e-02, -1.00342408e-01, 4.12745625e-02,
          -8.91763866e-02, -5.34461252e-02, 7.12943971e-02,
          5.66931553e-02, -6.25577793e-02, -1.24958612e-01,
          4.50728238e-02, -4.71523106e-02, 4.09015790e-02,
          -8.47319365e-02, -1.70887243e-02, 1.65338337e-01,
          -5.16364612e-02, -1.81846574e-01, -5.32483496e-02,
          -2.51276661e-02, -5.21520115e-02, 5.41708246e-02,
          -1.35666147e-01, -7.09437728e-02, 8.29042047e-02,
          2.32066959e-02, -1.12986043e-01, -7.63564631e-02,
          -4.53856848e-02, -5.26904762e-02, 1.17056735e-01,
          -1.29446924e-01, -5.45016304e-02, 4.91950512e-02,
          1.40475228e-01, -1.19951136e-01, -9.40284654e-02,
          -2.59593073e-02, -3.20951417e-02, 6.62941635e-02,
          -1.00180447e-01, -8.53650644e-02, -5.65043390e-02,
          3.74909006e-02, -9.91718397e-02, -8.21679607e-02,
          -3.20623443e-02, -4.57144678e-02, 1.32961452e-01,
          -8.22225139e-02, -1.05094284e-01, -1.42009035e-01,
          8.66801590e-02, -2.63401214e-02, -8.19311291e-02,
          -3.90685275e-02, -6.92245066e-02, 1.25367701e-01,
          -1.02712594e-01, -6.75645322e-02, -9.21259746e-02,
          1.32266358e-01, -6.88800365e-02, -8.05433393e-02,
          -1.80530716e-02, -6.53313026e-02, 2.78739408e-02 ]
      - [ -4.52067517e-02, 1.35492282e-02, 1.66288599e-01,
          -7.07645416e-02, -1.58748195e-01, -7.50562595e-03,
          1.55365244e-01, -6.95972592e-02, -6.76458701e-02,
          -7.55385011e-02, -4.61561158e-02, 1.23969071e-01,
          -3.51950824e-02, -1.28501460e-01, -3.14181261e-02,
          7.21464381e-02, -6.60488456e-02, -7.41346646e-03,
          -8.70220810e-02, -4.49711904e-02, 5.13968542e-02,
          1.42895207e-01, -9.35549662e-02, -1.08926877e-01,
          5.62111884e-02, 1.01300897e-02, 2.49265935e-02,
          -9.79508087e-02, -6.08161651e-02, 1.46713749e-01,
          -1.78483371e-02, -1.57057986e-01, -6.39669448e-02,
          -6.59392960e-03, -4.80013900e-03, 6.82575479e-02,
          -8.56044665e-02, -6.26420602e-02, 4.94884588e-02,
          5.63369058e-02, -7.83892348e-02, -4.94266339e-02,
          -2.15936508e-02, -3.82130630e-02, 3.18546444e-02,
          -5.84752373e-02, -2.22499529e-03, 2.02665795e-02,
          1.45891622e-01, -1.25774354e-01, -3.28542963e-02,
          -1.24913743e-02, -2.38229185e-02, 7.16003217e-03,
          -1.14770018e-01, -1.44584030e-01, -6.65081143e-02,
          1.06160522e-01, 3.01629361e-02, -1.10208079e-01,
          -8.42268914e-02, -7.76682142e-03, 2.23879635e-01,
          -5.13976105e-02, -7.76361227e-02, -1.10432968e-01,
          7.51580819e-02, 5.51487133e-02, -5.57562709e-02,
          -5.95942140e-02, -8.54943618e-02, 5.73877878e-02,
          -1.06235296e-02, -9.28494148e-04, -7.27337152e-02,
          7.49042481e-02, -4.42826748e-02, 2.11505382e-03,
          -1.46435453e-02, -7.55147338e-02, -1.71383284e-02 ]
      - [ 1.31613612e-01, 1.53672874e-01, 1.04208991e-01,
          -7.14796316e-03, -1.74719214e-01, 2.38032892e-01,
          2.28139728e-01, 9.76326466e-02, -1.74564183e-01,
          -8.41915514e-03, 1.49406465e-02, 1.13702239e-02,
          5.55714071e-02, -2.07673579e-01, 2.20716700e-01,
          1.47421896e-01, 8.01018104e-02, -1.65434286e-01,
          -3.73196900e-02, 5.15480526e-03, -3.97944115e-02,
          3.59218985e-01, -1.50722206e-01, -2.44052592e-03,
          6.57060444e-02, 1.95356160e-01, -4.02988531e-02,
          -9.39441249e-02, -1.76256076e-01, 1.31429024e-02,
          1.03056289e-01, 2.03541550e-03, -6.82759210e-02,
          5.81627637e-02, 1.54756516e-01, 8.16508904e-02, 1.22458674e-01,
          -4.45087627e-03, -8.56505036e-02, 1.38783857e-01,
          7.48021379e-02, 6.41486868e-02, 6.79549575e-02, 2.85369121e-02,
          -2.66594321e-01, 2.05744714e-01, 1.72422886e-01,
          -8.56862739e-02, 9.25395265e-02, -8.36094171e-02,
          1.86310053e-01, 3.83302979e-02, 1.52894892e-02,
          -1.92667961e-01, -1.07090235e-01, -2.70497382e-01,
          -6.72013462e-02, 2.82237768e-01, 4.44809824e-01,
          -1.49415091e-01, -2.16231406e-01, 1.22018114e-01,
          4.16263193e-01, 7.60731623e-02, 5.14864624e-02, 4.83974442e-02,
          1.55396410e-04, 2.98728704e-01, 5.84074371e-02,
          -9.86011028e-02, -9.77077186e-02, -1.96367636e-01,
          3.00309300e-01, 2.20759094e-01, 2.72128005e-02,
          -1.52164593e-01, 5.90335913e-02, 2.75509149e-01,
          3.83624318e-03, -7.24005923e-02, -1.58200473e-01 ]
   decision_functions:
      -
         sv_count: 1
         rho: 0.
         alpha: [ 1. ]
         index: [ 0 ]
      -
         sv_count: 1
         rho: 0.
         alpha: [ 1. ]
         index: [ 1 ]
      -
         sv_count: 1
         rho: 0.
         alpha: [ 1. ]
         index: [ 2 ]
      -
         sv_count: 1
         rho: 0.
         alpha: [ 1. ]
         index: [ 3 ]
      -
         sv_count: 1
         rho: 0.
         alpha: [ 1. ]
         index: [ 4 ]
      -
         sv_count: 1
         rho: 0.
         alpha: [ 1. ]
         index: [ 5 ]
      -
         sv_count: 1
         rho: 0.
         alpha: [ 1. ]
         index: [ 6 ]
      -
         sv_count: 1
         rho: 0.
         alpha: [ 1. ]
         index: [ 7 ]
      -
         sv_count: 1
         rho: 0.
         alpha: [ 1. ]
         index: [ 8 ]
      -
         sv_count: 1
         rho: 0.
         alpha: [ 1. ]
         index: [ 9 ]
      -
         sv_count: 1
         rho: 0.
         alpha: [ 1. ]
         index: [ 10 ]
      -
         sv_count: 1
         rho: 0.
         alpha: [ 1. ]
         index: [ 11 ]
      -
         sv_count: 1
         rho: 0.
         alpha: [ 1. ]
         index: [ 12 ]
      -
         sv_count: 1
         rho: 0.
         alpha: [ 1. ]
         index: [ 13 ]
      -
         sv_count: 1
         rho: 0.
         alpha: [ 1. ]
         index: [ 14 ]
      -
         sv_count: 1
         rho: 0.
         alpha: [ 1. ]
         index: [ 15 ]
      -
         sv_count: 1
         rho: 0.
         alpha: [ 1. ]
         index: [ 16 ]
      -
         sv_count: 1
         rho: 0.
         alpha: [ 1. ]
         index: [ 17 ]
      -
         sv_count: 1
         rho: 0.
         alpha: [ 1. ]
         index: [ 18 ]
      -
         sv_count: 1
         rho: 0.
         alpha: [ 1. ]
         index: [ 19 ]
      -
         sv_count: 1
         rho: 0.
         alpha: [ 1. ]
         index: [ 20 ]
      -
         sv_count: 1
         rho: 0.
         alpha: [ 1. ]
         index: [ 21 ]
      -
         sv_count: 1
         rho: 0.
         alpha: [ 1. ]
         index: [ 22 ]
      -
         sv_count: 1
         rho: 0.
         alpha: [ 1. ]
         index: [ 23 ]
      -
         sv_count: 1
         rho: 0.
         alpha: [ 1. ]
         index: [ 24 ]
      -
         sv_count: 1
         rho: 0.
         alpha: [ 1. ]
         index: [ 25 ]
      -
         sv_count: 1
         rho: 0.
         alpha: [ 1. ]
         index: [ 26 ]
      -
         sv_count: 1
         rho: 0.
         alpha: [ 1. ]
         index: [ 27 ]
      -
         sv_count: 1
         rho: 0.
         alpha: [ 1. ]
         index: [ 28 ]
      -
         sv_count: 1
         rho: 0.
         alpha: [ 1. ]
         index: [ 29 ]
      -
         sv_count: 1
         rho: 0.
         alpha: [ 1. ]
         index: [ 30 ]
      -
         sv_count: 1
         rho: 0.
         alpha: [ 1. ]
         index: [ 31 ]
      -
         sv_count: 1
         rho: 0.
         alpha: [ 1. ]
         index: [ 32 ]
      -
         sv_count: 1
         rho: 0.
         alpha: [ 1. ]
         index: [ 33 ]
      -
         sv_count: 1
         rho: 0.
         alpha: [ 1. ]
         index: [ 34 ]
      -
         sv_count: 1
         rho: 0.
         alpha: [ 1. ]
         index: [ 35 ]
      -
         sv_count: 1
         rho: 0.
         alpha: [ 1. ]
         index: [ 36 ]
      -
         sv_count: 1
         rho: 0.
         alpha: [ 1. ]
         index: [ 37 ]
      -
         sv_count: 1
         rho: 0.
         alpha: [ 1. ]
         index: [ 38 ]
      -
         sv_count: 1
         rho: 0.
         alpha: [ 1. ]
         index: [ 39 ]
      -
         sv_count: 1
         rho: 0.
         alpha: [ 1. ]
         index: [ 40 ]
      -
         sv_count: 1
         rho: 0.
         alpha: [ 1. ]
         index: [ 41 ]
      -
         sv_count: 1
         rho: 0.
         alpha: [ 1. ]
         index: [ 42 ]
      -
         sv_count: 1
         rho: 0.
         alpha: [ 1. ]
         index: [ 43 ]
      -
         sv_count: 1
         rho: 0.
         alpha: [ 1. ]
         index: [ 44 ]
