%YAML:1.0
my_svm: !!opencv-ml-svm
   svm_type: C_SVC
   kernel: { type:LINEAR }
   C: 1.
   term_criteria: { epsilon:2.2204460492503131e-16, iterations:100 }
   var_all: 36
   var_count: 36
   class_count: 10
   class_labels: !!opencv-matrix
      rows: 1
      cols: 10
      dt: i
      data: [ 0, 1, 2, 3, 4, 5, 6, 7, 8, 9 ]
   sv_total: 45
   support_vectors:
      - [ -4.08938676e-02, -8.70884806e-02, -1.37457341e-01,
          2.62271076e-01, 7.71836698e-01, 7.99740851e-02, 7.64720589e-02,
          -1.73262596e-01, -2.83512652e-01, 9.53963920e-02,
          6.67124391e-02, -7.52097070e-02, 1.78291023e-01,
          4.29882184e-02, 2.94251949e-01, 5.84108494e-02,
          -1.07294343e-01, -2.26246074e-01, 1.92302480e-01,
          1.63264424e-01, 9.26749632e-02, 4.30218205e-02, 8.09599042e-01,
          3.07509422e-01, 5.05787767e-02, 4.02908921e-02,
          -6.38505995e-01, -1.57632045e-02, 1.10974528e-01,
          5.88790327e-02, 2.41158843e-01, 6.83896542e-02, 2.08626211e-01,
          3.52795385e-02, 1.10065922e-01, -2.56517023e-01 ]
      - [ 2.71738954e-02, -1.28798202e-01, -4.52466793e-02,
          -1.54572397e-01, 4.16055173e-01, 4.31487337e-02,
          -1.23052903e-01, -1.33223176e-01, 4.85063903e-03,
          4.27282639e-02, -4.32580225e-02, -7.66833546e-03,
          -2.72297591e-01, 2.88969815e-01, 2.46279221e-02,
          -8.74580964e-02, -4.95113693e-02, -1.39047056e-01,
          3.01784009e-01, 1.21046573e-01, -2.76123941e-01,
          -2.53962040e-01, 4.28188205e-01, 1.52193397e-01,
          -1.67752683e-01, -2.57290214e-01, -7.20409527e-02,
          1.16033718e-01, 8.32845420e-02, -1.91642150e-01,
          -2.59562880e-01, 3.81551981e-01, 7.88180754e-02,
          -2.45155767e-01, -6.48205206e-02, -2.11356636e-02 ]
      - [ 7.62481168e-02, -3.01521093e-01, -2.09618047e-01,
          2.99635995e-02, 4.01257336e-01, 4.17170636e-02,
          -2.39089653e-01, -1.91502929e-01, 2.77519047e-01,
          -7.75247738e-02, -9.80032980e-02, -1.07238762e-01,
          -8.79959539e-02, 3.02944392e-01, -1.54821888e-01,
          -1.58741415e-01, -6.15540519e-02, 1.39636630e-02,
          2.29614437e-01, -1.66153654e-01, -2.80023247e-01,
          2.25709453e-02, 4.33173865e-01, 6.49012551e-02,
          -2.82734036e-01, -2.45911300e-01, 1.12877131e-01,
          -1.93337183e-02, -3.99086736e-02, -1.39634266e-01,
          -1.30097419e-01, 2.76987225e-01, -9.65446979e-02,
          -9.76741314e-02, -1.18656829e-01, -6.31552860e-02 ]
      - [ 2.61450768e-01, 2.89257970e-02, 5.79939820e-02,
          -2.85462171e-01, 5.30811548e-01, 5.77882454e-02,
          -2.32940048e-01, -2.05582947e-01, -3.50281931e-02,
          1.70674726e-01, 1.05452962e-01, 2.22193431e-02,
          -1.04535796e-01, 2.07488999e-01, 1.43791884e-01,
          -1.45181879e-01, -7.01130256e-02, -3.22335154e-01,
          4.34867203e-01, 1.46826610e-01, -3.90168041e-01,
          -4.79838401e-01, 5.71443796e-01, 2.54765630e-01,
          -2.68973231e-01, -3.14880818e-01, -1.42966568e-01,
          2.55705491e-02, 7.00307190e-02, -1.81793243e-01,
          -9.52036083e-02, 2.15357825e-01, 1.16651095e-01,
          -1.84933573e-01, -6.53299317e-02, -1.83193862e-01 ]
      - [ -1.55456752e-01, -1.35155082e-01, -2.90519774e-01,
          9.58752409e-02, 3.36825252e-01, 1.64835602e-02,
          -4.47904497e-01, 1.52401716e-01, 2.34831333e-01,
          2.03545857e-02, -4.90477309e-03, -3.26715916e-01,
          2.13302448e-02, 3.22865933e-01, -5.36205284e-02,
          -4.42211568e-01, 1.25559285e-01, 2.32907489e-01,
          2.03843728e-01, -1.75078422e-01, -2.55791336e-01,
          -5.10008447e-02, 4.33701515e-01, 4.72121127e-02,
          -2.99343586e-01, -1.43654227e-01, -1.23017482e-01,
          -3.83883230e-02, -2.91887745e-02, -1.48478732e-01,
          -1.38078988e-01, 2.92310953e-01, -1.57732382e-01,
          -2.44493172e-01, -5.06215803e-02, -2.41329893e-02 ]
      - [ 1.11178935e-01, 4.49749548e-03, -5.30683771e-02,
          -3.10021162e-01, 3.42799425e-01, 4.14102450e-02,
          -4.92456704e-02, -1.72897726e-01, 3.83455344e-02,
          5.54972291e-02, -1.48012582e-02, -1.54588014e-01,
          -4.35963303e-01, 5.85674167e-01, 1.45715913e-02,
          -2.87015408e-01, -2.29288518e-01, 1.97737530e-01,
          9.08117145e-02, -1.11989930e-01, -7.24895075e-02,
          -3.09282035e-01, 2.35801861e-01, -4.72499710e-03,
          -1.36698246e-01, -1.09464616e-01, -7.88580552e-02,
          2.32919380e-02, -8.73391256e-02, -1.30032599e-01,
          -3.26278985e-01, 5.66871047e-01, -2.19913110e-01,
          -2.80438542e-01, -1.13640338e-01, 4.59905490e-02 ]
      - [ 9.88797620e-02, -1.11869853e-02, -2.40212619e-01,
          3.91679667e-02, 3.02901030e-01, 3.24115679e-02,
          -2.16943979e-01, 2.30451636e-02, 3.13469544e-02,
          1.19184531e-01, 3.93007770e-02, -1.71409339e-01,
          -1.91621795e-01, 3.61413538e-01, 1.12957343e-01,
          -2.02121183e-01, 1.56673254e-03, -4.79299948e-02,
          2.15447783e-01, 7.39223287e-02, 1.96728595e-02,
          -2.75492609e-01, 2.77504385e-01, 1.19366936e-01,
          1.91168524e-02, -8.31568912e-02, -1.58514351e-01,
          9.57825556e-02, 5.86472191e-02, 4.49726209e-02,
          -2.72507071e-01, 3.39342803e-01, 7.97561556e-02,
          1.32919503e-02, -7.13592842e-02, -6.98938444e-02 ]
      - [ 5.38488142e-02, -3.20963174e-01, -9.12849382e-02,
          -1.90771222e-01, 3.53061974e-01, -5.51141202e-02,
          -2.04446733e-01, -2.98240632e-01, 1.87031731e-01,
          -7.07559139e-02, -1.86226502e-01, -9.67332944e-02,
          -3.22503686e-01, 5.07694662e-01, -3.24223489e-01,
          -2.25865513e-01, -2.05723699e-02, 1.18959166e-01,
          1.63245738e-01, -3.52865398e-01, -1.38094395e-01,
          -2.62063205e-01, 3.66519064e-01, -1.04044601e-01,
          -1.19763896e-01, -3.57762009e-01, 9.88025516e-02,
          2.70406436e-02, -1.32818803e-01, -1.51640758e-01,
          -4.15546834e-01, 6.24323547e-01, -3.19878489e-01,
          -1.36744410e-01, -1.80984437e-01, 4.16127332e-02 ]
      - [ -2.32238919e-02, -4.61620539e-01, -2.80304223e-01,
          -1.08600900e-01, 4.01155472e-01, -3.56648564e-01,
          -1.74341589e-01, -2.06122980e-01, 2.75373876e-01,
          1.15462154e-01, -1.74787715e-01, -2.12275609e-01,
          -2.57975996e-01, 5.20949364e-01, -3.69764328e-01,
          -9.18770507e-02, -1.38700083e-01, -1.48466662e-01,
          1.24439165e-01, -3.46079588e-01, -4.18301314e-01,
          -5.63851446e-02, 4.95826840e-01, -2.53364414e-01,
          -2.05257624e-01, -2.56117314e-01, 1.96721926e-01,
          1.67196721e-01, -7.41955265e-02, -1.87789932e-01,
          -3.78012151e-01, 5.73167086e-01, -1.53876781e-01,
          -9.15219709e-02, -1.84887573e-01, -2.60552973e-01 ]
      - [ 5.26895821e-02, -8.68896171e-02, 3.14244218e-02,
          -3.16903919e-01, -3.67381191e-03, -3.39007674e-04,
          -1.75577819e-01, -4.16540876e-02, 1.69525996e-01,
          -9.72779095e-03, -8.48117769e-02, 3.54201198e-02,
          -3.93785119e-01, 2.83291906e-01, -1.44310042e-01,
          -1.27142683e-01, 9.39024705e-03, -1.71512403e-02,
          2.10401878e-01, 3.44625898e-02, -3.48234624e-01,
          -2.95813024e-01, -1.26236901e-02, -1.59353949e-02,
          -2.08243787e-01, -2.97779709e-01, 2.93303967e-01,
          1.32898286e-01, 2.44984664e-02, -2.38535717e-01,
          -4.16646928e-01, 3.67313892e-01, -3.68741341e-02,
          -2.81932145e-01, -1.32942140e-01, 1.26159906e-01 ]
      - [ 8.52157101e-02, -2.21658811e-01, -1.18446939e-01,
          -9.55286771e-02, -9.06238891e-03, -8.16758606e-04,
          -2.43218362e-01, -8.61082599e-02, 3.72581154e-01,
          -1.11588061e-01, -1.16088644e-01, -5.83308637e-02,
          -1.59110844e-01, 2.43336976e-01, -2.70933509e-01,
          -1.65022954e-01, -3.75841069e-03, 1.17003821e-01,
          1.10402346e-01, -2.20065847e-01, -2.86300570e-01,
          -3.26943904e-04, 1.16998190e-03, -8.61361846e-02,
          -2.69143909e-01, -2.32375845e-01, 3.94051015e-01,
          -9.49473027e-03, -8.61199126e-02, -1.48635596e-01,
          -2.24837989e-01, 2.09005818e-01, -1.80600733e-01,
          -1.01232864e-01, -1.54131979e-01, 6.40175417e-02 ]
      - [ 3.25004935e-01, 1.14541806e-01, 1.94289654e-01,
          -5.61985493e-01, -1.53815493e-01, -1.28869228e-02,
          -3.27671587e-01, -6.00394681e-02, 2.31519431e-01,
          9.59556624e-02, 5.18907495e-02, 9.58973095e-02,
          -2.84081727e-01, 1.86120376e-01, -1.22730739e-01,
          -2.14455009e-01, 2.54044719e-02, -1.37361214e-01,
          2.92802483e-01, 5.26395440e-03, -5.15134037e-01,
          -5.65992355e-01, -1.45297512e-01, -1.39205838e-02,
          -3.42454225e-01, -3.82894754e-01, 4.51295167e-01,
          4.29829918e-02, -2.89973356e-02, -2.54961163e-01,
          -3.33707988e-01, 1.70553401e-01, -7.09298104e-02,
          -2.35935330e-01, -1.76245540e-01, 4.37005498e-02 ]
      - [ -9.95369479e-02, -5.90126365e-02, -1.53417036e-01,
          -6.52233735e-02, -1.49256617e-01, -2.98447944e-02,
          -3.90562981e-01, 2.11534724e-01, 3.34780455e-01,
          -3.50595526e-02, -3.94613743e-02, -2.14925632e-01,
          -7.85726309e-02, 2.29129434e-01, -1.99029192e-01,
          -3.76471341e-01, 1.55342177e-01, 3.02691698e-01,
          5.64480722e-02, -2.23900303e-01, -2.49217451e-01,
          -6.27992377e-02, -9.37860161e-02, -1.27381220e-01,
          -2.60738522e-01, -1.33683279e-01, 2.44981900e-01,
          -2.15538573e-02, -8.20628554e-02, -1.47378296e-01,
          -2.36615792e-01, 1.91705316e-01, -2.34584928e-01,
          -2.09740520e-01, -9.83120427e-02, 1.18165568e-01 ]
      - [ 9.00450945e-02, 4.36961651e-02, 3.06138545e-02,
          -3.20587665e-01, -1.43331558e-01, -1.10960258e-02,
          -6.72444850e-02, -2.89872345e-02, 1.57361552e-01,
          -9.34636127e-03, -4.07117158e-02, -6.32848963e-02,
          -3.61499965e-01, 3.53194952e-01, -1.28663391e-01,
          -2.10347682e-01, -9.58620682e-02, 2.32120991e-01,
          -3.22663635e-02, -1.47932306e-01, -8.96580070e-02,
          -2.17327222e-01, -2.29243025e-01, -1.47179767e-01,
          -1.10853367e-01, -8.86695758e-02, 2.49077290e-01,
          2.22380422e-02, -1.07703440e-01, -1.10495582e-01,
          -3.21053594e-01, 3.29299778e-01, -2.37996623e-01,
          -1.95310637e-01, -1.24043666e-01, 1.49578810e-01 ]
      - [ 1.38046652e-01, 2.70944089e-02, -2.25081071e-01,
          -7.50035122e-02, 5.08995168e-03, 1.76265545e-03,
          -2.96706259e-01, 1.08424999e-01, 1.69760764e-01,
          9.90117565e-02, 1.62299126e-02, -1.71265543e-01,
          -3.13649058e-01, 4.14941788e-01, -1.09168387e-03,
          -2.70455718e-01, 5.18536009e-02, 4.76812012e-02,
          1.69734627e-01, 1.29318051e-02, -1.94833279e-02,
          -3.51591557e-01, -4.30612601e-02, 4.48146049e-04,
          -5.47870062e-04, -1.18843332e-01, 1.06586263e-01,
          1.22615561e-01, 1.89000964e-02, 2.67040841e-02,
          -4.40272778e-01, 3.76549929e-01, -1.17261696e-03,
          -4.33144567e-04, -1.37139812e-01, 3.53451408e-02 ]
      - [ 4.76696379e-02, -1.23087279e-01, 1.98479276e-02,
          -2.26026550e-01, -1.93688557e-01, -6.73456639e-02,
          -1.42633125e-01, -6.94238469e-02, 2.34438643e-01,
          -8.29175264e-02, -1.28488392e-01, -1.32623278e-02,
          -2.53064305e-01, 2.40828767e-01, -3.10399055e-01,
          -1.44884184e-01, 4.16226760e-02, 1.71465605e-01,
          -9.44451150e-03, -2.61403322e-01, -1.16310835e-01,
          -1.56055674e-01, -2.05132559e-01, -2.03333795e-01,
          -8.63682926e-02, -2.04066232e-01, 3.61755311e-01,
          2.16147788e-02, -1.22498825e-01, -1.06843643e-01,
          -3.31638157e-01, 2.88594693e-01, -2.66477555e-01,
          -8.76755789e-02, -1.46889538e-01, 1.46323144e-01 ]
      - [ 1.20211337e-02, -1.86819762e-01, -6.38242438e-02,
          -2.09831223e-01, -2.46048123e-01, -2.30726063e-01,
          -1.34714246e-01, -4.58768383e-03, 3.08243990e-01,
          3.54287936e-03, -1.29218727e-01, -6.52810484e-02,
          -2.37549514e-01, 2.43267924e-01, -3.63191098e-01,
          -8.16181302e-02, -8.53934046e-03, 5.62098213e-02,
          -4.86802049e-02, -2.74141043e-01, -2.69951582e-01,
          -5.42983897e-02, -2.19409570e-01, -3.10978353e-01,
          -1.35457531e-01, -1.55634254e-01, 4.75964099e-01,
          9.54172686e-02, -1.03341751e-01, -1.31324351e-01,
          -3.36294949e-01, 2.55278230e-01, -2.01694921e-01,
          -6.78652227e-02, -1.59857169e-01, 1.62011459e-02 ]
      - [ 1.02302335e-01, -3.61340225e-01, -3.40896815e-01,
          3.74823987e-01, -1.45427370e-02, -1.29568123e-03,
          -2.44155332e-01, -1.25372559e-01, 5.62800348e-01,
          -2.46483490e-01, -1.14621960e-01, -2.05744669e-01,
          3.69815797e-01, 3.99408415e-02, -3.69323581e-01,
          -1.50444716e-01, -2.67513357e-02, 3.10372591e-01,
          -1.37313306e-01, -5.87946117e-01, -1.86581835e-02,
          5.60827255e-01, 2.67441571e-02, -1.74266025e-01,
          -2.43695647e-01, 1.35901710e-02, 3.78784359e-01,
          -2.74852574e-01, -2.50991404e-01, 9.99456197e-02,
          2.57158309e-01, -2.01090574e-01, -3.58807802e-01,
          2.94885904e-01, -1.13575161e-01, -8.75140652e-02 ]
      - [ 5.91921329e-01, 6.38357341e-01, 3.54153931e-01,
          -1.03410557e-01, -3.66784692e-01, -3.06026638e-02,
          -9.77697968e-02, 2.07282361e-02, -1.16209581e-01,
          2.77793646e-01, 4.74396139e-01, 9.36709642e-02, 8.99611473e-01,
          -6.92482114e-01, 2.83457726e-01, -1.41502852e-02,
          2.47862134e-02, -2.71026164e-01, -1.30680144e-01,
          -1.27370492e-01, 1.40543088e-01, -1.99300617e-01,
          -3.09173107e-01, 3.03872041e-02, -1.34494295e-03,
          2.63144463e-01, -7.51425251e-02, -4.34881151e-01,
          -1.71799958e-01, 3.39244187e-01, 8.69605601e-01,
          -1.07350755e+00, -2.57788897e-02, 5.63305020e-01,
          1.04314774e-01, -4.05641288e-01 ]
      - [ -2.11989760e-01, 3.01252194e-02, -2.61074185e-01,
          3.24617982e-01, -2.08824486e-01, -4.22775447e-02,
          -3.27532023e-01, 3.57766032e-01, 2.55658090e-01,
          -3.73592004e-02, 5.53734526e-02, -3.54397833e-01,
          4.06912327e-01, -4.56427112e-02, -9.45809484e-02,
          -3.71243834e-01, 2.09996507e-01, 4.55944180e-01,
          -1.96706533e-01, -3.65982682e-01, 1.02543481e-01,
          3.00269842e-01, -1.17610171e-01, -1.61335737e-01,
          -9.85944942e-02, 2.01388910e-01, -3.61546054e-02,
          -2.06145629e-01, -1.49791047e-01, 1.03642128e-01,
          2.10817873e-01, -2.10040823e-01, -2.87186801e-01,
          7.16056675e-02, 3.46079282e-02, 2.75925221e-03 ]
      - [ 1.25669003e-01, 3.01942527e-01, 1.37763759e-02,
          -1.70346245e-01, -3.71869415e-01, -2.86713187e-02,
          1.98045626e-01, 1.24518080e-02, 5.36765456e-02,
          -3.91886570e-03, 7.38610700e-02, -2.43559390e-01,
          -1.14009067e-01, 3.28754604e-01, -3.16729844e-02,
          -2.84870207e-01, -2.74096012e-01, 6.51728094e-01,
          -5.36304533e-01, -4.65771675e-01, 5.08607209e-01,
          5.80403656e-02, -5.80305874e-01, -3.55792522e-01,
          1.52500585e-01, 4.03118521e-01, 3.14539410e-02,
          -2.25837767e-01, -3.37840110e-01, 2.18353584e-01,
          4.21340317e-02, 8.54169130e-02, -5.51537275e-01,
          8.66289735e-02, -4.37910408e-02, 1.25975564e-01 ]
      - [ 1.94352090e-01, 1.96749181e-01, -5.08280098e-01,
          3.64642918e-01, 1.63277369e-02, 4.13201051e-03,
          -3.16049784e-01, 2.88100094e-01, 6.81624860e-02,
          2.16908455e-01, 1.71299770e-01, -4.05527085e-01,
          5.48925996e-03, 3.80419761e-01, 2.33182684e-01,
          -3.41756463e-01, 8.99697766e-02, 1.24792457e-01,
          1.43246306e-03, -2.99579091e-02, 5.28481841e-01,
          -2.31364444e-01, -6.68427795e-02, 2.69038472e-02,
          3.38575929e-01, 2.44431958e-01, -2.62018710e-01,
          3.21828648e-02, -1.58594036e-03, 4.43322569e-01,
          -2.14324176e-01, 1.65409133e-01, 5.77683151e-02,
          4.59009707e-01, -6.16024174e-02, -1.34025425e-01 ]
      - [ 7.90304318e-03, -1.15652673e-01, -1.50892101e-02,
          9.24851671e-02, -4.39781576e-01, -1.54730499e-01,
          1.10816192e-02, -7.94779137e-02, 2.12467551e-01,
          -1.72468945e-01, -1.32140502e-01, -9.92264673e-02,
          1.79057330e-01, 6.79109991e-03, -4.36587423e-01,
          -8.79549384e-02, 7.78429061e-02, 4.28854704e-01,
          -4.29443181e-01, -6.69909477e-01, 4.06336308e-01,
          2.13066235e-01, -4.48846161e-01, -4.38279450e-01,
          2.04192072e-01, 1.06101431e-01, 2.66407907e-01,
          -2.07617253e-01, -3.30108345e-01, 2.15639398e-01,
          4.20576185e-02, -4.57899347e-02, -5.43403029e-01,
          3.43946248e-01, -8.13455135e-02, 9.31791887e-02 ]
      - [ -7.26786107e-02, -1.74022749e-01, -1.68279335e-01,
          1.95107132e-01, -4.26447958e-01, -4.05423313e-01,
          7.56134167e-02, 6.61071017e-02, 2.40538195e-01, 2.35585943e-02,
          -7.63579607e-02, -1.77958801e-01, 2.83244312e-01,
          -7.64073730e-02, -3.82139266e-01, 8.27943385e-02,
          -3.17501463e-02, 1.29460990e-01, -4.60364312e-01,
          -5.43801129e-01, 1.45104378e-01, 4.31250572e-01,
          -3.63631397e-01, -5.18874645e-01, 1.32479176e-01,
          2.56424189e-01, 3.15256506e-01, -6.87608644e-02,
          -2.25487247e-01, 1.93698555e-01, 1.50187895e-01,
          -2.04903886e-01, -2.89270699e-01, 3.82655948e-01,
          -4.45610955e-02, -1.96163625e-01 ]
      - [ 1.30023867e-01, 4.93764132e-01, 3.79194081e-01,
          -3.17062169e-01, -1.17184319e-01, -9.71557479e-03,
          1.48865014e-01, 1.01211801e-01, -4.62429851e-01,
          2.81760573e-01, 2.51579016e-01, 1.86927229e-01, 3.69569883e-02,
          -2.71759391e-01, 3.75813603e-01, 1.07824773e-01,
          2.87071187e-02, -3.27285528e-01, 5.72887063e-02,
          3.96217316e-01, 6.30643293e-02, -4.89967108e-01,
          -1.28012478e-01, 1.41233012e-01, 1.82192966e-01,
          8.17061290e-02, -3.10159206e-01, 5.41515574e-02,
          1.28136933e-01, 4.35529724e-02, 1.10921338e-01,
          -2.24151641e-01, 2.59942979e-01, -2.43206900e-02,
          1.21558286e-01, -7.60576054e-02 ]
      - [ -5.36638498e-01, 5.33037543e-01, -4.59510125e-02,
          1.21732898e-01, -3.76739711e-01, -7.84441531e-02,
          -2.99362600e-01, 8.43390465e-01, -2.56588757e-01,
          2.53819913e-01, 2.55948156e-01, -4.00886536e-01,
          2.84344673e-01, -1.39137030e-01, 3.07131797e-01,
          -5.05659819e-01, 4.33350563e-01, 4.55593735e-01,
          -1.92063630e-01, 8.05526525e-02, 2.18979135e-01,
          -1.69413924e-01, -2.58193016e-01, -7.63360485e-02,
          1.34056777e-01, 3.63897800e-01, -5.67444086e-01,
          -2.88038943e-02, 4.66065481e-02, 6.48474991e-02,
          6.09669685e-02, -1.33341298e-01, -7.18651414e-02,
          -2.52646118e-01, 2.15201676e-01, 1.20496862e-01 ]
      - [ 6.89320685e-03, 4.79147851e-01, 2.69032806e-01,
          -4.00581479e-01, -2.39966333e-01, -1.83686260e-02,
          3.19723517e-01, 1.03928655e-01, -3.92566144e-01,
          1.85152456e-01, 1.37194648e-01, -7.66654918e-03,
          -3.58732849e-01, 1.91508740e-01, 2.60008842e-01,
          -7.76887462e-02, -1.64658308e-01, 2.03501552e-01,
          -2.57435352e-01, 1.33522227e-01, 3.57573181e-01,
          -3.88116807e-01, -4.12137270e-01, -1.07418261e-01,
          2.88626105e-01, 2.61788160e-01, -2.67364979e-01,
          5.69511503e-02, -3.68409231e-02, 7.12595582e-02,
          -1.67486891e-01, 2.10877165e-01, -9.89601389e-02,
          -1.66193679e-01, 5.69709316e-02, 1.51723042e-01 ]
      - [ 6.06532730e-02, 2.88991630e-01, -1.22715697e-01,
          2.42678039e-02, 1.64222196e-02, 2.98855640e-03,
          -6.05490655e-02, 2.25523859e-01, -2.36678064e-01,
          2.44250417e-01, 1.53712511e-01, -1.30333528e-01,
          -1.77912861e-01, 1.97196275e-01, 3.13658267e-01,
          -1.21071070e-01, 6.43573329e-02, -8.08383822e-02,
          6.80368245e-02, 2.70755529e-01, 3.10243219e-01,
          -4.06371444e-01, -5.11769205e-02, 1.00639381e-01,
          3.12207252e-01, 1.32615253e-01, -3.34719419e-01,
          1.52888522e-01, 1.21967271e-01, 2.03661084e-01,
          -2.48003766e-01, 1.92686290e-01, 2.08565786e-01,
          1.17167540e-01, 2.05010697e-02, -3.35208736e-02 ]
      - [ -1.43966466e-01, 3.77605855e-01, 4.96509314e-01,
          -4.32698280e-01, -6.33960724e-01, -2.28866965e-01,
          3.88262689e-01, 7.23099709e-02, -5.39895594e-01,
          1.17971539e-01, -2.26243567e-02, 1.65215224e-01,
          -2.95917779e-01, -5.06790243e-02, -8.90361592e-02,
          9.78359878e-02, 1.56861752e-01, 1.67253628e-01,
          -4.31616962e-01, -1.04269043e-01, 6.34613216e-01,
          -5.35998344e-01, -7.10343897e-01, -3.88538569e-01,
          6.75660849e-01, 1.37599587e-01, -1.79255798e-01,
          1.08726777e-01, -1.10344447e-01, 1.69539809e-01,
          -3.28782439e-01, 2.37850294e-01, -2.64402866e-01,
          6.41589463e-02, 5.15620075e-02, 2.72253841e-01 ]
      - [ -2.84262031e-01, 2.78000444e-01, 2.55357474e-01,
          -2.63780534e-01, -6.95824981e-01, -6.81331515e-01,
          5.13499618e-01, 3.09662551e-01, -4.84420687e-01,
          4.29437310e-01, 5.25256321e-02, 2.53461618e-02,
          -1.07298128e-01, -1.91944420e-01, -6.01771846e-02,
          3.77433330e-01, -1.12200975e-02, -2.72526175e-01,
          -5.58875740e-01, 1.30008478e-02, 2.74088800e-01,
          -1.59836724e-01, -6.55222356e-01, -5.99072814e-01,
          6.08625472e-01, 4.10739630e-01, -6.75191209e-02,
          3.18679690e-01, 1.67742092e-02, 1.68468729e-01,
          -1.53449297e-01, -2.74312031e-02, 7.97347724e-02,
          1.78745091e-01, 1.04467191e-01, -1.92279980e-01 ]
      - [ -3.87525320e-01, -1.69474185e-01, -3.60759169e-01,
          3.43844295e-01, -8.65208283e-02, -3.10844164e-02,
          -2.84115672e-01, 3.37091416e-01, 2.81605601e-01,
          -1.22211076e-01, -9.42713320e-02, -3.69412392e-01,
          1.11126363e-01, 1.71395928e-01, -1.78916872e-01,
          -3.52077484e-01, 1.93939105e-01, 5.22041023e-01,
          -1.48266047e-01, -3.11836869e-01, 5.47835119e-02,
          3.50267291e-01, -1.68407429e-02, -1.64361969e-01,
          -9.42543000e-02, 1.11592352e-01, -1.13620963e-02,
          -6.27842024e-02, -9.04369131e-02, -5.91770001e-03,
          -6.78414702e-02, 1.31960183e-01, -2.67750174e-01,
          -1.06317677e-01, 8.10235448e-04, 1.28722504e-01 ]
      - [ -1.38433620e-01, -2.51468159e-02, -1.28641158e-01,
          -8.65164921e-02, -1.33544832e-01, -9.38501675e-03,
          1.86094344e-01, 1.15841173e-03, 8.56268853e-02,
          -1.11889295e-01, -1.30982995e-01, -2.18440220e-01,
          -4.37928319e-01, 5.16882896e-01, -1.34815872e-01,
          -2.06965074e-01, -2.14200452e-01, 5.92505932e-01,
          -3.48827869e-01, -2.97507972e-01, 3.24296623e-01,
          1.21475153e-01, -3.11638594e-01, -2.77343750e-01,
          1.14294291e-01, 1.97510242e-01, 5.29398955e-02, 2.10716738e-03,
          -1.84642285e-01, 2.98235957e-02, -3.09674323e-01,
          4.84809846e-01, -4.01339591e-01, -1.56332955e-01,
          -7.35864192e-02, 2.53093421e-01 ]
      - [ -3.22979987e-02, -4.45760190e-02, -4.92944896e-01,
          3.07907611e-01, 1.23720355e-01, 1.24229342e-02,
          -2.09989399e-01, 2.12180734e-01, 8.69649500e-02,
          8.01614672e-02, -1.41039481e-02, -3.35954517e-01,
          -2.68917292e-01, 4.98686075e-01, 9.07832235e-02,
          -2.54866332e-01, 6.07021935e-02, 1.76903814e-01,
          4.07546423e-02, 1.59459580e-02, 3.58097464e-01,
          -1.14950582e-01, 4.31620814e-02, 1.11776656e-02,
          2.57158071e-01, 1.05479956e-01, -1.75884992e-01,
          1.56414554e-01, 5.09477668e-02, 2.33202919e-01,
          -4.26498443e-01, 4.51300144e-01, 5.16322888e-02,
          1.77084446e-01, -7.83795938e-02, 2.14991756e-02 ]
      - [ -2.16209933e-01, -3.31325173e-01, -1.45025834e-01,
          1.11968063e-01, -2.09776148e-01, -1.10804319e-01,
          4.55033742e-02, -7.06127882e-02, 2.11617306e-01,
          -2.40727529e-01, -2.82737702e-01, -1.13636322e-01,
          -1.96559012e-01, 2.65617698e-01, -4.51626509e-01,
          -6.42052814e-02, 5.22150956e-02, 4.40842181e-01,
          -2.90337443e-01, -4.81655896e-01, 2.68366069e-01,
          2.43317947e-01, -2.38592833e-01, -3.57854575e-01,
          1.61907405e-01, -1.50283696e-02, 2.38820136e-01,
          -6.71630376e-04, -1.96365297e-01, 4.29551043e-02,
          -2.93572485e-01, 3.67253065e-01, -4.19840217e-01,
          6.01673014e-02, -1.03502639e-01, 2.26101488e-01 ]
      - [ -3.03648740e-01, -4.15113509e-01, -2.96034694e-01,
          2.20202848e-01, -2.43895486e-01, -3.59261006e-01,
          1.08443797e-01, 5.22772633e-02, 2.66960055e-01,
          -8.96605179e-02, -2.59954721e-01, -2.00588256e-01,
          -1.00714304e-01, 2.07303137e-01, -4.63696957e-01,
          8.15367997e-02, -3.90209928e-02, 2.27172419e-01,
          -3.69528800e-01, -4.47312981e-01, 7.66851604e-02,
          4.74998295e-01, -2.09404349e-01, -4.87648815e-01,
          1.21938147e-01, 1.29596412e-01, 3.18983167e-01, 1.11147933e-01,
          -1.37827829e-01, 4.16408479e-02, -2.10626274e-01,
          2.42143571e-01, -2.54754364e-01, 1.25064865e-01,
          -8.26095566e-02, -1.73095092e-02 ]
      - [ 3.33913416e-01, 1.79732099e-01, 3.11070144e-01,
          -4.95626360e-01, -2.31858604e-02, 2.84210946e-02,
          5.18666565e-01, -4.04021740e-01, -2.56901979e-01,
          4.03291546e-02, -1.14316037e-02, 2.35958174e-01,
          -5.50573885e-01, 2.86216468e-01, 8.66476521e-02,
          2.26051927e-01, -4.37054306e-01, -6.31850809e-02,
          -1.53983280e-01, 9.14698020e-02, 2.42972940e-01,
          -3.05284619e-01, -2.76519805e-01, -6.65677115e-02,
          2.22114488e-01, 5.39656729e-02, 6.40675351e-02, 7.74621740e-02,
          -6.71372339e-02, 3.55117097e-02, -2.13355377e-01,
          3.03069621e-01, -6.03888631e-02, -2.10936256e-02,
          -7.10468069e-02, 8.63076076e-02 ]
      - [ 3.16016078e-01, 1.10404477e-01, -1.28341302e-01,
          -2.54864581e-02, 1.90073878e-01, 3.90534326e-02,
          6.16183728e-02, -1.06848642e-01, -1.71681359e-01,
          1.82131544e-01, 7.11731911e-02, 2.26795860e-02,
          -3.44551623e-01, 3.02409142e-01, 2.42383599e-01,
          8.12446475e-02, -1.17495693e-01, -3.03942710e-01,
          1.69389024e-01, 2.92574644e-01, 2.78041095e-01,
          -4.17212099e-01, 5.44141904e-02, 1.56740502e-01,
          3.18775117e-01, -3.20467702e-03, -1.50423855e-01,
          1.98755816e-01, 1.27136007e-01, 2.18151405e-01,
          -3.28837961e-01, 2.94312656e-01, 2.85844773e-01,
          2.56436318e-01, -7.22698942e-02, -9.51375738e-02 ]
      - [ 3.27361673e-01, -1.63940907e-01, 3.77710789e-01,
          -3.94058943e-01, -1.36390284e-01, -9.49656889e-02,
          5.04628479e-01, -6.20284021e-01, -1.67193532e-01,
          -1.20558977e-01, -2.18869045e-01, 4.31996286e-01,
          -4.29237813e-01, 7.57009909e-02, -3.05167645e-01,
          4.68922615e-01, -2.36449465e-01, -2.46977672e-01,
          -1.44040719e-01, -1.35644913e-01, 2.62161255e-01,
          -2.33765602e-01, -2.83053517e-01, -2.06368864e-01,
          3.57830733e-01, -1.94514513e-01, 3.27581793e-01,
          9.75999087e-02, -1.12853743e-01, 6.49962276e-02,
          -2.74375021e-01, 2.69378245e-01, -1.24612719e-01,
          2.44789094e-01, -1.35518774e-01, 9.13757309e-02 ]
      - [ 2.35673249e-01, -2.36942589e-01, 2.03307018e-01,
          -2.68385053e-01, -1.59467205e-01, -3.84432852e-01,
          5.71497560e-01, -4.60144281e-01, -1.15490861e-01,
          8.16678181e-02, -1.66780531e-01, 3.31684560e-01,
          -2.93741196e-01, -1.63126625e-02, -2.80799925e-01,
          6.44556701e-01, -3.47951919e-01, -5.36519766e-01,
          -2.14954451e-01, -5.48008941e-02, 7.34063145e-03,
          2.85063200e-02, -2.26058990e-01, -3.32232505e-01,
          2.93119460e-01, -1.70933865e-02, 4.01794046e-01,
          2.31288671e-01, -2.56493259e-02, 5.93326502e-02,
          -1.48386896e-01, 8.68438259e-02, 1.08689509e-01,
          3.15605193e-01, -1.00746803e-01, -2.20599949e-01 ]
      - [ 8.25230107e-02, -2.76972540e-02, -4.33829129e-01,
          4.13390458e-01, 2.50405759e-01, 2.17091199e-02,
          -3.90388459e-01, 2.33001426e-01, 2.28288248e-02,
          1.83888555e-01, 9.62287188e-02, -1.84066743e-01,
          7.71745965e-02, 1.08830594e-01, 2.15167880e-01,
          -1.04436815e-01, 2.49742612e-01, -3.10564041e-01,
          3.42637271e-01, 2.71481633e-01, 1.18146643e-01,
          -2.30434194e-01, 3.13554406e-01, 2.49014840e-01,
          1.86050415e-01, -5.22355847e-02, -2.39143088e-01,
          1.70693561e-01, 2.13760301e-01, 2.31721207e-01,
          -2.06057161e-01, 8.39455128e-02, 3.99447083e-01,
          3.28702599e-01, -2.36364752e-02, -1.92283764e-01 ]
      - [ -2.39344388e-01, -8.79851222e-01, -6.23561032e-02,
          5.58040798e-01, -2.34333351e-01, -2.91570783e-01,
          -3.80298227e-01, -2.05399543e-01, 3.71084660e-01,
          -3.82391006e-01, -4.50309992e-01, 2.73930490e-01,
          6.38693869e-01, -6.57561243e-01, -9.23457384e-01,
          3.84005368e-01, 7.37262905e-01, -3.63249540e-01,
          1.25654712e-01, -5.63056469e-01, -1.21266842e-01,
          3.63507509e-01, 1.71800032e-01, -2.63841152e-01,
          1.50066912e-01, -5.84972441e-01, 5.38675666e-01,
          -7.70512177e-03, -5.57246879e-02, 4.11841087e-02,
          8.95958301e-03, -2.78494775e-01, -1.01132505e-01,
          6.01257980e-01, -9.45026055e-02, -4.69349399e-02 ]
      - [ -2.23247215e-01, -5.35634637e-01, -2.26525590e-01,
          4.24354225e-01, -1.47927642e-01, -4.80948150e-01,
          -1.12163112e-01, 7.02753663e-02, 2.46937677e-01,
          3.37977521e-02, -1.73612833e-01, 3.08483932e-02,
          4.76423234e-01, -4.40690398e-01, -4.48457271e-01,
          4.02768970e-01, 2.47114077e-01, -5.19553185e-01,
          -1.84197556e-02, -1.97468072e-01, -3.49909574e-01,
          4.82734293e-01, 1.49593279e-01, -2.81260818e-01,
          7.21970247e-03, -9.91002172e-02, 3.64389718e-01,
          1.49913684e-01, 6.97093681e-02, 1.53939892e-02, 1.45154402e-01,
          -3.47733527e-01, 2.13178456e-01, 3.91538978e-01,
          -1.02898441e-02, -3.79205018e-01 ]
      - [ -1.20543383e-01, -1.88888699e-01, 3.18268239e-01,
          -1.84174240e-01, -2.48273328e-01, -8.63155425e-02,
          2.08964795e-01, -2.27996469e-01, 7.11047649e-02,
          -2.32555583e-01, -1.81459486e-01, 2.06785828e-01,
          9.32899565e-02, -2.40640700e-01, -3.85814518e-01,
          1.71925604e-01, -1.56910475e-02, 1.51735231e-01,
          -2.33117402e-01, -3.42976660e-01, -1.19697124e-01,
          2.63790220e-01, -1.99760839e-01, -2.54253298e-01,
          -1.07034266e-01, -9.96102914e-02, 3.12318474e-01,
          -1.32925883e-01, -1.77469149e-01, -1.68114975e-01,
          1.60383269e-01, -1.30987167e-01, -3.30914766e-01,
          -1.08814776e-01, -4.42083506e-03, 1.36455059e-01 ]
      - [ -1.53731316e-01, -2.09835902e-01, 2.08654925e-01,
          -1.09548204e-01, -2.39760622e-01, -2.21228778e-01,
          2.27017358e-01, -1.34067759e-01, 8.96507502e-02,
          -1.15084939e-01, -1.42134920e-01, 1.42890871e-01,
          1.49623901e-01, -2.65371531e-01, -3.43615860e-01,
          2.46038616e-01, -7.01432228e-02, -3.65954917e-03,
          -2.49288186e-01, -2.75821745e-01, -2.33064219e-01,
          3.69048446e-01, -1.56857848e-01, -2.95871675e-01,
          -1.27988324e-01, -5.63105615e-03, 3.24511021e-01,
          -5.60696833e-02, -1.20753996e-01, -1.56665072e-01,
          2.07327873e-01, -2.08036467e-01, -1.90146446e-01,
          -6.39332831e-02, 1.22468704e-02, -2.68978532e-02 ]
      - [ -2.51993120e-01, -2.13462472e-01, -4.86726046e-01,
          3.47048402e-01, -7.00335503e-02, -8.29653740e-01,
          2.06238866e-01, 4.38656211e-01, 1.42623544e-01, 5.73963940e-01,
          1.42164409e-01, -2.73462087e-01, 3.74041557e-01,
          -2.60525107e-01, 6.03802204e-02, 5.15818119e-01,
          -3.25620115e-01, -8.34460258e-01, -2.06897616e-01,
          2.26811051e-01, -7.19905972e-01, 7.42046475e-01,
          1.54237986e-01, -3.65730166e-01, -1.74019694e-01,
          5.00878930e-01, 2.21863985e-01, 3.84794474e-01, 2.45666385e-01,
          -1.42128468e-02, 3.51561785e-01, -5.13221979e-01,
          6.62600040e-01, 2.09662497e-01, 9.52225327e-02,
          -8.88313651e-01 ]
   decision_functions:
      -
         sv_count: 1
         rho: 0.
         alpha: [ 1. ]
         index: [ 0 ]
      -
         sv_count: 1
         rho: 0.
         alpha: [ 1. ]
         index: [ 1 ]
      -
         sv_count: 1
         rho: 0.
         alpha: [ 1. ]
         index: [ 2 ]
      -
         sv_count: 1
         rho: 0.
         alpha: [ 1. ]
         index: [ 3 ]
      -
         sv_count: 1
         rho: 0.
         alpha: [ 1. ]
         index: [ 4 ]
      -
         sv_count: 1
         rho: 1.0776469412417490e-07
         alpha: [ 1. ]
         index: [ 5 ]
      -
         sv_count: 1
         rho: 5.6701470181181310e-08
         alpha: [ 1. ]
         index: [ 6 ]
      -
         sv_count: 1
         rho: 0.
         alpha: [ 1. ]
         index: [ 7 ]
      -
         sv_count: 1
         rho: 0.
         alpha: [ 1. ]
         index: [ 8 ]
      -
         sv_count: 1
         rho: 0.
         alpha: [ 1. ]
         index: [ 9 ]
      -
         sv_count: 1
         rho: 0.
         alpha: [ 1. ]
         index: [ 10 ]
      -
         sv_count: 1
         rho: 0.
         alpha: [ 1. ]
         index: [ 11 ]
      -
         sv_count: 1
         rho: 0.
         alpha: [ 1. ]
         index: [ 12 ]
      -
         sv_count: 1
         rho: 6.8696600908577515e-08
         alpha: [ 1. ]
         index: [ 13 ]
      -
         sv_count: 1
         rho: 6.8240320277212394e-08
         alpha: [ 1. ]
         index: [ 14 ]
      -
         sv_count: 1
         rho: 0.
         alpha: [ 1. ]
         index: [ 15 ]
      -
         sv_count: 1
         rho: 0.
         alpha: [ 1. ]
         index: [ 16 ]
      -
         sv_count: 1
         rho: 0.
         alpha: [ 1. ]
         index: [ 17 ]
      -
         sv_count: 1
         rho: 0.
         alpha: [ 1. ]
         index: [ 18 ]
      -
         sv_count: 1
         rho: 0.
         alpha: [ 1. ]
         index: [ 19 ]
      -
         sv_count: 1
         rho: 1.8200405770745046e-07
         alpha: [ 1. ]
         index: [ 20 ]
      -
         sv_count: 1
         rho: 1.3855994375759124e-07
         alpha: [ 1. ]
         index: [ 21 ]
      -
         sv_count: 1
         rho: 0.
         alpha: [ 1. ]
         index: [ 22 ]
      -
         sv_count: 1
         rho: 0.
         alpha: [ 1. ]
         index: [ 23 ]
      -
         sv_count: 1
         rho: 0.
         alpha: [ 1. ]
         index: [ 24 ]
      -
         sv_count: 1
         rho: 0.
         alpha: [ 1. ]
         index: [ 25 ]
      -
         sv_count: 1
         rho: 1.2286973068720886e-07
         alpha: [ 1. ]
         index: [ 26 ]
      -
         sv_count: 1
         rho: 7.8946294405915121e-08
         alpha: [ 1. ]
         index: [ 27 ]
      -
         sv_count: 1
         rho: 0.
         alpha: [ 1. ]
         index: [ 28 ]
      -
         sv_count: 1
         rho: 0.
         alpha: [ 1. ]
         index: [ 29 ]
      -
         sv_count: 1
         rho: 0.
         alpha: [ 1. ]
         index: [ 30 ]
      -
         sv_count: 1
         rho: 1.3577656935006867e-07
         alpha: [ 1. ]
         index: [ 31 ]
      -
         sv_count: 1
         rho: 1.0507315256122790e-07
         alpha: [ 1. ]
         index: [ 32 ]
      -
         sv_count: 1
         rho: 0.
         alpha: [ 1. ]
         index: [ 33 ]
      -
         sv_count: 1
         rho: 0.
         alpha: [ 1. ]
         index: [ 34 ]
      -
         sv_count: 1
         rho: 1.2929393230990777e-07
         alpha: [ 1. ]
         index: [ 35 ]
      -
         sv_count: 1
         rho: 9.5914309479440676e-08
         alpha: [ 1. ]
         index: [ 36 ]
      -
         sv_count: 1
         rho: 0.
         alpha: [ 1. ]
         index: [ 37 ]
      -
         sv_count: 1
         rho: 0.
         alpha: [ 1. ]
         index: [ 38 ]
      -
         sv_count: 1
         rho: 0.
         alpha: [ 1. ]
         index: [ 39 ]
      -
         sv_count: 1
         rho: -3.7254756591494566e-07
         alpha: [ 1. ]
         index: [ 40 ]
      -
         sv_count: 1
         rho: -1.9065947783913349e-07
         alpha: [ 1. ]
         index: [ 41 ]
      -
         sv_count: 1
         rho: -8.8985760684855562e-08
         alpha: [ 1. ]
         index: [ 42 ]
      -
         sv_count: 1
         rho: -8.1637164809313436e-08
         alpha: [ 1. ]
         index: [ 43 ]
      -
         sv_count: 1
         rho: 0.
         alpha: [ 1. ]
         index: [ 44 ]
