svm_type c_svc
kernel_type rbf
gamma 0.0123457
nr_class 4
total_sv 8
rho 0 0 0 0 0 0
label 10 16 37 98
probA -13.6398 -1.3389 -1.88549 -1.30396 -1.99321 -1.65087
probB 0 3.02416e-16 -1.47862e-16 -2.95723e-16 3.08804e-16 0
nr_sv 2 2 2 2
SV
0.8509186266574635 0.09857933166186894 0.2636895236839875 1:-1 2:0.452877 3:-0.877333 4:-1 5:0.467694 6:-0.74181 7:-1 8:0.741727 9:0.11539 10:-1 11:-0.570413 12:-1 13:-1 14:1 15:-0.897498 16:-1 17:0.377197 18:-1 19:-0.578916 20:-0.452282 21:-1 22:-1 23:1 24:0.182705 25:-1 26:-0.942103 27:1 28:-1 29:-0.519456 30:-0.744867 31:-1 32:0.426707 33:-1 34:-1 35:-1 36:1 37:-0.854436 38:-1 39:-1 40:-1 41:1 42:-1 43:-1 44:-0.266077 45:-1 46:-1 47:-1 48:-1 49:-1 50:0.712821 51:-0.701432 52:-1 53:-0.471712 54:0.672699 55:-1 56:-0.990556 57:0.26498 58:-1 59:1 60:-1 61:-1 62:-0.28836 63:0.576581 64:-1 65:-0.266543 66:1 67:-1 68:1 69:-1 70:1 71:-1 72:-1 73:0.0496304 74:-0.13838 75:-0.294038 76:-0.988796 77:0.958243 78:-1 79:0.474131 80:-0.536743 81:-0.110587 
1 1 1 1:-1 2:0.452877 3:-0.877333 4:-1 5:0.467694 6:-0.74181 7:-1 8:0.741727 9:0.11539 10:-1 11:-0.570413 12:-1 13:-1 14:1 15:-0.897498 16:-1 17:0.377197 18:-1 19:-0.578916 20:-0.452282 21:-1 22:-1 23:1 24:0.182705 25:-1 26:-0.942103 27:1 28:-1 29:-0.519456 30:-0.744867 31:-1 32:0.426707 33:-1 34:-1 35:-1 36:1 37:-0.854436 38:-1 39:-1 40:-1 41:1 42:-1 43:-1 44:-0.266077 45:-1 46:-1 47:-1 48:-1 49:-1 50:0.712821 51:-0.701432 52:-1 53:-0.471712 54:0.672699 55:-1 56:-0.990556 57:0.26498 58:-1 59:1 60:-1 61:-1 62:-0.28836 63:0.576581 64:-1 65:-0.266543 66:1 67:-1 68:1 69:-1 70:1 71:-1 72:-1 73:0.0496304 74:-0.13838 75:-0.294038 76:-0.988796 77:0.958243 78:-1 79:0.474131 80:-0.536743 81:-0.110587 
-0.8509186266574635 0.08546873321996616 0.2893439614270019 1:1 2:-0.813057 3:-0.997714 4:-1 5:1 6:-1 7:-0.492856 8:0.0702088 9:-1 10:-1 11:-1 12:-0.753257 13:0.052996 14:0.728872 15:-1 16:-0.752442 17:1 18:-0.496755 19:-1 20:-1 21:-0.528668 22:1 23:-1 24:-0.256372 25:-0.0492949 26:1 27:-0.122823 28:-0.207869 29:-1 30:-1 31:-1 32:0.297265 33:-1 34:-1 35:-1 36:0.816104 37:-1 38:-0.681975 39:-0.802766 40:0.302975 41:0.697328 42:-1 43:1 44:0.970762 45:-0.443963 46:-0.0958602 47:0.130831 48:-0.845814 49:-0.499807 50:1 51:-0.0707293 52:1 53:1 54:-0.398813 55:-0.71165 56:-1 57:1 58:-0.947654 59:0.354183 60:-0.688965 61:-0.941374 62:-1 63:1 64:-0.992726 65:0.983664 66:0.501835 67:-0.804023 68:0.860135 69:1 70:-1 71:-1 72:-0.79732 73:0.897267 74:0.806963 75:0.998272 76:-0.553373 77:1 78:0.0611972 79:-1 80:-0.534723 81:-0.896601 
-1 1 1 1:1 2:-0.813057 3:-0.997714 4:-1 5:1 6:-1 7:-0.492856 8:0.0702088 9:-1 10:-1 11:-1 12:-0.753257 13:0.052996 14:0.728872 15:-1 16:-0.752442 17:1 18:-0.496755 19:-1 20:-1 21:-0.528668 22:1 23:-1 24:-0.256372 25:-0.0492949 26:1 27:-0.122823 28:-0.207869 29:-1 30:-1 31:-1 32:0.297265 33:-1 34:-1 35:-1 36:0.816104 37:-1 38:-0.681975 39:-0.802766 40:0.302975 41:0.697328 42:-1 43:1 44:0.970762 45:-0.443963 46:-0.0958602 47:0.130831 48:-0.845814 49:-0.499807 50:1 51:-0.0707293 52:1 53:1 54:-0.398813 55:-0.71165 56:-1 57:1 58:-0.947654 59:0.354183 60:-0.688965 61:-0.941374 62:-1 63:1 64:-0.992726 65:0.983664 66:0.501835 67:-0.804023 68:0.860135 69:1 70:-1 71:-1 72:-0.79732 73:0.897267 74:0.806963 75:0.998272 76:-0.553373 77:1 78:0.0611972 79:-1 80:-0.534723 81:-0.896601 
-0.09857933166186894 -0.08546873321996616 0.2008606474704295 1:0.439192 2:1 3:1 4:1 5:-1 6:0.792315 7:1 8:1 9:0.354947 10:0.237372 11:0.712823 12:1 13:1 14:-1 15:0.0734182 16:1 17:-1 18:1 19:-0.348818 20:1 21:1 22:0.447335 23:-0.672711 24:-1 25:1 26:-1 27:-0.373331 28:1 29:1 30:1 31:1 32:1 33:1 34:0.592055 35:1 36:-1 37:1 38:1 39:1 40:1 41:-0.858444 42:1 43:-1 44:-1 45:0.477215 46:-0.889412 47:0.293411 48:1 49:1 50:-1 51:-1 52:-1 53:-1 54:1 55:1 56:1 57:0.528732 58:0.486998 59:-0.515296 60:1 61:1 62:1 63:-1 64:1 65:-1 66:-1 67:1 68:-1 69:0.497602 70:0.328017 71:0.949862 72:1 73:-1 74:-1 75:-1 76:1 77:-1 78:-1 79:-1 80:-1 81:1 
-1 -1 1 1:0.439192 2:1 3:1 4:1 5:-1 6:0.792315 7:1 8:1 9:0.354947 10:0.237372 11:0.712823 12:1 13:1 14:-1 15:0.0734182 16:1 17:-1 18:1 19:-0.348818 20:1 21:1 22:0.447335 23:-0.672711 24:-1 25:1 26:-1 27:-0.373331 28:1 29:1 30:1 31:1 32:1 33:1 34:0.592055 35:1 36:-1 37:1 38:1 39:1 40:1 41:-0.858444 42:1 43:-1 44:-1 45:0.477215 46:-0.889412 47:0.293411 48:1 49:1 50:-1 51:-1 52:-1 53:-1 54:1 55:1 56:1 57:0.528732 58:0.486998 59:-0.515296 60:1 61:1 62:1 63:-1 64:1 65:-1 66:-1 67:1 68:-1 69:0.497602 70:0.328017 71:0.949862 72:1 73:-1 74:-1 75:-1 76:1 77:-1 78:-1 79:-1 80:-1 81:1 
-0.2636895236839875 -0.2893439614270019 -0.2008606474704295 1:0.186458 2:-1 3:-1 4:0.181666 5:-0.620367 6:1 7:-0.836497 8:-1 9:1 10:1 11:1 12:-0.839294 13:-0.0935668 14:-0.861668 15:1 16:-0.905221 17:0.30592 18:0.649743 19:1 20:0.509559 21:-0.874554 22:-0.106011 23:0.863367 24:1 25:-0.767379 26:-0.653679 27:-1 28:-0.0104583 29:0.389617 30:0.0104187 31:0.698673 32:-1 33:0.494141 34:1 35:-0.719565 36:0.656359 37:0.780089 38:0.766167 39:-0.659342 40:0.212818 41:-1 42:0.791473 43:-1 44:1 45:1 46:1 47:1 48:-0.850875 49:-0.534863 50:0.34743 51:1 52:-0.239208 53:0.563548 54:-1 55:-0.262544 56:-0.075181 57:-1 58:1 59:-1 60:-0.647805 61:-0.757671 62:0.780443 63:0.730167 64:0.264448 65:1 66:0.208945 67:0.634827 68:-0.154112 69:-0.602379 70:0.559863 71:1 72:0.493499 73:1 74:1 75:1 76:-1 77:0.668503 78:1 79:1 80:1 81:-1 
-1 -1 -1 1:0.186458 2:-1 3:-1 4:0.181666 5:-0.620367 6:1 7:-0.836497 8:-1 9:1 10:1 11:1 12:-0.839294 13:-0.0935668 14:-0.861668 15:1 16:-0.905221 17:0.30592 18:0.649743 19:1 20:0.509559 21:-0.874554 22:-0.106011 23:0.863367 24:1 25:-0.767379 26:-0.653679 27:-1 28:-0.0104583 29:0.389617 30:0.0104187 31:0.698673 32:-1 33:0.494141 34:1 35:-0.719565 36:0.656359 37:0.780089 38:0.766167 39:-0.659342 40:0.212818 41:-1 42:0.791473 43:-1 44:1 45:1 46:1 47:1 48:-0.850875 49:-0.534863 50:0.34743 51:1 52:-0.239208 53:0.563548 54:-1 55:-0.262544 56:-0.075181 57:-1 58:1 59:-1 60:-0.647805 61:-0.757671 62:0.780443 63:0.730167 64:0.264448 65:1 66:0.208945 67:0.634827 68:-0.154112 69:-0.602379 70:0.559863 71:1 72:0.493499 73:1 74:1 75:1 76:-1 77:0.668503 78:1 79:1 80:1 81:-1 
