svm_type c_svc
kernel_type rbf
gamma 0.0123457
nr_class 4
total_sv 8
rho 0 0 0 0 0 0
label 10 16 37 98
nr_sv 2 2 2 2
SV
1 1 1 1:0.0372811 2:0.0776016 3:0.0274864 4:0 5:0.790482 6:0.0319932 7:0.0460517 8:0.318207 9:0.512417 10:0 11:0.00787858 12:0 13:0.0223243 14:0.891501 15:0.0195495 16:0.0535352 17:0.170713 18:0.41506 19:0.0668256 20:0.0371622 21:0 22:0.0211515 23:0.662221 24:0.214696 25:0.0547927 26:0.105876 27:0.703465 28:0.0261169 29:0.0347522 30:0.0192553 31:0 32:0.731249 33:0 34:0 35:0 36:0.680451 37:0.0832672 38:0 39:0 40:0 41:0.92787 42:0 43:0 44:0.0222523 45:0.362808 46:0.0848002 47:0 48:0 49:0.0331525 50:0.717456 51:0.048397 52:0 53:0.018885 54:0.688671 55:0.0227362 56:0.00594518 57:0.0829289 58:0 59:0.716203 60:0.0357407 61:0.0151901 62:0.05667 63:0.689133 64:0.231071 65:0.0775465 66:0.0477929 67:0 68:0.941896 69:0.025012 70:0.0302865 71:0 72:0.222706 73:0.216991 74:0.0718445 75:0.00788669 76:0.168501 77:0.741118 78:0 79:0.0182109 80:0.0205944 81:0.60769 
1 1 1 1:0.0372811 2:0.0776016 3:0.0274864 4:0 5:0.790482 6:0.0319932 7:0.0460517 8:0.318207 9:0.512417 10:0 11:0.00787858 12:0 13:0.0223243 14:0.891501 15:0.0195495 16:0.0535352 17:0.170713 18:0.41506 19:0.0668256 20:0.0371622 21:0 22:0.0211515 23:0.662221 24:0.214696 25:0.0547927 26:0.105876 27:0.703465 28:0.0261169 29:0.0347522 30:0.0192553 31:0 32:0.731249 33:0 34:0 35:0 36:0.680451 37:0.0832672 38:0 39:0 40:0 41:0.92787 42:0 43:0 44:0.0222523 45:0.362808 46:0.0848002 47:0 48:0 49:0.0331525 50:0.717456 51:0.048397 52:0 53:0.018885 54:0.688671 55:0.0227362 56:0.00594518 57:0.0829289 58:0 59:0.716203 60:0.0357407 61:0.0151901 62:0.05667 63:0.689133 64:0.231071 65:0.0775465 66:0.0477929 67:0 68:0.941896 69:0.025012 70:0.0302865 71:0 72:0.222706 73:0.216991 74:0.0718445 75:0.00788669 76:0.168501 77:0.741118 78:0 79:0.0182109 80:0.0205944 81:0.60769 
-1 1 1 1:0.281158 2:0.0520355 3:0.0175656 4:0 5:0.841874 6:0 7:0.0714729 8:0.264038 9:0.366548 10:0 11:0 12:0.0285929 13:0.0956432 14:0.849389 15:0 16:0.0857983 17:0.204729 18:0.468293 19:0 20:0.0244936 21:0.0713274 22:0.394249 23:0.437209 24:0.153392 25:0.249724 26:0.427448 27:0.615731 28:0.182103 29:0 30:0.0123607 31:0 32:0.729384 33:0 34:0 35:0 36:0.659306 37:0.0624021 38:0.0113166 39:0.0189787 40:0.087412 41:0.88615 42:0 43:0.0222772 44:0.0597528 45:0.4457 46:0.213763 47:0.0602032 48:0.0227083 49:0.10459 50:0.749529 51:0.150632 52:0.100501 53:0.0714951 54:0.582692 55:0.0754988 56:0.00455658 57:0.0988835 58:0.0114945 59:0.636783 60:0.0868524 61:0.017886 62:0 63:0.755654 64:0.23138 65:0.128133 66:0.0416455 67:0.035001 68:0.909057 69:0.160765 70:0 71:0 72:0.273598 73:0.362561 74:0.15067 75:0.0223238 76:0.196406 77:0.745393 78:0.139011 79:0 80:0.0206842 81:0.481053 
-1 1 1 1:0.281158 2:0.0520355 3:0.0175656 4:0 5:0.841874 6:0 7:0.0714729 8:0.264038 9:0.366548 10:0 11:0 12:0.0285929 13:0.0956432 14:0.849389 15:0 16:0.0857983 17:0.204729 18:0.468293 19:0 20:0.0244936 21:0.0713274 22:0.394249 23:0.437209 24:0.153392 25:0.249724 26:0.427448 27:0.615731 28:0.182103 29:0 30:0.0123607 31:0 32:0.729384 33:0 34:0 35:0 36:0.659306 37:0.0624021 38:0.0113166 39:0.0189787 40:0.087412 41:0.88615 42:0 43:0.0222772 44:0.0597528 45:0.4457 46:0.213763 47:0.0602032 48:0.0227083 49:0.10459 50:0.749529 51:0.150632 52:0.100501 53:0.0714951 54:0.582692 55:0.0754988 56:0.00455658 57:0.0988835 58:0.0114945 59:0.636783 60:0.0868524 61:0.017886 62:0 63:0.755654 64:0.23138 65:0.128133 66:0.0416455 67:0.035001 68:0.909057 69:0.160765 70:0 71:0 72:0.273598 73:0.362561 74:0.15067 75:0.0223238 76:0.196406 77:0.745393 78:0.139011 79:0 80:0.0206842 81:0.481053 
-1 -1 1 1:0.212774 2:0.088651 3:0.1822 4:0.106838 5:0.648782 6:0.222092 7:0.146304 8:0.339041 9:0.543746 10:0.19849 11:0.031413 12:0.231763 13:0.161582 14:0.580858 15:0.204725 16:0.314186 17:0.0954938 18:0.626619 19:0.103342 20:0.0707532 21:0.302663 22:0.29115 23:0.474031 24:0.0495664 25:0.46487 26:0.0962894 27:0.596157 28:0.419956 29:0.144637 30:0.0664078 31:0.0881595 32:0.739509 33:0.176919 34:0.0149896 35:0.0959201 36:0.450484 37:0.349082 38:0.0711679 39:0.192449 40:0.134173 41:0.671704 42:0.164113 43:0 44:0 45:0.583026 46:0.100574 47:0.0688586 48:0.294558 49:0.318792 50:0.526163 51:0 52:0 53:0 54:0.721043 55:0.388699 56:0.298628 57:0.088654 58:0.326524 59:0.529858 60:0.364396 61:0.10716 62:0.159266 63:0.441445 64:0.316033 65:0.047869 66:0.0231127 67:0.357195 68:0.472314 69:0.126664 70:0.0201105 71:0.0685906 72:0.724897 73:0.0367313 74:0 75:0 76:0.295957 77:0.540637 78:0 79:0 80:0 81:0.78662 
-1 -1 1 1:0.212774 2:0.088651 3:0.1822 4:0.106838 5:0.648782 6:0.222092 7:0.146304 8:0.339041 9:0.543746 10:0.19849 11:0.031413 12:0.231763 13:0.161582 14:0.580858 15:0.204725 16:0.314186 17:0.0954938 18:0.626619 19:0.103342 20:0.0707532 21:0.302663 22:0.29115 23:0.474031 24:0.0495664 25:0.46487 26:0.0962894 27:0.596157 28:0.419956 29:0.144637 30:0.0664078 31:0.0881595 32:0.739509 33:0.176919 34:0.0149896 35:0.0959201 36:0.450484 37:0.349082 38:0.0711679 39:0.192449 40:0.134173 41:0.671704 42:0.164113 43:0 44:0 45:0.583026 46:0.100574 47:0.0688586 48:0.294558 49:0.318792 50:0.526163 51:0 52:0 53:0 54:0.721043 55:0.388699 56:0.298628 57:0.088654 58:0.326524 59:0.529858 60:0.364396 61:0.10716 62:0.159266 63:0.441445 64:0.316033 65:0.047869 66:0.0231127 67:0.357195 68:0.472314 69:0.126664 70:0.0201105 71:0.0685906 72:0.724897 73:0.0367313 74:0 75:0 76:0.295957 77:0.540637 78:0 79:0 80:0 81:0.78662 
-1 -1 -1 1:0.181956 2:0.0482601 3:0.0173772 4:0.0631234 5:0.685434 6:0.247827 7:0.0542475 8:0.177708 9:0.628105 10:0.320825 11:0.0366798 12:0.0186229 13:0.0854382 14:0.602344 15:0.381445 16:0.0658873 17:0.16682 18:0.589569 19:0.317398 20:0.0594094 21:0.018984 22:0.187924 23:0.646849 24:0.328807 25:0.102489 26:0.153633 27:0.547191 28:0.220977 29:0.100495 30:0.0396658 31:0.0748771 32:0.710693 33:0.132171 34:0.0188305 35:0.0134497 36:0.640938 37:0.31756 38:0.0628472 39:0.0327796 40:0.0813637 41:0.652192 42:0.147002 43:0 44:0.0606393 45:0.660961 46:0.370072 47:0.106476 48:0.021963 49:0.0995832 50:0.676648 51:0.324194 52:0.0382302 53:0.055893 54:0.523231 55:0.157677 56:0.140538 57:0.0554708 58:0.439172 59:0.470251 60:0.093616 61:0.0263336 62:0.141782 63:0.713262 64:0.284786 65:0.128794 66:0.0380312 67:0.291976 68:0.670921 69:0.0520011 70:0.0236214 71:0.0703543 72:0.597717 73:0.380204 74:0.166766 75:0.0223431 76:0.167783 77:0.711455 78:0.261989 79:0.0247073 80:0.0889114 81:0.464394 
-1 -1 -1 1:0.181956 2:0.0482601 3:0.0173772 4:0.0631234 5:0.685434 6:0.247827 7:0.0542475 8:0.177708 9:0.628105 10:0.320825 11:0.0366798 12:0.0186229 13:0.0854382 14:0.602344 15:0.381445 16:0.0658873 17:0.16682 18:0.589569 19:0.317398 20:0.0594094 21:0.018984 22:0.187924 23:0.646849 24:0.328807 25:0.102489 26:0.153633 27:0.547191 28:0.220977 29:0.100495 30:0.0396658 31:0.0748771 32:0.710693 33:0.132171 34:0.0188305 35:0.0134497 36:0.640938 37:0.31756 38:0.0628472 39:0.0327796 40:0.0813637 41:0.652192 42:0.147002 43:0 44:0.0606393 45:0.660961 46:0.370072 47:0.106476 48:0.021963 49:0.0995832 50:0.676648 51:0.324194 52:0.0382302 53:0.055893 54:0.523231 55:0.157677 56:0.140538 57:0.0554708 58:0.439172 59:0.470251 60:0.093616 61:0.0263336 62:0.141782 63:0.713262 64:0.284786 65:0.128794 66:0.0380312 67:0.291976 68:0.670921 69:0.0520011 70:0.0236214 71:0.0703543 72:0.597717 73:0.380204 74:0.166766 75:0.0223431 76:0.167783 77:0.711455 78:0.261989 79:0.0247073 80:0.0889114 81:0.464394 
